tree
version=v4
num_class=1
num_tree_per_iteration=1
label_index=0
max_feature_idx=21
objective=binary sigmoid:1
feature_names=ret_1d ret_5d ret_10d ret_20d volatility_5d volatility_20d ma5_ratio ma10_ratio ma20_ratio ma60_ratio ma5_ma20_cross rsi_14 macd_histogram macd_normalized volume_ratio_5_20 volume_change price_position gap intraday_range upper_shadow_ratio lower_shadow_ratio bollinger_pctb
feature_infos=[-0.080992065370082855:0.067847661674022675] [-0.14558732509613037:0.19219720363616943] [-0.19511517882347107:0.26211637258529663] [-0.25709053874015808:0.35104599595069885] [0.0021088332869112492:0.050346780568361282] [0.0093312812969088554:0.031797900795936584] [-0.081263363361358643:0.079820513725280762] [-0.11971172690391541:0.13225293159484863] [-0.15325607359409332:0.19480675458908081] [-0.25224378705024719:0.27688714861869812] [-0.11170239746570587:0.13978634774684906] [1.3622226715087891:97.732276916503906] [-1.5706082582473755:1.2597061395645142] [-0.026369377970695496:0.020341331139206886] [0.43050038814544678:1.6998604536056519] [-0.90812134742736816:13.013649940490723] [0.00097647774964570999:0.99944192171096802] [-0.084063082933425903:0.070014879107475281] [4.32816450484097e-05:0.073241658508777618] [-15.851613998413086:0.99913996458053589] [-8.9193000793457031:0.99995684623718262] [-0.32466086745262146:1.3510991334915161]
tree_sizes=3378 2892 3419 3429 2356 3409 2888 2255 3009 2355 2883 2362 3424

Tree=0
num_leaves=31
num_cat=0
split_feature=2 5 4 1 12 3 5 19 16 9 4 9 4 19 16 13 8 17 19 17 15 20 12 5 8 0 16 7 17 16
split_gain=15.3549 17.225 17.9134 20.2505 13.6003 13.918 12.9249 13.4338 12.1337 11.8888 11.8694 11.1257 10.9931 7.93389 8.8805 7.60722 13.1997 7.31094 14.9832 10.882 6.95945 6.72969 6.60928 6.42527 6.3339 5.82591 5.03603 5.01888 4.35086 3.83381
threshold=0.084702417254447951 0.016504818573594097 0.012013921048492195 -0.027293540537357327 0.15959291905164721 -0.18758337944746015 0.02312472835183144 0.37005348503589636 0.34410656988620764 0.14775712788105014 0.02015015855431557 0.151952899992466 0.036277437582612045 0.67506229877471935 0.92589935660362255 0.00029187448672018951 -0.0026707453653216358 0.0040469204541295776 0.25964833796024328 -0.0035674181999638672 -0.57554659247398365 0.4785772860050202 0.21668616682291034 0.02188141364604235 -0.011762460693717001 -0.010825845412909983 0.95432010293006908 0.056844390928745277 -0.0067561736796051255 0.9150940775871278
decision_type=2 2 2 2 2 2 2 2 2 2 2 2 2 2 2 2 2 2 2 2 2 2 2 2 2 2 2 2 2 2
left_child=1 2 3 28 5 -3 7 10 -6 12 22 23 -7 14 -9 -5 -17 18 25 -20 -19 -8 -2 -10 -22 -4 -24 -15 -1 -12
right_child=6 4 17 15 8 9 21 13 11 -11 29 -13 -14 27 -16 16 -18 20 19 -21 24 -23 26 -25 -26 -27 -28 -29 -30 -31
leaf_value=-0.42667799351178554 -0.36341726578972305 -0.42117646946573489 -0.38050357442082466 -0.28228961406955688 -0.27520946189133366 -0.34660405576068309 -0.38475643301907525 -0.42642586332230209 -0.33167799293101824 -0.40029628006635104 -0.35243634767423376 -0.27085817881662905 -0.41093099221206347 -0.37952340104519056 -0.36871927736684434 -0.39906325047637198 -0.29515789263992503 -0.45402647883027536 -0.36533461366169356 -0.29515789263992509 -0.42625517785788902 -0.45402647883027542 -0.27520946189133366 -0.35699015007569823 -0.37117834238010972 -0.44350222813909351 -0.33167799293101824 -0.31775557919004099 -0.36341726578972305 -0.41194068412046558
leaf_weight=5.2908587157726288 5.5892705023288753 6.6071657836437216 7.8722119629383087 11.374431014060976 8.9010918438434583 606.14567703008652 8.3555291593074781 13.106317490339281 88.108359724283218 10.772115141153334 5.6972845792770368 6.3197385966777793 6.7151798605918875 6.7975634932517988 13.569496542215346 5.2652282714843732 7.2863729894161224 5.0748305618762997 22.840399205684662 7.2863729894161251 7.8154587745666566 6.0414649546146384 8.9010918438434583 35.042327791452408 15.718793481588358 6.8744548261165601 7.0959752798080435 6.3709994852542877 5.5892705023288709 5.1572141945362091
leaf_count=21 20 26 29 35 27 2106 31 52 298 41 20 19 26 25 49 20 23 21 82 23 31 25 27 124 57 28 24 21 20 20
internal_value=-0.350487 -0.348503 -0.367172 -0.337624 -0.345872 -0.348989 -0.370562 -0.361946 -0.331678 -0.348224 -0.338058 -0.33556 -0.347309 -0.381395 -0.397072 -0.311906 -0.338745 -0.381169 -0.368576 -0.348362 -0.40092 -0.413824 -0.316611 -0.338881 -0.389469 -0.409872 -0.300258 -0.34964 -0.39418 -0.380708
internal_weight=963.583 876.9 108.289 34.8062 768.612 630.24 86.6822 72.2852 138.372 623.633 32.4408 129.47 612.861 39.8444 26.6758 23.926 12.5516 73.4825 44.8734 30.1268 28.6091 14.397 21.5863 123.151 23.5343 14.7467 15.9971 13.1686 10.8801 10.8545
internal_count=3371 3057 390 119 2667 2199 314 258 468 2173 111 441 2132 147 101 78 43 271 162 105 109 56 71 422 88 57 51 46 41 40
is_linear=0
shrinkage=1


Tree=1
num_leaves=26
num_cat=0
split_feature=2 2 10 9 19 3 3 4 1 12 13 0 12 4 0 0 0 19 12 9 9 0 6 4 4
split_gain=13.9898 17.3112 11.7773 16.4847 14.8028 14.3989 10.2422 9.11179 11.4015 10.5614 9.09157 12.3625 10.0476 8.0367 7.24832 6.88153 12.1416 9.77068 6.49908 5.7175 5.52809 5.50201 3.79515 2.47089 2.2972
threshold=0.077325485646724715 0.068993128836154952 -0.033415533602237694 -0.015089647378772495 0.14477631449699405 -0.13993085920810697 -0.073242083191871629 0.01215714728459716 0.039334720000624664 0.18093459308147433 -0.0055421264842152587 0.039905993267893798 0.45214174687862402 0.019836847670376304 -0.028025141917169091 -0.013065976090729235 -1.0000000180025095e-35 0.41753511130809789 -0.1265381574630737 -0.010884393006563185 0.10254571586847307 0.039045657962560661 0.0088837873190641421 0.015125905163586141 0.026768637821078304
decision_type=2 2 2 2 2 2 2 2 2 2 2 2 2 2 2 2 2 2 2 2 2 2 2 2 2
left_child=1 2 3 4 5 -1 -6 8 -2 20 14 12 -12 23 19 -11 17 -17 -16 -4 -9 -18 -5 -3 -13
right_child=7 13 10 22 6 -7 -8 9 -10 15 11 24 -14 -15 18 16 21 -19 -20 -21 -22 -23 -24 -25 -26
leaf_value=-0.060991464570311751 0.088406733517348415 0.064846382300990352 0.036556387938995211 -0.025894877796119365 0.027122618024161844 0.0056581804312354654 -0.0065472206034421151 -0.074280707904611429 -0.00042757180823933116 -0.037581413495196017 0.017416053220450287 0.045291566561073179 0.054868564710713691 0.027531282859888484 0.025602865220721027 0.077555799148644342 -0.011988266060472989 -0.00029914100903762422 0.079757083106335391 0.10076365698027366 -0.014770452850418303 0.033603183207601771 -0.085136374176521742 0.10630421827757766 0.086093792332522942
leaf_weight=12.269684553146361 6.2391770184040061 7.2134573459625262 6.5298881232738495 6.1130383461713773 97.297485560178757 23.865439891815186 29.415150582790375 7.3367728888988486 8.5775742381811124 9.3209524750709516 554.18761473894119 6.6414257586002332 18.50564032793045 10.234890043735502 57.507856220006943 9.705196917057032 39.833597242832191 6.8913877159357062 6.1308658719062796 7.3922918587923032 8.3365998566150648 7.935884863138198 4.8469817340373993 7.1627817749977112 7.1778844892978668
leaf_count=49 19 23 22 23 334 85 107 30 31 36 1933 22 60 35 198 30 147 25 19 22 31 27 20 21 22
internal_value=0.0179722 0.0200627 0.0188487 0.00726155 0.0112563 -0.0169727 0.0193065 0.000664975 0.0369796 -0.00535632 0.0218814 0.0197539 0.0186263 0.0613942 0.0379693 0.00257133 0.00838591 0.0452281 0.03082 0.0706487 -0.0426275 -0.00441422 -0.052094 0.0855022 0.0664846
internal_weight=966.67 862.492 837.881 173.808 162.848 36.1351 126.713 104.177 14.8168 89.3604 664.073 586.513 572.693 24.6111 77.5609 73.687 64.3661 16.5966 63.6387 13.9222 15.6734 47.7695 10.96 14.3762 13.8193
internal_count=3371 2995 2916 618 575 134 441 376 50 326 2298 2037 1993 79 261 265 229 55 217 44 61 174 43 44 44
is_linear=0
shrinkage=0.05


Tree=2
num_leaves=31
num_cat=0
split_feature=5 4 1 2 10 9 20 14 5 15 0 0 5 20 20 14 14 5 17 3 3 9 9 0 20 15 14 8 8 17
split_gain=13.1332 16.5278 21.0316 14.6382 13.1932 16.8332 12.0784 14.609 11.6582 11.2788 11.1813 12.2553 8.39176 14.5781 10.6277 8.15271 7.4775 8.20523 7.4724 11.2227 15.6968 9.47173 7.69303 7.37213 6.26511 6.09496 6.08388 4.9938 5.81215 4.75955
threshold=0.016504818573594097 0.01215714728459716 -0.027293540537357327 0.084702417254447951 -0.033415533602237694 -0.015089647378772495 0.44526052474975591 1.1519038081169131 0.02312472835183144 -0.84466886520385731 1.0000000180025095e-35 -0.011008054483681915 0.021202208474278453 -0.054138027131557458 0.77327883243560802 1.1864745020866396 0.93312019109725963 0.015357336960732939 0.0040469204541295776 -0.061394771561026566 0.026719748973846439 -0.10002217814326285 -0.0067732699681073419 0.0264475466683507 0.4785772860050202 -0.57554659247398365 1.0896719098091128 -0.011762460693717001 0.0068573751486837873 -0.0067561736796051255
decision_type=2 2 2 2 2 2 2 2 2 2 2 2 2 2 2 2 2 2 2 2 2 2 2 2 2 2 2 2 2 2
left_child=1 2 29 4 5 6 7 -2 10 -6 11 -5 14 -14 -11 26 -4 -18 19 21 22 -3 -21 -8 -10 -20 -12 -27 -29 -1
right_child=3 18 16 8 9 -7 23 -9 24 12 15 -13 13 -15 -16 -17 17 -19 25 20 -22 -23 -24 -25 -26 27 -28 28 -30 -31
leaf_value=-0.059278182185174888 0.012692572645722636 -0.0098687394411397303 0.081915672990358276 -0.018937595770005252 -0.037034040110751627 -0.054559212529707912 -0.010479291937599904 0.061455854931764253 -0.014084040815206901 0.026929130015942687 -0.0043437492745520652 0.07089744039244622 0.062163356209916337 0.01335545395695345 0.05551626697941027 0.041993536633317646 -0.008197548113903573 0.067169917215713804 -0.08218260658487353 -0.077033912424048917 0.023612058616443277 0.075053860155798305 -0.010113419080985397 0.045346723788005888 -0.081389889096029427 -0.05521022772687037 -0.054480755235371582 0.032033441991279395 -0.028197710846478076 0.0048314914118650874
leaf_weight=5.9788853526115417 60.206798300147057 5.743537649512291 11.907041966915132 5.5800387859344509 7.3621122986078253 10.029411226511 54.094376251101494 20.619684442877769 8.3124246895313245 367.42017737030983 35.129620909690857 11.876785978674887 16.597242400050163 195.57390657067299 35.667717680335045 8.018790662288664 7.4352542459964734 7.0217501372098923 5.0023404955863979 9.7624541819095629 13.920166194438933 7.6655130684375745 7.6675753593444851 6.6395568847656241 5.9198205322027198 7.7547224164009156 7.3096827119588843 6.1738179922103873 11.403123155236242 5.6129318177700025
leaf_count=24 211 21 36 21 28 40 198 66 31 1251 128 37 53 683 115 27 27 22 21 40 48 24 28 22 25 31 29 21 43 20
internal_value=0.0170215 0.00100398 0.0278949 0.019136 0.0212654 0.00803744 0.0124723 0.0251326 -0.000932701 0.024486 0.00769002 0.0421819 0.0252222 0.0171735 0.0294587 -0.004243 0.0525744 0.0284083 -0.012588 0.000396414 -0.0159776 0.0386787 -0.0475952 -0.00437628 -0.0420795 -0.0317472 -0.0129793 -0.0217875 -0.0070418 -0.0282353
internal_weight=969.407 113.049 37.9559 856.358 774.211 151.59 141.56 80.8265 82.1472 622.621 67.9149 17.4568 615.259 212.171 403.088 50.4581 26.364 14.457 75.0933 44.7592 31.3502 13.4091 17.43 60.7339 14.2322 30.334 42.4393 25.3317 17.5769 11.5918
internal_count=3371 406 129 2965 2667 537 497 277 298 2130 242 58 2102 736 1366 184 85 49 277 161 116 45 68 220 56 116 157 95 64 44
is_linear=0
shrinkage=0.05


Tree=3
num_leaves=31
num_cat=0
split_feature=5 4 6 2 10 19 3 5 5 19 4 15 15 3 20 20 13 13 17 21 17 19 17 14 1 15 21 0 4 5
split_gain=11.7834 14.9043 19.9233 13.127 11.8064 13.8141 12.4331 12.1087 10.6173 12.8505 14.3542 10.1621 9.44419 9.23269 8.65954 8.22539 9.62007 8.19191 10.5306 7.9852 6.80836 13.4576 9.33201 8.08447 6.12685 5.68825 5.65988 5.65675 5.53191 4.87147
threshold=0.016504818573594097 0.01215714728459716 -0.012863604817539452 0.084702417254447951 -0.033415533602237694 0.15610566735267642 -0.087896708399057374 0.018603682518005375 0.02312472835183144 0.40144234895706182 0.02015015855431557 -0.84466886520385731 2.0961757898330693 -0.13993085920810697 0.32676018774509435 0.52579545974731456 0.0013853215496055784 -0.0055421264842152587 0.042724858969450004 0.25066848099231726 0.0040469204541295776 0.25964833796024328 -0.0035674181999638672 0.92543551325798046 0.06895043328404428 -0.57554659247398365 1.0596063733100893 -0.010825845412909983 0.025423826649785045 0.020223657600581649
decision_type=2 2 2 2 2 2 2 2 2 2 2 2 2 2 2 2 2 2 2 2 2 2 2 2 2 2 2 2 2 2
left_child=1 2 -1 4 5 13 12 -8 9 10 -5 -6 -7 -2 29 16 -4 28 -19 -15 21 27 23 -23 -10 -22 -16 -3 -13 -11
right_child=3 20 15 8 11 6 7 -9 24 14 -12 17 -14 19 26 -17 -18 18 -20 -21 25 22 -24 -25 -26 -27 -28 -29 -30 -31
leaf_value=-0.03371590776258556 -0.057342962002342152 -0.0092338906005383949 0.05446295435880899 0.053864106924843773 -0.035409820857762793 0.033816700298181353 0.046321832433725174 -0.017325274049614314 -0.06533354510974268 -0.014577401031652979 -0.015301521081430527 0.046705119997290996 -0.034074684117558519 0.015026057527959533 -0.073174186114116968 0.079560529924616652 -0.025880019039842456 0.020869861649234638 0.071692964518882601 -0.056717132250927164 -0.079644048139865586 0.048253690845033531 0.068250844137246622 -0.01634626164756901 0.0031929913071114396 -0.02080096207683307 -0.0074944261468195966 -0.071476046349795777 0.0093434275550052671 0.033544372769639383
leaf_weight=10.11151611804962 11.416645213961599 7.6405224651098251 10.066480889916422 21.454305291175842 7.3160019665956488 66.559244155883789 9.3494000136852247 37.229505285620689 8.9626138359308225 12.402857884764673 11.534115672111509 56.561104670166969 5.5495133846998206 16.569824710488323 7.7373511493206006 11.954793334007261 5.9151525348424903 538.65749019384384 10.388801038265226 5.063786953687667 4.9061173200607326 7.0051499307155636 7.3993419408798244 15.692320197820662 5.1281307488679877 25.21559602022171 5.6938692331314087 6.9899105727672559 12.011424377560614 9.130951449275015
leaf_count=39 46 28 32 69 28 223 31 138 37 46 43 184 21 58 32 36 22 1844 32 20 21 23 23 58 19 95 21 29 42 31
internal_value=0.0161292 0.000943224 0.0264239 0.0181257 0.020135 0.00762431 0.0155853 -0.00454991 -0.000894808 0.00729575 0.0296809 0.0231726 0.0285918 -0.0209647 -0.013824 0.0481914 0.0247263 0.0238666 0.0218315 -0.0017669 -0.0120094 0.000365817 0.0194879 0.00359131 -0.0403943 -0.0303851 -0.0453307 -0.038971 0.0401607 0.00582761
internal_weight=971.614 112.897 38.0479 858.717 776.673 151.738 118.688 46.5789 82.0442 67.9535 32.9884 624.935 72.1088 33.0503 34.965 27.9364 15.9816 617.619 549.046 21.6336 74.849 44.7272 30.0968 22.6975 14.0907 30.1217 13.4312 14.6304 68.5725 21.5338
internal_count=3371 406 129 2965 2667 537 413 169 298 242 112 2130 244 124 130 90 54 2102 1876 78 277 161 104 81 56 116 53 57 226 77
is_linear=0
shrinkage=0.05


Tree=4
num_leaves=21
num_cat=0
split_feature=2 2 11 15 20 21 4 1 12 18 16 2 0 4 18 4 17 9 2 4
split_gain=10.4462 15.0885 10.2714 8.62814 8.86353 9.67549 7.66964 9.54773 9.35316 8.38153 8.58829 8.54079 7.61703 7.18575 6.14877 5.79004 4.60894 3.00675 2.48518 2.04472
threshold=0.077325485646724715 0.068993128836154952 12.065507411956789 -0.84466886520385731 -0.54729723930358876 -0.10675721615552901 0.01215714728459716 0.039334720000624664 0.18093459308147433 0.020258858799934391 0.83815631270408641 0.10207835584878923 0.015055858995765449 0.019836847670376304 0.014687613584101202 0.014532390981912615 0.037960499525070197 0.085291467607021346 -0.0025589111028239127 0.015125905163586141
decision_type=2 2 2 2 2 2 2 2 2 2 2 2 2 2 2 2 2 2 2 2
left_child=1 2 -1 18 15 -6 7 -2 14 10 11 -10 -12 19 -8 -5 17 -11 -4 -3
right_child=6 13 3 4 5 -7 8 -9 9 16 12 -13 -14 -15 -16 -17 -18 -19 -20 -21
leaf_value=-0.040312438556765334 0.079981356768543746 0.059269257774620554 -0.0053460978494113314 0.012072496892267942 0.057607504856962866 0.015485418632142584 -0.066499723281133225 -0.00090793204492304257 0.011798869591191143 -0.020010589322790845 0.0076612953214150389 -0.069302456014965499 0.052430453153414318 0.023516918931306335 -0.0022743307594825387 0.06690103323545428 0.010181575128302769 -0.070446792819625279 -0.054129218052258447 0.096675266722623762
leaf_weight=8.034886881709097 6.345787286758422 7.307985261082651 5.4708149284124374 7.2235507220029858 13.872329354286192 790.38841408491135 9.2314127087593061 8.5810426324605924 7.38762019574642 5.7759693861007708 29.115725204348564 5.7908599227666855 14.103037327527998 10.34985715150833 6.2494407296180716 14.442030891776083 5.3315795958042136 6.0502571612596512 4.9937913417816144 7.3053911328315735
leaf_count=31 19 23 20 25 44 2731 38 31 26 22 103 24 46 35 23 45 19 25 20 21
internal_value=0.0152913 0.0170825 0.01595 0.0164905 0.0170621 0.016212 0.000312359 0.0334802 -0.00524822 0.00218639 0.0114959 -0.0238385 0.0222703 0.0553929 -0.0405727 0.0486206 -0.0284138 -0.0458136 -0.0286258 0.0779689
internal_weight=973.352 869.389 844.426 836.391 825.926 804.261 103.963 14.9268 89.0359 73.555 56.3972 13.1785 43.2188 24.9632 15.4809 21.6656 17.1578 11.8262 10.4646 14.6134
internal_count=3371 2995 2916 2885 2845 2775 376 50 326 265 199 50 149 79 61 70 66 47 40 44
is_linear=0
shrinkage=0.05


Tree=5
num_leaves=31
num_cat=0
split_feature=5 4 6 5 13 12 1 9 0 5 16 8 6 0 18 16 6 19 1 9 9 12 3 3 4 5 5 4 20 19
split_gain=12.3869 12.6754 15.5192 11.1372 14.4547 14.3775 12.0477 16.0658 11.7358 11.0731 16.6509 12.9675 12.668 27.1612 11.096 10.1417 8.95913 8.68053 8.3769 7.62427 9.54047 7.31505 9.9502 8.70762 7.96731 8.65227 7.01184 6.51941 5.55803 6.68963
threshold=0.016747176647186283 0.01215714728459716 -0.013518705498427151 0.021202208474278453 -0.011045531835407017 0.38005822896957403 0.062058847397565849 0.13120043277740481 -0.01056419964879751 0.019280284643173221 0.86364442110061657 0.089960075914859786 -0.01990448962897062 -0.014069499913603066 0.011253032367676498 0.93504232168197643 0.032623020932078368 0.15074584633111957 -0.038784092292189591 0.041290650144219405 -0.044020999222993844 0.095684092491865172 0.043648995459079749 0.10954901948571207 0.013514633290469648 0.015033218543976547 0.024078439921140674 0.018526788800954822 0.4872682392597199 0.62085202336311351
decision_type=2 2 2 2 2 2 2 2 2 2 2 2 2 2 2 2 2 2 2 2 2 2 2 2 2 2 2 2 2 2
left_child=1 2 -1 4 8 6 7 17 -2 10 14 -12 18 -14 -6 16 -8 -5 -11 20 -4 24 -23 -24 -3 -26 -9 -27 29 -7
right_child=3 21 19 5 9 28 15 26 -10 12 11 -13 13 -15 -16 -17 -18 -19 -20 -21 -22 22 23 -25 25 27 -28 -29 -30 -31
leaf_value=-0.027882765602815409 0.021106857849582491 -0.048644767570655417 0.017825380690921905 -0.0072211517685958765 0.011268886459943216 -0.08497272545465237 0.020582898196508465 -0.085602151198169218 -0.061732850267864042 0.035292275816143359 -0.025254883620841013 0.038058396240211331 -0.028031108537757282 0.032802043216870774 0.033077847327753304 -0.0181991289357409 0.084250565883176087 0.016361185538756363 0.086425528718078404 -0.014238699201497227 0.076721099167158954 -0.075113980279482725 0.030824157737631239 -0.055999445214172605 0.043639465856244897 -0.023467309500537471 -0.0076094557179879731 0.016823157744728295 -0.00049478421653608373 -0.011623647291432856
leaf_weight=11.729108422994612 7.932775646448138 8.1226543337106687 12.684661522507666 48.1340421885252 120.55206103622913 6.7530074119567889 9.3595298528671318 6.0405391156673414 9.2732627838850004 16.333960056304932 35.898759782314301 10.439062550663946 20.481444329023361 176.218994602561 112.98281501233578 5.3688327372074118 13.488427072763441 206.14001896977425 15.716749832034109 5.595121204853057 15.015940994024279 9.4023377299308795 6.7761046886444074 5.0324666351079941 11.151358768343924 23.218173325061798 5.5109491050243378 17.689859554171562 9.5076055079698545 5.7598731517791748
leaf_count=45 27 32 43 174 417 28 32 25 37 54 133 35 76 587 375 20 41 709 47 20 45 39 23 20 37 87 20 62 35 21
internal_value=0.0148825 0.000288666 0.0215757 0.0170738 0.0215324 0.00965619 0.0125745 0.00927711 -0.0235399 0.0230571 0.0163874 -0.0109916 0.0312174 0.0264678 0.0218199 0.0436388 0.0581695 0.0118971 0.0603666 0.0389984 0.0497516 -0.0114869 -0.0367356 -0.00617751 -0.00258805 0.00459803 -0.0483936 -0.0060445 -0.0293125 -0.051209
internal_weight=968.31 126.418 45.0248 841.893 525.83 316.063 294.042 265.826 17.206 508.624 279.873 46.3378 228.751 196.7 233.535 28.2168 22.848 254.274 32.0507 33.2957 27.7006 81.393 21.2109 11.8086 60.182 52.0594 11.5515 40.908 22.0205 12.5129
internal_count=3346 453 153 2893 1788 1105 1021 928 64 1724 960 168 764 663 792 93 73 883 101 108 88 300 82 43 218 186 45 149 84 49
is_linear=0
shrinkage=0.05


Tree=6
num_leaves=26
num_cat=0
split_feature=5 5 5 10 10 12 10 9 1 9 5 14 21 13 19 5 19 20 2 1 2 20 19 12 14
split_gain=11.1264 12.0033 9.99148 18.2744 13.0368 13.0053 11.53 11.5456 10.7776 14.6641 9.34196 8.68861 9.30925 10.906 10.1602 8.85237 6.91936 6.77634 6.32116 12.7395 5.11008 5.09962 6.22636 3.7589 3.54105
threshold=0.016747176647186283 0.011907749809324743 0.021202208474278453 -0.072294335812330232 -0.060753740370273583 0.38005822896957403 -0.040043171495199197 -0.094430908560752855 0.062058847397565849 0.14546126872301104 0.019280284643173221 0.91982108354568493 0.93929412961006176 0.0018113640253432097 0.41753511130809789 0.016368430107831958 0.15074584633111957 0.26842865347862249 -0.062423991039395325 -0.026799660176038739 0.042386787012219436 0.4872682392597199 0.62085202336311351 0.13375131040811541 1.0365246534347536
decision_type=2 2 2 2 2 2 2 2 2 2 2 2 2 2 2 2 2 2 2 2 2 2 2 2 2
left_child=1 -1 3 -2 24 8 7 -6 9 16 -8 15 13 14 -13 18 -4 -10 -3 -20 -19 22 -7 -15 -5
right_child=2 11 5 4 6 21 10 -9 17 -11 -12 12 -14 23 -16 -17 -18 20 19 -21 -22 -23 -24 -25 -26
leaf_value=0.074247815835099748 -0.051700711537464389 0.063675143792560895 -0.0062662442320793798 0.041019981710846302 0.021577387511945025 -0.082138822352745625 0.016198956370894035 -0.029067317536734423 0.085352587425152254 -0.06987601841811597 0.030550998769360401 -0.029131108616653318 0.033656278217754125 -0.070032031094319186 0.016449435638928152 -0.04034788076292365 0.014503597109365222 0.058578228126824033 -0.056565797110891138 0.029993983552614723 0.0086416787829500363 -0.00047009120322930877 -0.011062935201018254 -0.027385256346174943 0.09014351564733683
leaf_weight=5.2546608150005332 8.6440215557813627 8.1428799629211408 49.518844425678253 6.7157728224992743 22.366478621959686 6.6395394057035464 253.69075113534927 22.649255931377411 6.657171010971072 5.7933744788169852 205.01019196212292 24.260261535644531 9.530346751213072 10.712577968835832 24.646785631775856 6.0693022906780234 210.80989152193069 8.2824065685272235 5.2478643357753745 22.370388954877857 13.430511444807051 9.5066908150911313 5.7494867742061615 9.9808036983013135 8.0850315541028959
leaf_count=16 34 26 179 22 76 28 867 85 20 24 680 92 32 44 86 23 725 26 21 75 47 35 21 38 24
internal_value=0.0141133 0.00026774 0.016185 0.0204007 0.0216026 0.00916086 0.0202436 -0.00390403 0.011925 0.00880192 0.0226134 -0.00294602 -0.0126891 -0.0190351 -0.00616072 0.015485 0.0105528 0.0412208 0.0249608 0.0135464 0.02769 -0.0280164 -0.049154 -0.0494627 0.067854
internal_weight=969.765 126.216 843.549 527.162 518.517 316.388 503.717 45.0157 294.492 266.122 458.701 120.961 79.1308 69.6004 48.907 41.8304 260.329 28.3701 35.7611 27.6183 21.7129 21.8957 12.389 20.6934 14.8008
internal_count=3346 453 2893 1788 1754 1105 1708 161 1021 928 1547 437 292 260 178 145 904 93 122 96 73 84 49 82 46
is_linear=0
shrinkage=0.05


Tree=7
num_leaves=20
num_cat=0
split_feature=17 9 12 4 5 5 10 12 10 14 9 9 4 19 11 6 14 19 5
split_gain=12.0918 12.3574 15.9947 11.2938 8.82625 10.1589 16.9664 12.8262 11.1487 9.73185 13.5448 10.5582 9.92036 8.73569 6.88368 6.50059 6.01363 5.03884 3.45846
threshold=0.049334580078721053 0.14775712788105014 0.19767730683088305 0.022028542123734954 0.016686905175447467 0.021202208474278453 -0.072294335812330232 0.38005822896957403 -0.060753740370273583 0.80692747235298168 -0.013044435996562241 0.04800825938582421 0.010481536388397219 0.11911211907863618 50.945199966430671 0.024465112946927551 0.86837294697761547 0.46411345899105078 0.015482865739613773
decision_type=2 2 2 2 2 2 2 2 2 2 2 2 2 2 2 2 2 2 2
left_child=1 4 17 15 9 6 -6 13 -8 14 12 -12 -11 -7 18 -4 -9 -3 -1
right_child=-2 2 3 -5 5 7 8 16 -10 10 11 -13 -14 -15 -16 -17 -18 -19 -20
leaf_value=0.066193826092523028 0.071483828581357198 -0.029056384655316972 0.07502815421893988 -0.039315148960549134 -0.049608896879883645 -0.0080692467604188047 0.063966063844557511 0.011790489618702861 0.020069683691604362 0.022969624867768868 0.031854373485324987 -0.015555667568809188 -0.034999827251625877 0.015374446176597818 -0.015293067496125884 0.0046327318512348302 -0.047559533160978204 -0.084698310514563724 0.018424388791272846
leaf_weight=10.055406957864767 8.8746184110641462 10.254092276096346 6.9225898534059542 6.3970691263675681 8.5602201819419843 47.948326915502548 14.911936804652212 6.0951964110136059 482.20713172852993 9.0754681974649412 29.636246711015701 19.450513795018196 39.509798005223274 232.00559104979038 5.8060101866722098 6.2316033393144608 14.238411739468573 6.745335340499877 6.07997703552246
leaf_count=31 27 39 21 25 34 174 46 22 1628 31 100 72 153 794 21 22 57 28 21
internal_value=0.0133877 0.0128518 -0.0156634 0.0151784 0.0139778 0.0158588 0.0201846 0.00857426 0.0213864 0.00130367 -0.00545599 0.0130683 -0.0241714 0.0113592 0.0313943 0.0416794 -0.0297688 -0.051135 0.0481938
internal_weight=971.006 962.131 36.5507 19.5513 925.58 805.967 505.679 300.288 497.119 119.613 97.672 49.0868 48.5853 279.954 21.9414 13.1542 20.3336 16.9994 16.1354
internal_count=3346 3319 135 68 3184 2755 1708 1047 1674 429 356 172 184 968 73 43 79 67 52
is_linear=0
shrinkage=0.05


Tree=8
num_leaves=27
num_cat=0
split_feature=17 5 4 6 4 17 5 8 16 14 4 5 12 1 0 21 13 13 6 5 0 14 5 3 13 15
split_gain=10.8274 8.38028 10.3257 13.5198 9.6607 9.98038 11.252 14.6561 7.73363 13.1099 15.8935 9.05922 8.10853 10.4657 8.34255 7.54162 14.708 6.32332 6.12114 5.9815 5.83172 8.83393 4.74107 3.49028 2.4188 2.35747
threshold=0.049334580078721053 0.016747176647186283 0.01215714728459716 -0.013518705498427151 0.029342938214540485 0.0049169503618031749 0.020356714725494388 0.0059235650114715108 0.78979390859603893 0.93082743883132946 0.021757364273071293 0.018704906105995182 -0.17067221552133557 -0.071480758488178239 0.022668389603495601 0.946148842573166 0.0017586321919225158 -0.0016525511164218185 0.0027671252610161905 0.015357336960732939 0.02570971101522446 1.1217817068099978 0.02188141364604235 0.015764727257192138 -0.008858089800924061 -0.077545750886201845
decision_type=2 2 2 2 2 2 2 2 2 2 2 2 2 2 2 2 2 2 2 2 2 2 2 2 2 2
left_child=1 2 3 24 8 6 -6 -8 12 11 -11 -10 13 -3 -14 16 18 25 -4 -19 22 -22 -7 -18 -1 -5
right_child=-2 4 15 17 5 20 7 -9 9 10 -12 -13 14 -15 -16 -17 23 19 -20 -21 21 -23 -24 -25 -26 -27
leaf_value=-0.0024723599271267004 0.067524808832602576 0.034903316032009822 0.0095572190417616675 0.082800501560176043 0.064892380490551599 -0.089976807512328894 -0.029660405403408641 0.037643975648545817 -0.042463080942810566 0.027840907775482551 -0.013373590622953077 -0.00017550910045404305 0.019574433421025324 0.0021090488484499146 0.042822965166389608 0.034572842081087997 -0.078372148741894632 -0.010007087373163122 -0.027294512731299972 0.044400705487687771 -0.045301076004948669 0.036761384931316948 -0.0272677336703274 -0.035472838851487123 -0.048124405928311811 0.040454745708102112
leaf_weight=5.4051366746425629 8.9237964898347837 30.250548586249352 36.366366729140282 6.8570748865604401 7.8360332846641532 5.1678931415081042 19.469446510076523 13.837281703948973 17.343528851866722 85.069471374154091 32.262924432754517 46.949757367372513 391.52178813517094 124.26870170235634 42.806505620479584 8.3202624022960645 7.8135424405336407 9.8194259852170962 16.32732068002224 10.403806909918783 6.7771111130714399 6.3544134050607681 7.2320631444454193 12.058579847216604 6.2639718949794752 6.3124601542949659
leaf_count=20 27 100 129 20 24 21 72 46 66 284 118 166 1321 436 138 28 34 35 62 33 26 21 27 47 25 20
internal_value=0.0127029 0.0121949 0.000170319 0.0193511 0.014004 -0.00425484 0.0109841 -0.0016988 0.015584 0.00656427 0.0165081 -0.0115829 0.0183661 0.00852925 0.0218658 -0.0105154 -0.0156851 0.035541 -0.00186142 0.0179829 -0.0288117 -0.00559062 -0.0534028 -0.0523405 -0.0269784 0.0625032
internal_weight=972.019 963.095 125.948 45.0619 837.147 66.6742 41.1428 33.3067 770.473 181.626 117.332 64.2933 588.848 154.519 434.328 80.8861 72.5658 33.3928 52.6937 20.2232 25.5315 13.1315 12.4 19.8721 11.6691 13.1695
internal_count=3346 3319 453 153 2866 237 142 118 2629 634 402 232 1995 536 1459 300 272 108 191 68 95 47 48 81 45 40
is_linear=0
shrinkage=0.05


Tree=9
num_leaves=21
num_cat=0
split_feature=17 9 12 4 5 14 9 9 4 4 5 20 3 1 7 7 9 1 19 11
split_gain=9.73307 10.7578 14.4136 10.132 7.13505 12.3159 10.2717 13.0554 12.6475 13.0583 10.9105 8.90767 8.84822 8.74393 9.6484 9.15203 8.39498 6.3669 4.71175 3.57046
threshold=0.049334580078721053 0.14775712788105014 0.19767730683088305 0.017950167879462246 0.016907317563891414 0.80692747235298168 0.1014879420399666 0.094036731868982329 0.022552035748958591 0.027202535420656208 0.024601391516625885 0.21547972410917285 0.12623924762010577 -0.036894993856549256 -0.026125952601432797 -0.046478210017085068 0.011500922963023187 0.080681480467319502 0.46411345899105078 66.236476898193374
decision_type=2 2 2 2 2 2 2 2 2 2 2 2 2 2 2 2 2 2 2 2
left_child=1 4 18 -4 5 11 7 10 12 -10 -6 -1 -8 15 -15 -7 -13 -5 -3 -9
right_child=-2 2 3 17 6 13 8 19 9 -11 -12 16 -14 14 -16 -17 -18 -19 -20 -21
leaf_value=0.081505281285472575 0.063956991519275655 -0.027696308903999128 0.053578257202982704 -0.056922001113934841 0.015447558935659009 0.0049871882094162066 0.056886552231021029 -0.015161298903920727 -0.046379161653324098 0.042300122044213247 -0.0058527928606748793 0.038396622405960146 0.012784684144358556 0.048735576471929852 -0.0044589346089252899 -0.068914159415967485 -0.036049290840676478 0.02036521144146846 -0.081853708415498869 -0.073328050805674158
leaf_weight=7.0466423183679607 8.9497532993555051 10.191989079117777 8.8729087114334124 5.3947767168283445 643.41403818130493 7.2255471795797375 39.017171666026115 5.6205317080020887 9.0332674384117144 7.6812199205160132 66.31527678668499 12.026500657200815 16.052285343408585 9.4850236624479276 84.163968160748482 9.9701607674360258 5.5272358655929557 5.2656940370798111 6.627775862812995 4.9721240401268005
leaf_count=21 27 39 28 22 2185 26 122 20 35 25 237 39 55 31 306 41 21 18 28 20
internal_value=0.0120552 0.0115733 -0.0151084 0.0141066 0.012619 0.00201402 0.0144324 0.012635 0.0324688 -0.00562619 0.0134573 0.0340183 0.0440312 -0.00508886 0.00092875 -0.0378612 0.0149555 -0.0187463 -0.0490369 -0.0424644
internal_weight=972.854 963.904 36.3531 19.5334 927.551 135.445 792.106 720.322 71.7839 16.7145 709.729 24.6004 55.0695 110.845 93.649 17.1957 17.5537 10.6605 16.8198 10.5927
internal_count=3346 3319 135 68 3184 485 2699 2462 237 60 2422 81 177 404 337 67 60 40 67 40
is_linear=0
shrinkage=0.05


Tree=10
num_leaves=26
num_cat=0
split_feature=2 8 16 15 0 0 16 15 2 4 4 4 12 6 19 19 20 20 12 11 1 9 2 6 0
split_gain=9.48622 10.4896 9.43382 12.5596 9.03918 13.3758 8.56175 7.91051 7.62213 11.4354 7.42987 10.336 7.00309 6.69199 6.17789 5.33629 4.61945 11.5118 4.40242 3.82534 3.65334 3.59932 3.50229 3.18131 2.40101
threshold=0.08895298466086389 0.0619904212653637 0.89650967717170726 -0.57554659247398365 1.0000000180025095e-35 0.039045657962560661 0.8444170653820039 -0.84466886520385731 0.052976120263338096 0.017055841162800792 0.021660565398633484 0.014468331355601551 0.5564272701740266 -0.027959666214883324 0.4155100286006928 0.50937089323997509 0.59055957198143016 0.43073503673076635 0.32523126900196081 62.712549209594734 0.042813133448362357 0.064615376293659224 0.0026162149151787166 0.034696018323302276 0.01394449081271887
decision_type=2 2 2 2 2 2 2 2 2 2 2 2 2 2 2 2 2 2 2 2 2 2 2 2 2
left_child=1 2 7 -4 6 14 -2 22 9 -5 11 -3 13 -9 16 -16 17 -6 -18 -10 -8 -12 -1 -17 -13
right_child=4 10 3 8 5 -7 20 12 19 -11 21 24 -14 -15 15 23 18 -19 -20 -21 -22 -23 -24 -25 -26
leaf_value=-0.0048747712408685577 -0.017782607872173686 -0.0005271733308538862 -0.077793780442420635 -0.051538199898141658 -0.044285602969145875 0.046613273693775319 0.070320817540444044 0.023572011157454106 0.0027581959473676346 0.015911957898249448 0.039061723357549809 0.095134884834459213 0.051376907811364253 0.0096195445437630023 -0.082236159514602059 -0.049685959062514697 -0.069822780841440626 0.05189098405317747 -0.0065443251773365883 0.050654244223189482 0.016897377131997585 -0.010453407582074086 -0.057948778476507957 -0.0023315545882819002 0.057574214222435006
leaf_weight=7.1552764028310758 9.0130758881568926 6.3129311650991466 6.2172708809375754 13.053461179137232 5.517255976796152 6.8349830955266944 6.9575644433498365 98.208414301276207 9.2276551425457018 12.116777837276457 6.1327105462551108 7.6542117595672634 11.088732674717901 687.92271725833416 7.3547584563493755 8.5367517322301847 4.8778571486473066 7.1347613632678986 6.2969708740711212 7.6041382402181616 5.9255963861942291 9.1400797516107541 5.4957798570394516 6.0675602853298178 9.5796285271644575
leaf_count=26 35 22 25 50 22 22 21 328 32 41 20 22 35 2367 31 34 20 23 23 24 20 33 22 22 30
internal_value=0.00974333 0.0111675 0.0100174 -0.0114681 -0.00739853 -0.0186319 0.0195976 0.0112966 -0.00165032 -0.0190682 0.0365899 0.0542068 0.0119191 0.0113626 -0.0283718 -0.0475034 -0.01074 0.00995057 -0.0341656 0.0243963 0.0457488 0.00942914 -0.0279308 -0.0300119 0.0742564
internal_weight=971.427 896.91 858.09 48.2193 74.5171 52.6209 21.8962 809.871 42.002 25.1702 38.8196 23.5468 797.22 786.131 45.7859 21.9591 23.8268 12.652 11.1748 16.8318 12.8832 15.2728 12.6511 14.6043 17.2338
internal_count=3350 3077 2950 172 273 197 76 2778 147 91 127 74 2730 2695 175 87 88 45 43 56 41 53 48 56 52
is_linear=0
shrinkage=0.05


Tree=11
num_leaves=21
num_cat=0
split_feature=2 15 11 5 10 10 9 4 12 10 4 5 20 21 19 19 14 2 4 2
split_gain=8.55624 9.32955 8.61285 15.8695 12.6581 9.06573 7.55719 7.69954 10.9408 6.96811 6.49702 9.38668 9.5968 11.5424 8.26243 6.66182 6.48407 6.27707 5.25721 4.10151
threshold=0.08895298466086389 -0.84466886520385731 65.506282806396499 0.01914053596556187 0.02526485733687878 0.044499086216092117 0.14775712788105014 0.032986015081405647 0.0087538789957761782 0.01872182730585337 0.029956408776342872 0.023657031357288364 0.49381880462169653 0.89339947700500499 0.67506229877471935 0.16742272675037387 1.1537171602249148 0.077325485646724715 0.021757364273071293 0.0026162149151787166
decision_type=2 2 2 2 2 2 2 2 2 2 2 2 2 2 2 2 2 2 2 2
left_child=1 19 6 4 -4 -6 7 17 -9 -5 11 12 14 -14 16 -15 -2 -3 -11 -1
right_child=10 2 3 9 5 -7 -8 8 -10 18 -12 -13 13 15 -16 -17 -18 -19 -20 -21
leaf_value=-0.0046349668188109183 -0.048717674063545054 0.011200755033915629 -0.047086348649595287 0.091390343519726469 0.039807092386335577 -0.01400900147307192 -0.046435411167869887 -0.05518541723540319 0.013381190249054343 0.047230767868902623 0.044738542702014855 -0.060358619370745818 0.065461410737085765 -0.049166633946708206 0.017674574141608133 0.019582622438766489 0.011462096251789239 -0.03604594771876371 0.014564824074101479 -0.059812814371156021
leaf_weight=7.1493573039770109 20.313476562500004 745.55823108553886 10.208316862583159 6.2476239204406729 18.351967558264736 13.643425807356833 6.0039527416229239 10.835037991404535 12.564190611243246 34.592664241790771 5.5956362038850775 8.5348135679960233 8.8821235895156878 5.6759894490241996 10.17440754175186 9.2925366610288602 5.7409538328647605 7.0968904197216025 19.12747623026371 6.3673410713672638
leaf_count=26 81 2548 39 18 60 50 24 42 43 109 19 37 27 22 35 32 20 27 65 26
internal_value=0.00924947 0.0105982 0.0112284 0.0248811 0.00139171 0.0168589 0.00944481 0.00987713 -0.0183687 0.0414122 -0.00706729 -0.0112922 -0.00432185 0.0203072 -0.020536 -0.00648675 -0.0354574 0.0107553 0.0355998 -0.0306277
internal_weight=971.956 897.746 884.23 102.171 42.2037 31.9954 782.058 776.054 23.3992 59.9678 74.2099 68.6143 60.0795 23.8506 36.2288 14.9685 26.0544 752.655 53.7201 13.5167
internal_count=3350 3077 3025 341 149 110 2684 2660 85 192 273 254 217 81 136 54 101 2575 174 52
is_linear=0
shrinkage=0.05


Tree=12
num_leaves=31
num_cat=0
split_feature=2 5 4 9 11 5 19 4 13 7 14 1 13 5 11 0 0 3 6 10 4 4 4 5 9 4 7 10 19 7
split_gain=7.7192 8.52886 11.8679 11.7588 10.3471 11.3266 10.0635 9.12463 9.0785 13.9552 9.44251 8.91828 8.91231 8.00967 8.32766 7.76505 11.7806 6.92928 10.3522 6.77937 6.66363 6.44183 6.37185 7.51296 6.40008 6.05535 7.59946 5.79768 5.66435 5.45325
threshold=0.08895298466086389 0.016686905175447467 0.012013921048492195 0.029302736744284633 65.506282806396499 0.020684913732111457 0.44551642239093786 0.0092846155166625994 0.0026747552910819654 0.021528994664549831 1.2248001694679262 -0.027293540537357327 -0.0085129425860941393 0.01914053596556187 73.278125762939467 1.0000000180025095e-35 0.039045657962560661 -0.0011996993562206624 -0.019259319640696045 0.017240234650671486 0.018526788800954822 0.017888809554278854 0.017010311596095565 0.015149844344705345 -0.031918162479996674 0.017399550415575508 0.043275037780404098 0.048777500167489059 0.4155100286006928 -0.0080966209061443788
decision_type=2 2 2 2 2 2 2 2 2 2 2 2 2 2 2 2 2 2 2 2 2 2 2 2 2 2 2 2 2 2
left_child=1 2 3 11 5 8 17 -7 9 -3 -10 -1 -9 14 21 25 28 18 -4 -15 -19 -6 23 -8 -24 -2 -27 -21 -17 -13
right_child=15 4 6 -5 13 7 22 12 10 -11 -12 29 -14 19 -16 16 -18 20 -20 27 -22 -23 24 -25 -26 26 -28 -29 -30 -31
leaf_value=-0.0068875187443219136 0.054275530538963626 0.014545884789075925 0.014079719011027829 -0.049934234602471567 0.011914300464625044 -0.043030763243395345 0.026169110757565197 0.02219493564886546 0.024809689304071167 -0.030241048852170861 0.081269414589599104 0.074954538525420583 0.00044734619759268586 0.087603191843300357 0.049058952537592085 -0.009568476642641488 0.043822339667797444 -0.025867433183367469 -0.061877685341780592 0.019732868625131725 0.038432507286728618 -0.045111330218850561 -0.0081762213162583676 -0.039799707506880666 0.051804005390536048 -0.036245244007991673 0.036970472256316028 0.053314728215348994 -0.044986678509743631 0.026989087127067997
leaf_weight=11.10863323509693 7.613385051488879 266.01924362778664 5.7243917137384441 5.2533497959375373 12.606828376650816 10.415209740400313 6.9834686219692257 58.079303786158562 75.623494312167168 18.609738051891327 8.2093251198530179 10.236824691295622 249.41790597140789 6.2583542466163626 8.1867482215166074 23.624354109168053 6.8600281924009314 12.835795074701311 20.730516344308853 33.422356605529785 5.8728548884391776 8.1563954800367338 7.5620580613613155 11.298830553889273 10.79800498485565 7.36119696497917 6.8349814563989639 20.882813796401024 21.618651568889618 14.070576757192613
leaf_count=41 24 896 20 20 43 39 24 196 249 68 24 30 868 18 26 88 22 50 85 111 20 31 28 44 35 29 23 65 87 46
internal_value=0.00878252 0.0100604 -0.00220168 0.0198728 0.011996 0.00991083 -0.0131759 0.00299601 0.015877 0.0116176 0.0303385 0.0302275 0.00455498 0.0279848 0.00635196 -0.0067495 -0.0172347 -0.028972 -0.0454418 0.0383256 -0.00568296 -0.010487 0.00629359 -0.014601 0.0270996 0.0182995 -0.000994344 0.0326466 -0.0264925 0.0471893
internal_weight=972.276 898.363 122.475 40.6694 775.888 686.374 81.8059 317.912 368.462 284.629 83.8328 35.416 307.497 89.5135 28.95 73.9126 52.103 45.1636 26.4549 60.5635 18.7086 20.7632 36.6424 18.2823 18.3601 21.8096 14.1962 54.3052 45.243 24.3074
internal_count=3350 3077 443 137 2634 2340 306 1103 1237 964 273 117 1064 294 100 273 197 175 105 194 70 74 131 68 63 76 52 176 175 76
is_linear=0
shrinkage=0.05


end of trees

feature_importances:
volatility_5d=38
volatility_20d=37
ma60_ratio=25
upper_shadow_ratio=22
ret_1d=20
ret_10d=18
macd_histogram=17
lower_shadow_ratio=15
ret_5d=14
volume_ratio_5_20=14
ma5_ma20_cross=13
gap=13
ret_20d=12
ma5_ratio=11
macd_normalized=11
volume_change=11
price_position=10
ma20_ratio=7
rsi_14=7
ma10_ratio=6
bollinger_pctb=6
intraday_range=3

parameters:
[boosting: gbdt]
[objective: binary]
[metric: auc]
[tree_learner: serial]
[device_type: cpu]
[data_sample_strategy: bagging]
[data: ]
[valid: ]
[num_iterations: 500]
[learning_rate: 0.05]
[num_leaves: 31]
[num_threads: 0]
[seed: 0]
[deterministic: 0]
[force_col_wise: 0]
[force_row_wise: 0]
[histogram_pool_size: -1]
[max_depth: 6]
[min_data_in_leaf: 20]
[min_sum_hessian_in_leaf: 0.001]
[bagging_fraction: 0.8]
[pos_bagging_fraction: 1]
[neg_bagging_fraction: 1]
[bagging_freq: 5]
[bagging_seed: 3]
[bagging_by_query: 0]
[feature_fraction: 0.8]
[feature_fraction_bynode: 1]
[feature_fraction_seed: 2]
[extra_trees: 0]
[extra_seed: 6]
[early_stopping_round: 0]
[early_stopping_min_delta: 0]
[first_metric_only: 0]
[max_delta_step: 0]
[lambda_l1: 0]
[lambda_l2: 0]
[linear_lambda: 0]
[min_gain_to_split: 0]
[drop_rate: 0.1]
[max_drop: 50]
[skip_drop: 0.5]
[xgboost_dart_mode: 0]
[uniform_drop: 0]
[drop_seed: 4]
[top_rate: 0.2]
[other_rate: 0.1]
[min_data_per_group: 100]
[max_cat_threshold: 32]
[cat_l2: 10]
[cat_smooth: 10]
[max_cat_to_onehot: 4]
[top_k: 20]
[monotone_constraints: ]
[monotone_constraints_method: basic]
[monotone_penalty: 0]
[feature_contri: ]
[forcedsplits_filename: ]
[refit_decay_rate: 0.9]
[cegb_tradeoff: 1]
[cegb_penalty_split: 0]
[cegb_penalty_feature_lazy: ]
[cegb_penalty_feature_coupled: ]
[path_smooth: 0]
[interaction_constraints: ]
[verbosity: -1]
[saved_feature_importance_type: 0]
[use_quantized_grad: 0]
[num_grad_quant_bins: 4]
[quant_train_renew_leaf: 0]
[stochastic_rounding: 1]
[linear_tree: 0]
[max_bin: 255]
[max_bin_by_feature: ]
[min_data_in_bin: 3]
[bin_construct_sample_cnt: 200000]
[data_random_seed: 1]
[is_enable_sparse: 1]
[enable_bundle: 1]
[use_missing: 1]
[zero_as_missing: 0]
[feature_pre_filter: 1]
[pre_partition: 0]
[two_round: 0]
[header: 0]
[label_column: ]
[weight_column: ]
[group_column: ]
[ignore_column: ]
[categorical_feature: ]
[forcedbins_filename: ]
[precise_float_parser: 0]
[parser_config_file: ]
[objective_seed: 5]
[num_class: 1]
[is_unbalance: 0]
[scale_pos_weight: 1.44697]
[sigmoid: 1]
[boost_from_average: 1]
[reg_sqrt: 0]
[alpha: 0.9]
[fair_c: 1]
[poisson_max_delta_step: 0.7]
[tweedie_variance_power: 1.5]
[lambdarank_truncation_level: 30]
[lambdarank_norm: 1]
[label_gain: ]
[lambdarank_position_bias_regularization: 0]
[eval_at: ]
[multi_error_top_k: 1]
[auc_mu_weights: ]
[num_machines: 1]
[local_listen_port: 12400]
[time_out: 120]
[machine_list_filename: ]
[machines: ]
[gpu_platform_id: -1]
[gpu_device_id: -1]
[gpu_use_dp: 0]
[num_gpu: 1]

end of parameters

pandas_categorical:null
