tree
version=v4
num_class=1
num_tree_per_iteration=1
label_index=0
max_feature_idx=21
objective=binary sigmoid:1
feature_names=ret_1d ret_5d ret_10d ret_20d volatility_5d volatility_20d ma5_ratio ma10_ratio ma20_ratio ma60_ratio ma5_ma20_cross rsi_14 macd_histogram macd_normalized volume_ratio_5_20 volume_change price_position gap intraday_range upper_shadow_ratio lower_shadow_ratio bollinger_pctb
feature_infos=[-0.99517935514450073:205.44708251953125] [-0.99513828754425049:205.99468994140625] [-0.99517142772674561:204.73982238769531] [-0.995200514793396:202.11578369140625] [0.41650664806365967:96.352981567382812] [4.542121410369873:69.576240539550781] [-0.98837107419967651:3.497532844543457] [-0.98519772291183472:3.2978751659393311] [-0.98290669918060303:3.3776283264160156] [-0.98139750957489014:3.43857741355896] [-0.89244991540908813:0.90234255790710449] [35.102813720703125:64.976959228515625] [-63.152290344238281:128.48442077636719] [-7.1441459655761719:5.2720999717712402] [0.20756988227367401:2.40378737449646] [-0.99160808324813843:209.2841796875] [0:1] [-0.99517804384231567:205.57142639160156] [0.0058479532599449158:0.12530413269996643] [0:0.99959808588027954] [0:0.94574779272079468] [0.32264888286590576:1.0147792100906372]
tree_sizes=3354 3387 3393 2866 3389 3393 3392 3411 2888 3393 3197

Tree=0
num_leaves=31
num_cat=0
split_feature=8 16 12 16 12 19 5 3 5 19 19 15 1 2 4 5 3 0 5 21 15 9 3 1 20 16 16 20 15 1
split_gain=402.867 99.7209 43.1377 15.7918 11.9599 11.3677 10.1619 8.86104 9.76928 8.57729 9.47773 8.05833 7.034 7.94382 6.15481 4.95622 6.43714 4.69852 8.24259 6.66437 4.2764 4.27345 4.80752 3.65561 3.22811 3.22178 3.06912 2.34719 1.68493 1.77186
threshold=-0.53810283541679371 0.010118325706571342 31.455986022949222 0.081751812249422087 -20.149697303771969 0.40977913141250616 44.30482482910157 4.5097143650054941 15.162055492401125 0.19222962856292727 0.30789315700531011 0.30489623546600347 -0.0028193949256092306 -0.13563387095928189 24.856205940246586 14.192192077636721 -0.91863057017326344 17.372436523437504 43.921773910522468 0.41856577992439276 24.644436836242679 -0.46663030982017512 0.3477600514888764 -0.81234759092330922 0.016185165382921699 0.00011214035839657301 0.00011214035839657301 0.24947434663772586 -0.75344654917716969 144.55348205566409
decision_type=2 2 2 2 2 2 2 2 2 2 2 2 2 2 2 2 2 2 2 2 2 2 2 2 2 2 2 2 2 2
left_child=1 15 5 4 9 17 12 8 -6 23 -11 -8 13 -5 -14 16 26 18 19 -2 24 22 -7 -3 -17 -22 -1 -26 29 -4
right_child=2 3 28 6 7 21 11 -9 -10 10 -12 -13 14 -15 -16 20 -18 -19 -20 -21 25 -23 -24 -25 27 -27 -28 -29 -30 -31
leaf_value=-0.15244317547573699 -0.32112907447981348 -0.21077592418243671 -0.33835364018398983 -0.31788725122744099 -0.18947503549216654 -0.19956471423772598 -0.32014418082342111 -0.2886294614130766 -0.23986449083799172 -0.25468741246204568 -0.20287331730801347 -0.24341904957391378 -0.20544809463353775 -0.24405005061031107 -0.2522708478709223 -0.19410714646381466 -0.22887016621688533 -0.32676273454358495 -0.34336788320472061 -0.26108511421265962 -0.16562568150757923 -0.28224962399817055 -0.26052481053197102 -0.1694233418083399 -0.14680704142170398 -0.20527263333427759 -0.19996804270193425 -0.1659041607025914 -0.3107564368133624 -0.31788725122744105
leaf_weight=8.1076212227344531 5.8004651218652752 7.7830019444227245 64.314510598778725 5.0624895989894894 12.154130786657332 6.7277081906795519 8.3317099213600141 7.0697380453348151 46.112798452377319 13.091483384370802 27.085498213768005 5.8077661693096152 16.835276812314991 12.988144323229788 12.03618963062763 6.481716349720954 7.8863410055637351 7.7683998495340338 4.9198368191719046 22.73177994787693 9.7975514382123965 5.2764687687158576 6.2284234613180161 17.056557029485703 29.859926372766495 10.742205083370207 5.8470798879861823 34.890403300523758 7.911052629351615 12.656223997473715
leaf_count=26 23 27 260 20 41 23 33 27 166 48 93 21 58 47 44 22 28 31 20 84 32 20 23 56 95 37 20 114 31 50
internal_value=-0.24103 -0.208464 -0.309853 -0.230489 -0.220659 -0.277192 -0.251472 -0.235767 -0.229354 -0.205477 -0.219757 -0.288629 -0.240275 -0.264758 -0.224968 -0.171356 -0.192762 -0.291733 -0.283598 -0.273292 -0.166261 -0.244318 -0.22887 -0.18238 -0.160465 -0.186361 -0.172356 -0.157097 -0.33273 -0.334988
internal_weight=449.362 305.028 144.335 191.415 130.353 59.4531 61.0616 65.3367 58.2669 65.0165 40.177 14.1395 46.9221 18.0506 28.8715 113.613 21.841 41.2205 33.4521 28.5322 91.7718 18.2326 12.9561 24.8396 71.232 20.5398 13.9547 64.7503 84.8818 76.9707
internal_count=1620 1055 565 681 458 224 223 234 207 224 141 54 169 67 102 374 74 158 127 107 300 66 46 83 231 69 46 209 341 310
is_linear=0
shrinkage=1


Tree=1
num_leaves=31
num_cat=0
split_feature=8 16 12 16 12 19 15 11 1 7 1 10 8 3 7 15 7 0 15 19 9 6 3 11 1 19 7 20 13 19
split_gain=363.799 88.5251 39.8439 14.1503 10.7959 10.3332 6.58829 10.2102 6.19357 7.49245 4.8587 4.51287 4.33059 7.04024 6.84506 4.25185 4.61202 6.79233 4.84927 3.61805 8.33804 4.6594 3.31036 4.83656 3.17006 2.8288 1.99915 1.58444 3.98704 1.55998
threshold=-0.53810283541679371 0.010118325706571342 31.455986022949222 0.081751812249422087 21.633978843688968 0.40977913141250616 0.20754772424697879 49.838705062866218 -0.9815959334373473 -0.93292289972305287 0.0076413189526647338 0.014489651657640936 -0.40463586151599878 0.37801876664161688 -0.50694990158081044 24.644436836242679 -0.96284803748130787 -0.82041186094284047 0.33525188267230993 0.1306576952338219 -0.6160864233970641 -0.60263261198997486 -0.93755832314491261 49.875984191894538 -0.012991954106837509 0.086838696151971831 -0.97949463129043568 0.023217311128973964 0.038351012393832214 0.17723635584115985
decision_type=2 2 2 2 2 2 2 2 2 2 2 2 2 2 2 2 2 2 2 2 2 2 2 2 2 2 2 2 2 2
left_child=1 15 5 4 8 12 19 -8 -3 -10 -9 -7 13 14 -2 16 24 29 -19 21 -21 -5 -17 -24 26 -15 -1 28 -4 -18
right_child=2 3 27 6 -6 11 7 10 9 -11 -12 -13 -14 25 -16 22 17 18 -20 20 -22 -23 23 -25 -26 -27 -28 -29 -30 -31
leaf_value=0.0699778415587613 -0.053838358048176216 0.075279295612518171 -0.085746354403228461 0.00097166439601026181 -0.018049538661093777 0.030449199143690788 -0.039352661316441717 0.0055374346840508064 -0.005378515985434585 0.037334330608367931 0.057784188313066025 -0.02011998368043607 -0.069879580429266328 -0.025945886202514579 0.010808445955792084 0.08782486363233151 0.067731143796297383 0.070306243556972847 0.0087069986407042332 -0.047798071905012264 0.0189341109541581 -0.060122827798769408 0.022521997484691671 0.079219552917737468 0.067715592020747603 -0.0724224226365245 0.099937044488470128 -0.077833734735765769 -0.026880448319093281 0.099660560961427544
leaf_weight=6.3629744350910178 5.832346946001052 9.3694243431091291 6.077179476618765 5.7372354865074158 9.9100321233272535 10.783967360854151 5.2055524140596416 6.855287209153178 11.4401638507843 100.12633655965328 12.681324720382689 7.4664847552776328 7.475298970937728 5.2488593608140937 13.743832454085352 6.8218205869197872 6.0442288815975251 6.3594623357057554 6.4206632077693939 6.4137280881404868 17.326029807329181 6.8431779295206052 9.0733926296234113 6.4247803837060919 12.089189812541006 8.701541453599928 44.586572468280792 72.379854440689087 5.4616322964429855 10.420569926500319
leaf_count=21 23 31 25 21 37 38 20 25 42 348 43 28 30 20 50 22 20 21 23 25 62 27 32 21 40 35 141 295 21 33
internal_value=0.012876 0.0436123 -0.0529267 0.0228473 0.0321223 -0.021536 0.00297272 0.0228714 0.0362336 0.0329545 0.0394511 0.00976072 -0.0354666 -0.0277937 -0.00845183 0.0783841 0.0831205 0.0667096 0.0393591 -0.0105828 0.000905196 -0.032261 0.0588013 0.046026 0.0907338 -0.0549356 0.0961955 -0.0750906 -0.0578835 0.0879393
internal_weight=449.683 306.512 143.171 191.908 130.846 59.2523 61.0623 24.7422 120.936 111.567 19.5366 18.2505 41.0019 33.5266 19.5762 114.604 92.2837 29.2449 12.7801 36.3202 23.7398 12.5804 22.32 15.4982 63.0387 13.9504 50.9495 83.9187 11.5388 16.4648
internal_count=1620 1055 565 681 458 224 223 88 421 390 68 66 158 128 73 374 299 97 44 135 87 48 75 53 202 55 162 341 46 53
is_linear=0
shrinkage=0.05


Tree=2
num_leaves=31
num_cat=0
split_feature=9 16 8 16 9 16 5 3 11 2 3 18 20 5 8 4 18 18 5 4 5 10 18 12 15 10 20 20 5 20
split_gain=329.523 77.8706 37.944 12.12 9.78054 10.5151 8.86498 8.69892 7.65857 6.82242 8.78009 9.03644 8.48418 6.74863 6.46898 7.90594 5.80729 7.84009 5.95602 4.91125 4.19297 6.73159 3.50907 3.48996 3.3581 2.81483 2.80442 2.13751 6.29307 2.04225
threshold=-0.54536512494087208 0.010118325706571342 -0.3427166193723678 0.073624119162559523 -0.66464698314666737 0.081751812249422087 50.317686080932624 1.0000000180025095e-35 49.801452636718757 -0.019635082222521302 0.3477600514888764 0.036343686282634742 0.35736890137195593 44.382085800170906 -0.92305368185043324 24.527452468872074 0.024644473567605022 0.020423368550837043 36.979923248291023 25.967691421508793 14.192192077636721 -0.0097066601738333685 0.020034840330481533 -2.0636165142059322 24.644436836242679 -0.0051446442957967511 0.016185165382921699 0.023217311128973964 32.386434555053718 0.24947434663772586
decision_type=2 2 2 2 2 2 2 2 2 2 2 2 2 2 2 2 2 2 2 2 2 2 2 2 2 2 2 2 2 2
left_child=1 20 8 7 23 6 -6 14 -2 12 19 -12 -10 -7 15 -3 17 -9 -18 -11 21 -1 -16 -5 26 -26 -22 28 -4 -28
right_child=2 3 27 4 5 13 -8 16 9 10 11 -13 -14 -15 22 -17 18 -19 -20 -21 24 -23 -24 -25 25 -27 29 -29 -30 -31
leaf_value=0.02503562725412016 -0.060283017941040122 0.049045740952692922 -0.011207130093567757 -0.0085222019361919834 0.050510439049260426 0.011517453845590227 -0.019781802994229242 0.0029280417640131519 -0.072116267786984115 0.035779160004962049 -0.0032219738343094891 -0.085432929433001112 0.0074848999391482034 -0.03123525247351247 0.089057621992927771 -0.0041930090849978457 -0.053995963657581553 0.070039154110971918 0.017950851541766771 -0.019125978269310211 0.052674872770789194 0.080344316700751206 0.051323937164486334 -0.064310038710188297 0.041874194381311861 0.078704429885372781 0.096470652492306838 -0.0751488569550781 -0.083671978660464816 0.07878863955351055
leaf_weight=10.322181195020677 9.788533538579939 21.134100541472439 5.25424015522003 6.2631974667310715 26.783107832074165 47.368206605315208 5.3877110034227362 10.243438318371778 8.6811698377132398 15.061718642711641 10.758833974599836 4.8490554690361014 5.4482521116733542 11.464659765362738 9.627256318926813 10.407188311219214 5.1689204871654493 7.5663120299577704 6.4861765652894974 5.5825205445289603 6.5657104253768912 11.779374331235884 17.11412225663662 5.0748504251241666 9.9754402935504931 10.80918914079666 30.316341921687126 71.621412262320518 6.9710183888673782 35.396367579698563
leaf_count=36 39 72 20 23 91 171 20 37 35 53 40 20 20 44 31 38 20 25 23 21 22 38 58 20 34 35 95 296 29 114
internal_value=0.0122329 0.0416456 -0.0501094 0.021989 0.0102985 0.0157544 0.0387385 0.0356239 -0.0198133 -0.0119505 -0.000463675 -0.0287633 -0.0414224 0.00318631 0.0468174 0.0314794 0.0134826 0.0314396 -0.0139569 0.020932 0.0740904 0.0545133 0.0649086 -0.0334925 0.0787398 0.061028 0.083833 -0.0718506 -0.0525276 0.0869462
internal_weight=449.271 305.254 144.017 190.089 102.342 91.0037 32.1708 87.7475 60.1701 50.3816 36.2521 15.6079 14.1294 58.8329 58.2827 31.5413 29.4648 17.8098 11.6551 20.6442 115.165 22.1016 26.7414 11.338 93.063 20.7846 72.2784 83.8467 12.2253 65.7127
internal_count=1620 1047 573 673 369 326 111 304 228 189 134 60 55 215 199 110 105 62 43 74 374 74 89 43 300 69 231 345 49 209
is_linear=0
shrinkage=0.05


Tree=3
num_leaves=26
num_cat=0
split_feature=21 21 15 5 12 6 4 3 1 13 11 13 13 4 10 3 21 14 17 1 15 1 19 3 0
split_gain=285.93 92.137 16.7568 16.5207 13.5983 11.5732 10.319 9.59211 10.109 11.7412 8.57685 8.39089 8.26093 6.03062 5.7396 4.55965 4.09122 3.76799 2.79995 1.68382 1.66507 1.74237 4.03286 0.992545 0.279905
threshold=0.42481610178947454 0.3745239675045014 -0.46798737347126002 45.717622756958015 -3.9034309387207027 -0.96976846456527699 3.9175142049789433 16.808869361877445 -0.8886984884738921 -0.18854603916406629 50.854473114013679 -0.11090754345059393 0.061825551092624671 6.1384747028350839 -0.66454729437828053 0.044290736317634589 0.33990222215652471 1.1276843547821047 -0.94578722119331349 -0.93730449676513661 -0.75344654917716969 144.55348205566409 0.23854800313711169 0.013075159862637522 10.184599399566652
decision_type=2 2 2 2 2 2 2 2 2 2 2 2 2 2 2 2 2 2 2 2 2 2 2 2 2
left_child=1 2 -1 7 11 16 19 8 9 -3 -10 14 15 -8 -2 -5 17 -4 -18 -7 21 23 -23 -6 -25
right_child=4 3 5 12 20 6 13 -9 10 -11 -12 -13 -14 -15 -16 -17 18 -19 -20 -21 -22 22 -24 24 -26
leaf_value=-0.016132972632322735 -0.0090595411137137632 0.019376320349827988 0.030780327429934192 -0.080350939128136567 -0.060641939596088136 0.06650974734677581 0.0099917187512429499 -0.046790840479231259 0.027183243827710913 -0.064291466692317958 -0.013222468813842808 0.027916643677328809 0.0071137576257235147 0.046974687701415607 -0.071217979854569666 -0.02808664705173243 0.068165431066187707 0.079901407454071455 0.08988127459784484 0.094519136596435377 -0.05016764711431812 -0.081253616865105696 -0.023504982060072059 -0.072782939807089053 -0.080684665068492117
leaf_weight=7.5954425036907187 6.6463671922683725 8.7391340732574481 9.0415392965078336 7.9121311753988328 9.4237923771142942 11.007354676723482 12.956999078392981 6.5893798917531958 86.924456268548965 8.0607459694147092 15.47110542654991 5.5945781618356696 8.7719404995441419 73.848020404577255 8.4170952290296555 8.8307750225067121 26.165953353047371 6.8707436174154273 34.303168922662735 10.469093590974806 9.6981519460678083 6.6272110790014249 5.5592684745788574 16.168699279427528 36.524929404258728
leaf_count=28 25 31 31 32 39 36 46 26 306 32 58 20 32 250 34 34 85 22 108 33 39 28 22 68 155
internal_value=0.0116392 0.033681 0.0566511 0.00449256 -0.0607151 0.0596448 0.0491319 0.0119338 0.0151803 -0.0207683 0.0210783 -0.0243721 -0.0321919 0.0414544 -0.0437922 -0.052785 0.0745484 0.0519903 0.0804845 0.0801634 -0.0696527 -0.0721959 -0.0549097 -0.0755872 -0.0782601
internal_weight=448.218 343.558 192.258 151.3 104.66 184.663 108.281 125.785 119.195 16.7999 102.396 20.658 25.5148 86.805 15.0635 16.7429 76.3814 15.9123 60.4691 21.4764 84.0021 74.3039 12.1865 62.1174 52.6936
internal_count=1620 1190 639 551 430 611 365 453 427 63 364 79 98 296 59 66 246 53 193 69 351 312 50 262 223
is_linear=0
shrinkage=0.05


Tree=4
num_leaves=31
num_cat=0
split_feature=8 16 12 21 21 1 19 8 1 7 21 15 0 15 19 0 15 7 0 15 3 11 1 19 21 19 16 1 19 15
split_gain=272.87 64.778 31.9198 10.7361 9.70495 9.2735 9.21119 9.12831 8.2411 7.05558 5.83609 5.35306 4.79301 4.46726 4.54798 6.03633 3.45564 3.80258 6.06221 4.30348 2.85762 4.17532 2.7559 2.5804 2.34928 1.54938 1.48485 2.01602 3.77695 1.42751
threshold=-0.53810283541679371 0.010118325706571342 31.455986022949222 0.3745239675045014 0.41775688529014593 -0.8886984884738921 0.6228657364845277 -0.91466993093490589 -0.98240503668785084 -0.93292289972305287 0.36947117745876318 -0.68514102697372425 0.18440552055835727 0.26099076867103582 0.40977913141250616 17.372436523437504 24.644436836242679 -0.96284803748130787 -0.82041186094284047 0.33525188267230993 -0.93755832314491261 49.875984191894538 -0.012991954106837509 0.1495919078588486 0.34534493088722235 0.28289140760898596 0.99433246254920971 144.55348205566409 0.23854800313711169 -0.75344654917716969
decision_type=2 2 2 2 2 2 2 2 2 2 2 2 2 2 2 2 2 2 2 2 2 2 2 2 2 2 2 2 2 2
left_child=1 16 6 7 5 12 13 8 -3 -10 -9 -7 -5 14 15 -2 17 22 -19 -20 -18 -22 24 -15 -1 -24 27 29 -29 -4
right_child=2 3 26 4 -6 11 -8 10 9 -11 -12 -13 -14 23 -16 -17 20 18 19 -21 21 -23 25 -25 -26 -27 -28 28 -30 -31
leaf_value=0.068631709564382332 -0.013964351286190653 0.06931062157607347 -0.076101463804709404 -0.056157315707565152 0.057357736672608586 -0.0057773918566990249 0.039492576919899193 0.082001275996587297 -0.018396140148778054 0.0264867025391681 0.022739837046054038 0.020526430119486988 -0.0030978307478195521 -0.023349952258370381 0.011288233916512222 -0.065905985954682986 0.076252080071049055 0.076379247339116496 0.059682817566395055 0.0018561029227586641 0.015809659493933183 0.068269555586312244 0.038458015227246317 -0.068522738542630857 0.091082872666927508 0.074160619200170905 -0.047464598120120161 -0.078861170005356307 -0.019875055882398789 -0.05107598735229666
leaf_weight=17.942830547690392 21.560963302850727 8.5745341926813108 54.679003939032548 8.1042845100164431 9.8442269712686521 28.661007449030876 6.0159371495246878 13.40022034943104 11.350035831332205 38.313712373375893 6.0212785452604285 59.488502815365791 8.9638185948133451 5.1858109980821601 10.249725446105002 7.5528902113437644 6.8730870187282589 16.562847912311558 6.404746934771536 6.4650658518075943 9.1456586420536023 6.4805826395750037 5.9368389546871168 8.0980757027864438 33.233355134725571 6.2251162379980087 8.1676725000143033 5.5686056911945325 5.2936449348926544 6.3613804876804414
leaf_count=58 82 28 236 32 33 105 21 43 42 133 21 211 33 20 37 31 22 53 21 23 32 21 20 33 104 20 34 24 21 26
internal_value=0.0110862 0.0373132 -0.0471383 0.0195792 0.0098839 0.00544222 -0.0191187 0.0339438 0.0240446 0.0162293 0.0636284 0.011974 -0.0282916 -0.0258162 -0.0173552 -0.0274394 0.066963 0.0712263 0.0563765 0.0306339 0.0493838 0.0375661 0.0781269 -0.050888 0.0832113 0.0567325 -0.0676668 -0.0699616 -0.0501147 -0.0734934
internal_weight=446.725 307.992 138.734 192.722 115.062 105.218 58.6634 77.6598 58.2383 49.6637 19.4215 88.1495 17.0681 52.6475 39.3636 29.1139 115.27 92.7708 29.4327 12.8698 22.4993 15.6262 63.3381 13.2839 51.1762 12.162 80.0703 71.9026 10.8623 61.0404
internal_count=1620 1055 565 681 414 381 224 267 203 175 64 316 65 203 150 113 374 299 97 44 75 53 202 53 162 40 341 307 45 262
is_linear=0
shrinkage=0.05


Tree=5
num_leaves=31
num_cat=0
split_feature=8 16 12 15 16 12 14 12 5 5 5 11 4 14 19 9 1 18 9 5 13 1 18 5 3 11 16 13 9 12
split_gain=256.225 65.1725 25.6176 7.77619 7.00616 7.61235 13.1572 13.0669 7.55623 6.40635 6.0478 5.23339 5.8062 8.78366 5.17037 4.90344 4.64495 6.0091 3.52856 3.47828 3.24245 4.8963 4.56454 3.51441 2.57198 2.15281 2.05424 3.33126 3.15936 0.760831
threshold=-0.52257549762725819 0.010616868734359743 26.598199844360355 -0.31325541436672205 0.081751812249422087 -19.263381958007809 0.76521772146224987 -32.256683349609368 19.204704284667972 14.192192077636721 44.233245849609382 49.932678222656257 63.588636398315437 1.1782735586166384 0.49411466717720037 -0.6615428328514098 7.2540376186370858 0.028946500271558765 -0.59663441777229298 34.203142166137702 -0.40189629793167109 0.016776449047029022 0.014156349934637548 14.192192077636721 0.41555154323577886 48.912521362304695 0.9896756410598756 0.038820080459117896 3.0208032131195073 51.549451828002937
decision_type=2 2 2 2 2 2 2 2 2 2 2 2 2 2 2 2 2 2 2 2 2 2 2 2 2 2 2 2 2 2
left_child=1 3 11 -1 5 7 15 8 -3 18 -8 -2 13 14 -13 -7 17 -11 -6 -9 21 23 -22 -5 -15 -24 29 -28 -29 -4
right_child=2 4 26 20 9 6 10 19 -10 16 -12 12 -14 24 -16 -17 -18 -19 -20 -21 22 -23 25 -25 -26 -27 27 28 -30 -31
leaf_value=0.010956384296467508 -0.059825401669334477 -0.025035658421725178 -0.065028259412408446 0.053076571362586304 0.0048028350398795563 -0.056041174056701039 0.032188466731053106 0.087260236126133622 0.027587035271461502 -0.032594417024867151 -0.015554007014882154 -0.0065924706202060805 -0.06299082116910136 -0.023151938106026469 0.043391742950677055 0.0019703380510466546 0.026894017913132891 0.0043385959516784103 0.060386944473469019 0.046790286633500405 0.017190601964672422 0.025104757995023982 0.033889814751753275 0.077608604924293695 -0.070533939692517325 0.067389428717715624 -0.0767748658745806 -0.064341292806095948 -0.010077730343918229 -0.076953751431800457
leaf_weight=7.6519038528203955 8.1227637827396375 8.9553005695343 19.976149588823318 19.344647780060768 5.4891005903482437 9.0140660256147367 31.556351274251938 9.1141772568225878 28.634287476539612 21.914914295077324 8.3987031877040845 18.149089902639393 5.7021977752447119 6.2188393175601941 7.2365038543939582 6.1128142774105063 8.2270619720220548 22.139716789126396 5.9502859711647016 12.718020334839819 8.0606106221675855 6.1030071377754203 6.1679719537496593 59.5109923183918 5.3091483116149902 21.558320298790932 9.0818807780742663 5.0744791477918607 5.6903339475393295 40.469758123159409
leaf_count=27 33 33 86 64 20 35 109 29 99 84 31 69 23 24 25 22 29 81 20 43 28 21 21 190 22 70 40 22 23 178
internal_value=0.00766801 0.0326773 -0.0508555 0.0598358 0.0131116 0.0205069 0.00711672 0.0329192 0.0150503 -0.000177445 0.0221528 -0.0230442 -0.0160336 -0.00877986 0.0076562 -0.0325986 -0.00759329 -0.0140337 0.0337153 0.0636851 0.0629334 0.0682512 0.0503089 0.0715905 -0.0449734 0.0599371 -0.0684299 -0.0544728 -0.0356573 -0.0730126
internal_weight=437.653 306.622 131.031 128.397 178.225 114.504 55.0819 59.4218 37.5896 63.7211 39.9551 50.7385 42.6158 36.9136 25.3856 15.1269 52.2817 44.0546 11.4394 21.8322 120.746 84.9586 35.7869 78.8556 11.528 27.7263 80.2926 19.8467 10.7648 60.4459
internal_count=1601 1056 545 421 635 401 197 204 132 234 140 196 163 140 94 57 194 165 40 72 394 275 119 254 46 91 349 85 45 264
is_linear=0
shrinkage=0.05


Tree=6
num_leaves=31
num_cat=0
split_feature=9 7 21 21 15 6 10 11 3 9 19 20 7 3 19 14 11 21 5 10 15 2 20 9 14 18 18 6 11 18
split_gain=230.422 55.9471 31.8117 9.6217 11.6542 7.01836 10.062 6.27392 6.02295 9.15715 7.77023 5.22982 5.17613 7.05973 5.47658 5.3077 5.14829 4.30722 4.21244 2.73022 3.28468 2.76853 2.47044 2.24985 4.27191 2.30347 2.22671 3.20998 0.42465 0.379653
threshold=-0.54536512494087208 -0.95598638057708729 0.44777058064937597 0.3737409263849259 -0.46798737347126002 -0.90947571396827687 -0.012786341831088064 49.801452636718757 -0.91442155838012684 -0.66736140847206105 0.23542997241020205 0.26651090383529669 -0.4438177198171615 0.51621544361114513 0.23184755444526675 1.060364902019501 50.133270263671882 0.33159339427948004 17.930150032043461 -0.0062979639042168847 24.644436836242679 -0.65873897075653065 0.32284121215343481 3.0208032131195073 0.65270167589187633 0.025638497434556488 0.015776115469634536 -0.97710284590721119 49.913917541503913 0.012792763765901329
decision_type=2 2 2 2 2 2 2 2 2 2 2 2 2 2 2 2 2 2 2 2 2 2 2 2 2 2 2 2 2 2
left_child=1 17 7 4 -3 6 -6 22 -5 10 -10 -7 13 14 -9 -15 -11 -1 -14 20 21 -19 -2 29 -25 -26 27 -21 -28 -4
right_child=2 3 23 8 5 11 -8 12 9 16 -12 -13 18 15 -16 -17 -18 19 -20 26 -22 -23 -24 24 25 -27 28 -29 -30 -31
leaf_value=0.025183243223907734 -0.030975693184366895 -0.024356789925124602 -0.066224470852609393 0.045724445682068147 -0.0045393063737023138 0.033826847283184823 0.0390214537531898 -0.020560080372529606 -0.073058336041300145 0.020624827061580104 0.00101520258424304 0.083748347510144733 -0.072068511763508841 -0.008072833087251978 0.033088232336886722 -0.070181987551108688 -0.0039306526430328134 0.07387419644329675 -0.012239572729183131 0.033322147023474788 0.026092467264785764 0.044822585585123337 -0.081356190141723753 -0.014984475618528734 -0.075122086174280261 -0.0350381081334823 0.091143049942133833 0.080083602756688674 0.077000037277575345 -0.075750198495124557
leaf_weight=6.4085819721221915 5.0236586630344373 9.1764411181211454 14.368794679641722 9.4839906096458417 18.390184834599495 9.9938090592622775 47.49004627764225 6.9885266125202206 6.5633596479892713 49.942265868186951 7.6866384595632553 11.043721884489058 5.5535535365343076 10.794794723391531 14.898070946335791 5.0485656261444083 37.278470695018768 26.127634406089779 6.2565213292837143 5.8941833525896064 6.4193677604198447 11.95206078886986 4.7189479172229767 5.2742997705936459 15.117453977465631 4.6978944689035407 16.585266619920734 9.725681468844412 7.8052306473255149 38.450894832611084
leaf_count=22 20 34 64 32 66 34 161 27 26 177 28 35 23 41 53 21 137 84 24 20 22 40 20 22 68 20 52 31 25 172
internal_value=0.00731958 0.0320077 -0.0463005 0.0176507 0.0292327 0.0348905 0.0268617 -0.0186992 0.00761993 0.00405848 -0.0331021 0.0600333 -0.0114859 -0.0024436 0.015958 -0.0278642 0.0101297 0.0647031 -0.0403735 0.0677 0.0591783 0.0647558 -0.0553781 -0.0673029 -0.0549746 -0.0656188 0.0771777 0.0624381 0.0866171 -0.0731589
internal_weight=435.159 297.967 137.192 207.049 96.0942 86.9178 65.8802 59.2826 110.955 101.471 14.25 21.0375 49.54 37.73 21.8866 15.8434 87.2207 90.918 11.8101 84.5094 44.4991 38.0797 9.74261 77.9093 25.0896 19.8153 40.0104 15.6199 24.3905 52.8197
internal_count=1601 1026 575 730 330 296 227 229 400 368 54 69 189 142 80 62 314 296 47 274 146 124 40 346 110 88 128 51 77 236
is_linear=0
shrinkage=0.05


Tree=7
num_leaves=31
num_cat=0
split_feature=9 16 7 7 5 11 20 12 12 15 16 16 12 12 14 10 20 5 2 15 0 10 9 2 12 12 5 20 16 14
split_gain=209.954 52.0897 29.6607 6.66792 6.18669 5.49968 6.75554 6.40004 5.44363 5.3716 5.33944 9.77762 6.75923 12.0345 11.7646 11.2789 6.64601 5.40986 5.35036 4.99047 6.45785 4.51944 4.42147 3.67823 3.37989 2.79202 5.48314 7.83121 2.56048 2.29892
threshold=-0.54536512494087208 0.010616868734359743 -0.4438177198171615 -0.96117419004440297 14.139757156372072 49.954879760742195 0.38101017475128179 -5.7740840911865225 -8.1518945693969709 -0.31325541436672205 0.081751812249422087 0.10299535468220712 -19.263381958007809 -35.481111526489251 0.76521772146224987 -0.085413090884685502 0.33345332741737371 44.233245849609382 0.20862321555614474 0.35865810513496404 -0.82149705290794361 0.0082867573946714419 -0.6615428328514098 4.4577949047088632 -29.922414779663082 -3.1494021415710445 42.518991470336921 0.19862502068281176 0.9896756410598756 0.66855591535568248
decision_type=2 2 2 2 2 2 2 2 2 2 2 2 2 2 2 2 2 2 2 2 2 2 2 2 2 2 2 2 2 2
left_child=1 3 4 25 -2 -6 7 -7 24 -5 12 16 13 15 22 -3 18 -16 -12 -11 -21 -15 -14 -18 -4 -1 27 -27 -10 -30
right_child=2 10 8 9 5 6 -8 -9 28 19 11 -13 14 21 17 -17 23 -19 -20 20 -22 -23 -24 -25 -26 26 -28 -29 29 -31
leaf_value=0.069367525081947476 0.025801958537095472 0.031829525911392008 -0.057039620173104433 -0.0017985221502641127 -0.061637968042401937 -0.051260230410843849 0.027981183799849853 0.0003173727809183035 -0.071768137302757051 0.08511721845731185 0.016401681977129497 0.054611471456478926 -0.054063263635907591 0.035684586145103614 0.02961160046335062 -0.030085093760435756 -0.067132325642125582 -0.015548932472382827 -0.023796294766242052 0.049051415097217915 -0.0077605228674472067 0.076203763854475359 0.0010703459328761714 -0.012035425467228118 -0.0011102671804085883 0.067081703021976954 0.084746261424241132 -0.0031884643943488945 -0.020293306430143782 -0.060567056248635488
leaf_weight=57.192844793200493 8.5260189324617368 20.160872340202335 5.3197725415229797 6.6851792633533469 6.9210315644741049 12.075841024518015 7.7976718991994849 11.982584640383722 57.926926642656326 6.9555733650922766 23.689787745475769 7.0709874331951132 8.9605580866336805 14.947636842727663 31.601675301790237 11.58089868724346 6.2388139069080335 8.3925879746675474 12.723791450262068 27.02104918658733 6.1383747607469585 12.753447607159613 6.1201230436563483 5.8880418390035629 5.4878090769052488 8.0105179846286791 7.2672459036111823 7.8505100905895224 4.6996124535799053 14.402682214975355
leaf_count=186 31 69 22 24 29 49 28 45 265 22 85 24 35 51 109 43 25 31 48 90 22 41 22 22 21 26 23 28 20 65
internal_value=0.00699218 0.0304844 -0.0446808 0.0546984 -0.0127609 -0.0212398 -0.0124629 -0.0255714 -0.0618708 0.0396964 0.0123917 -0.000319375 0.0185644 0.030257 0.00594452 0.00924015 -0.00832127 0.0201349 0.00235553 0.0466116 0.0385346 0.0543394 -0.0316886 -0.0403807 -0.0286401 0.0634394 0.0487801 0.0323011 -0.0665333 -0.0506588
internal_weight=432.39 297.251 135.14 127.121 47.3031 38.7771 31.8561 24.0584 87.8368 46.8002 170.129 55.6114 114.518 59.4429 55.0749 31.7418 48.5404 39.9943 36.4136 40.115 33.1594 27.7011 15.0807 12.1269 10.8076 80.3211 23.1283 15.861 77.0292 19.1023
internal_count=1601 1026 575 421 182 151 122 94 393 158 605 204 401 204 197 112 180 140 133 134 112 92 57 47 43 263 77 54 350 85
is_linear=0
shrinkage=0.05


Tree=8
num_leaves=26
num_cat=0
split_feature=8 16 21 15 3 1 8 7 11 21 12 15 11 17 18 15 21 14 16 13 4 3 8 15 18
split_gain=195.249 49.9223 23.4325 7.4933 6.99741 5.6464 6.73613 11.9136 9.5642 6.08052 5.81345 7.9109 5.41079 6.0169 5.84017 4.13525 2.92979 3.07154 2.18495 3.24857 2.90993 0.580062 0.340605 0.0198612 0.000147066
threshold=-0.52257549762725819 0.010616868734359743 0.44777058064937597 5.6931934356689462 1.5220018029212954 -0.98240503668785084 -0.9264293611049651 -0.87657049298286427 50.001386642456062 0.4172056913375855 -31.853450775146481 17.754677772521976 49.932678222656257 -0.007545164553448557 0.022398181259632114 -0.31325541436672205 0.33159339427948004 1.4883729815483095 0.9896756410598756 0.038820080459117896 25.921809196472172 -0.015344885643571613 3.1318998336791997 -0.75344654917716969 0.015163331292569639
decision_type=2 2 2 2 2 2 2 2 2 2 2 2 2 2 2 2 2 2 2 2 2 2 2 2 2
left_child=1 4 3 12 15 -3 10 8 -8 -9 -7 -12 -2 -14 -15 -1 -17 -18 21 24 -21 -4 23 -23 -20
right_child=2 5 18 -5 -6 6 7 9 -10 -11 11 -13 13 14 -16 16 17 -19 19 20 -22 22 -24 -25 -26
leaf_value=0.016302032945533226 -0.05269822809231936 0.061150985449600827 -0.054931817754076823 -0.07882357884461795 -0.0022818148462465924 -0.060647388080223574 0.023173247155325826 0.0028180192456072964 0.085729702176929184 0.039204169424932538 0.021902907146443353 -0.049604745078984713 0.039426709203084338 0.01265763799123807 -0.031175842530977722 0.025015296590446975 0.06212079206451078 0.035311975453231281 -0.071749378548017537 -0.0061090016324189013 -0.059588505882131604 -0.071610556215058324 -0.057556088787613528 -0.074933790890976307 -0.072165926113376994
leaf_weight=6.5639020800590506 7.3650547415018073 5.4934885501861563 6.6577967554330817 4.8457763046026221 5.5998621284961692 5.448476284742358 19.685715571045879 108.17434930801392 8.8600094020366651 12.845160156488417 11.804527610540392 5.7526305168867102 6.1463813781738272 12.24289460480213 20.033256471157074 6.6915282011032096 95.308872044086456 12.033088475465773 4.2226475924253482 5.6591077744960767 4.6202610582113266 39.351616159081459 4.5011047422885886 5.0759043395519248 4.2533197551965714
leaf_count=23 31 18 30 21 20 21 68 393 28 44 41 22 22 45 80 23 314 41 20 24 21 187 21 23 20
internal_value=0.00668575 0.0282982 -0.0459314 -0.0196973 0.0523561 0.011248 0.00965939 0.0135337 0.0425895 0.00668009 -0.0155284 -0.00152669 -0.0134399 -0.00591465 -0.0145491 0.0548931 0.0571145 0.0591155 -0.0637992 -0.0490422 -0.0301464 -0.0687783 -0.0706624 -0.0719902 -0.0719584
internal_weight=429.237 304.262 124.975 50.6334 126.197 178.064 172.571 149.565 28.5457 121.02 23.0056 17.5572 45.7876 38.4225 32.2762 120.597 114.033 107.342 74.3418 18.7553 10.2794 55.5864 48.9286 44.4275 8.47597
internal_count=1601 1056 545 199 421 635 617 533 96 437 84 63 178 147 125 401 378 355 346 85 45 261 231 210 40
is_linear=0
shrinkage=0.05


Tree=9
num_leaves=31
num_cat=0
split_feature=9 7 7 11 11 6 4 6 20 12 12 13 5 12 5 5 12 1 18 11 5 13 5 9 14 20 20 9 9 19
split_gain=175.129 43.8394 26.7527 7.57623 8.24292 11.3574 6.79385 8.05902 5.96531 5.82899 6.67447 5.64358 5.60115 5.07973 5.01937 7.01595 6.04359 4.55708 4.11232 3.61589 3.34328 3.27524 2.76033 2.62134 4.09992 2.34674 3.37328 5.58954 8.82343 4.30248
threshold=-0.54536512494087208 -0.95598638057708729 -0.4438177198171615 50.144451141357429 50.002622604370124 -0.92870843410491932 9.1092648506164569 -0.92531463503837574 0.3364399671554566 -36.079214096069329 -30.788306236267086 -0.17517793178558347 14.139757156372072 -8.1518945693969709 36.89392280578614 45.326826095581062 -5.7740840911865225 -0.84553495049476612 0.021365664899349216 50.750316619873054 39.203491210937507 -0.15737710893154142 31.125169754028324 3.0208032131195073 0.65270167589187633 0.0075290172826498756 0.19862502068281176 -0.97473043203353871 -0.97279316186904896 0.45889639854431158
decision_type=2 2 2 2 2 2 2 2 2 2 2 2 2 2 2 2 2 2 2 2 2 2 2 2 2 2 2 2 2 2
left_child=1 25 12 4 6 20 7 -3 9 -5 -11 -7 -2 21 18 16 -16 -8 -14 -10 -6 -4 -20 -15 -25 -1 -27 29 -29 -28
right_child=2 3 13 8 5 11 17 -9 19 10 -12 -13 14 23 15 -17 -18 -19 22 -21 -22 -23 -24 24 -26 26 27 28 -30 -31
leaf_value=0.026397556741035312 0.02517997938511661 0.050698362042998615 -0.054678993371898715 -0.036511157039797362 -0.024273070461046133 0.079377298210341674 -0.028351812734970283 0.013772279164408997 -0.055745092582239857 0.06431433305751158 0.0047017741069197237 0.025572956920716056 -0.0079137701723241919 -0.069818071270025803 -0.017570656697099962 -0.040991378847527543 0.050540029819432286 0.008109521488068025 -0.030335227337530243 -0.00072767502138586194 0.029027784969656124 0.00075392218680899576 -0.080574222468413156 -0.0097143383303822592 -0.060504254682704275 0.071047257295950877 0.075139340436970639 -0.020834633434417982 0.05322718660494577 0.030724671542596494
leaf_weight=5.7892883121967307 8.5203753113746625 20.722043231129646 5.221614882349968 5.9941894114017442 5.9601700007915479 15.599104747176169 10.651460528373716 51.49415111541748 7.1298142373561841 6.0396624803543082 21.097953692078597 7.0883677601814297 6.555196866393092 49.821256086230278 6.029207080602645 7.6661307215690604 7.0831034928560284 43.845182344317436 4.9817209392786008 5.1390211135149002 5.8097854107618332 5.4417126923799497 6.0601092427968979 5.0645212084054974 18.442521795630455 35.245207294821739 22.055903181433681 5.9889891892671612 12.241399750113485 7.2433072924613944
leaf_count=20 31 69 22 23 22 50 40 182 28 20 76 25 25 240 24 31 25 156 20 19 20 21 26 22 88 116 72 22 41 25
internal_value=0.00639419 0.0277429 -0.0417445 0.015125 0.0202072 0.0418911 0.0143106 0.024368 -0.00291652 0.00811244 0.017969 0.0625669 -0.0114924 -0.0586354 -0.0196346 -0.00299359 0.0192219 0.000983092 -0.0392843 -0.0327001 0.00203685 -0.0263905 -0.057908 -0.0633244 -0.0495617 0.0571734 0.0593259 0.0506339 0.0288966 0.0641592
internal_weight=426.022 295.135 130.887 206.571 161.17 34.4574 126.713 72.2162 45.4006 33.1318 27.1376 22.6875 46.8958 83.9916 38.3755 20.7784 13.1123 54.4966 17.597 12.2688 11.77 10.6633 11.0418 73.3283 23.507 88.5641 82.7748 47.5296 18.2304 29.2992
internal_count=1601 1026 575 730 564 117 447 251 166 119 96 75 182 393 151 80 49 196 71 47 42 43 46 350 110 296 276 160 63 97
is_linear=0
shrinkage=0.05


Tree=10
num_leaves=29
num_cat=0
split_feature=8 9 16 17 19 3 13 8 19 2 2 11 20 1 4 1 3 18 17 20 13 6 20 1 20 4 11 12
split_gain=184.998 36.1715 10.0693 8.69391 8.65054 7.02154 6.90712 6.72268 7.25351 6.14387 8.21926 6.75803 5.15453 8.66196 4.7917 4.39776 3.89506 3.45701 4.7187 2.08151 4.42767 1.83381 2.35174 1.70485 3.69224 1.73665 0.881503 0.788924
threshold=-0.53403922915458668 -0.93483787775039662 0.13107944279909137 16.347837448120121 0.6228657364845277 5.4374542236328134 -0.035740360617637627 -0.46680440008640284 0.17723635584115985 -0.0088461013510823232 -0.28967294096946711 41.421178817749031 0.27313061058521276 0.0033691806020215158 9.041840076446535 0.013662187382578852 -0.94134968519210804 0.032153366133570678 -0.6616113781929015 0.023217311128973964 0.038351012393832214 -0.91198700666427601 0.35548187792301184 66.713474273681655 0.20638945698738101 4.8422989845275888 50.006017684936531 -4.5845251083374015
decision_type=2 2 2 2 2 2 2 2 2 2 2 2 2 2 2 2 2 2 2 2 2 2 2 2 2 2 2 2
left_child=1 15 4 5 7 9 14 12 -9 10 -3 -11 27 -14 -7 16 21 18 -18 20 -4 22 -1 25 -25 -21 -27 -2
right_child=2 3 19 -5 -6 6 -8 8 -10 11 -12 -13 13 -15 -16 -17 17 -19 -20 23 -22 -23 -24 24 -26 26 -28 -29
leaf_value=0.08001737066137643 -0.081894760752066434 0.023191374109442383 -0.070272968329596036 -0.047653148388758559 0.027915952253047657 -0.0089297086446833186 -0.040136194074104042 -0.053745886845173334 0.019847178549831267 0.073419620520866757 -0.01075678676402844 0.027618111811848985 0.01738052187163731 -0.056960758920647815 0.049974441849405242 0.015728778539372625 0.048816509253795853 0.077784451637277013 0.0055410070737366979 -0.037299484000517476 -0.005733678142563689 0.041223916870581426 0.052704067222593853 -0.069735580130384153 -0.012162223386145714 -0.047601989884747641 -0.069466073012695084 -0.056685187564583552
leaf_weight=24.979880511760712 7.5371546447277069 65.252698361873627 4.8727215379476529 5.0480024367570868 6.4834493696689597 8.417022645473482 9.3057796210050565 5.1834879070520392 9.4566657245159131 9.2673944681882841 24.532856166362762 61.501366913318634 6.2255112677812603 10.572594568133352 5.8535891622304908 7.4356914758682242 47.185520365834236 8.242674455046652 7.2695495039224616 5.7073526084423056 5.8453800529241562 5.8403051346540442 11.513378396630285 5.6656675040721876 5.4765509217977524 5.2765087485313407 36.495958119630814 5.2757556587457675
leaf_count=82 32 227 24 20 23 31 36 22 36 30 90 214 23 44 20 26 160 27 26 27 26 20 39 28 25 25 182 22
internal_value=0.00953883 0.0304327 -0.0429496 0.0170827 -0.0260225 0.0188574 -0.00662231 -0.0339253 -0.00620916 0.022599 0.0139154 0.033616 -0.0476286 -0.0294093 0.0152319 0.0528885 0.0555192 0.0476072 0.0430394 -0.0553349 -0.0350749 0.0672371 0.0714002 -0.0590391 -0.0414375 -0.0631697 -0.0667043 -0.0715146
internal_weight=421.72 301.646 120.075 189.179 50.7346 184.131 23.5764 44.2512 14.6402 160.554 89.7856 70.7688 29.611 16.7981 14.2706 112.467 105.031 62.6977 54.4551 69.3401 10.7181 42.3336 36.4933 58.622 11.1422 47.4798 41.7725 12.8129
internal_count=1587 1048 539 668 202 648 87 179 58 561 317 244 121 67 51 380 354 213 186 337 50 141 121 287 53 234 207 54
is_linear=0
shrinkage=0.05


end of trees

feature_importances:
volatility_20d=24
macd_histogram=23
volume_change=23
price_position=21
ret_5d=20
upper_shadow_ratio=19
lower_shadow_ratio=19
ret_20d=18
rsi_14=18
ma60_ratio=17
bollinger_pctb=14
ma10_ratio=13
ma20_ratio=13
intraday_range=13
macd_normalized=11
volatility_5d=10
volume_ratio_5_20=9
ma5_ma20_cross=8
ret_1d=7
ret_10d=7
ma5_ratio=7
gap=4

parameters:
[boosting: gbdt]
[objective: binary]
[metric: auc]
[tree_learner: serial]
[device_type: cpu]
[data_sample_strategy: bagging]
[data: ]
[valid: ]
[num_iterations: 500]
[learning_rate: 0.05]
[num_leaves: 31]
[num_threads: 0]
[seed: 0]
[deterministic: 0]
[force_col_wise: 0]
[force_row_wise: 0]
[histogram_pool_size: -1]
[max_depth: 6]
[min_data_in_leaf: 20]
[min_sum_hessian_in_leaf: 0.001]
[bagging_fraction: 0.8]
[pos_bagging_fraction: 1]
[neg_bagging_fraction: 1]
[bagging_freq: 5]
[bagging_seed: 3]
[bagging_by_query: 0]
[feature_fraction: 0.8]
[feature_fraction_bynode: 1]
[feature_fraction_seed: 2]
[extra_trees: 0]
[extra_seed: 6]
[early_stopping_round: 0]
[early_stopping_min_delta: 0]
[first_metric_only: 0]
[max_delta_step: 0]
[lambda_l1: 0]
[lambda_l2: 0]
[linear_lambda: 0]
[min_gain_to_split: 0]
[drop_rate: 0.1]
[max_drop: 50]
[skip_drop: 0.5]
[xgboost_dart_mode: 0]
[uniform_drop: 0]
[drop_seed: 4]
[top_rate: 0.2]
[other_rate: 0.1]
[min_data_per_group: 100]
[max_cat_threshold: 32]
[cat_l2: 10]
[cat_smooth: 10]
[max_cat_to_onehot: 4]
[top_k: 20]
[monotone_constraints: ]
[monotone_constraints_method: basic]
[monotone_penalty: 0]
[feature_contri: ]
[forcedsplits_filename: ]
[refit_decay_rate: 0.9]
[cegb_tradeoff: 1]
[cegb_penalty_split: 0]
[cegb_penalty_feature_lazy: ]
[cegb_penalty_feature_coupled: ]
[path_smooth: 0]
[interaction_constraints: ]
[verbosity: -1]
[saved_feature_importance_type: 0]
[use_quantized_grad: 0]
[num_grad_quant_bins: 4]
[quant_train_renew_leaf: 0]
[stochastic_rounding: 1]
[linear_tree: 0]
[max_bin: 255]
[max_bin_by_feature: ]
[min_data_in_bin: 3]
[bin_construct_sample_cnt: 200000]
[data_random_seed: 1]
[is_enable_sparse: 1]
[enable_bundle: 1]
[use_missing: 1]
[zero_as_missing: 0]
[feature_pre_filter: 1]
[pre_partition: 0]
[two_round: 0]
[header: 0]
[label_column: ]
[weight_column: ]
[group_column: ]
[ignore_column: ]
[categorical_feature: ]
[forcedbins_filename: ]
[precise_float_parser: 0]
[parser_config_file: ]
[objective_seed: 5]
[num_class: 1]
[is_unbalance: 0]
[scale_pos_weight: 1.28995]
[sigmoid: 1]
[boost_from_average: 1]
[reg_sqrt: 0]
[alpha: 0.9]
[fair_c: 1]
[poisson_max_delta_step: 0.7]
[tweedie_variance_power: 1.5]
[lambdarank_truncation_level: 30]
[lambdarank_norm: 1]
[label_gain: ]
[lambdarank_position_bias_regularization: 0]
[eval_at: ]
[multi_error_top_k: 1]
[auc_mu_weights: ]
[num_machines: 1]
[local_listen_port: 12400]
[time_out: 120]
[machine_list_filename: ]
[machines: ]
[gpu_platform_id: -1]
[gpu_device_id: -1]
[gpu_use_dp: 0]
[num_gpu: 1]

end of parameters

pandas_categorical:null
