tree
version=v4
num_class=1
num_tree_per_iteration=1
label_index=0
max_feature_idx=21
objective=binary sigmoid:1
feature_names=ret_1d ret_5d ret_10d ret_20d volatility_5d volatility_20d ma5_ratio ma10_ratio ma20_ratio ma60_ratio ma5_ma20_cross rsi_14 macd_histogram macd_normalized volume_ratio_5_20 volume_change price_position gap intraday_range upper_shadow_ratio lower_shadow_ratio bollinger_pctb
feature_infos=[-0.080992065370082855:0.067847661674022675] [-0.14558732509613037:0.19219720363616943] [-0.19511517882347107:0.26211637258529663] [-0.25709053874015808:0.35104599595069885] [0.0021088332869112492:0.050346780568361282] [0.0093312812969088554:0.031797900795936584] [-0.081263363361358643:0.079820513725280762] [-0.11971172690391541:0.13225293159484863] [-0.15325607359409332:0.19480675458908081] [-0.25224378705024719:0.27688714861869812] [-0.11170239746570587:0.13978634774684906] [1.3622226715087891:97.732276916503906] [-1.5706082582473755:1.2597061395645142] [-0.026369377970695496:0.020341331139206886] [0.43050038814544678:1.6998604536056519] [-0.90812134742736816:13.013649940490723] [0.00097647774964570999:0.99944192171096802] [-0.084063082933425903:0.070014879107475281] [4.32816450484097e-05:0.073241658508777618] [-15.851613998413086:0.99913996458053589] [-8.9193000793457031:0.99995684623718262] [-0.32466086745262146:1.3510991334915161]
tree_sizes=1397 1840 1516 2063 1621 2162 2266 2161 2159

Tree=0
num_leaves=12
num_cat=0
split_feature=2 12 5 19 9 17 4 9 9 16 19
split_gain=12.4787 13.0115 11.6504 13.8131 8.95887 9.54154 8.69088 9.11987 9.28185 7.28742 7.15281
threshold=0.084702417254447951 0.15959291905164721 0.022008474916219715 0.40144234895706182 0.083235092461109175 -0.014979952946305273 0.032986015081405647 0.14093791693449023 -0.030771475285291668 0.87455362081527721 0.54456341266632091
decision_type=2 2 2 2 2 2 2 2 2 2 2
left_child=1 6 3 -2 5 -3 7 8 -1 -7 -5
right_child=2 4 -4 10 -6 9 -8 -9 -10 -11 -12
leaf_value=-0.36185651402036706 -0.34826089078359651 -0.36936975342082007 -0.38991331717329236 -0.39241545827616781 -0.32727844320872279 -0.3419772702735836 -0.38018486052544659 -0.37907757921397101 -0.35417648333886376 -0.36040600543598739 -0.36428742232767575
leaf_weight=252.7675729393959 28.625559717416763 22.141053855419159 17.970612198114395 13.430359721183779 15.863422602415083 67.309243381023407 15.528395771980284 17.194375514984131 338.95914077758789 29.561071366071701 17.708815455436707
leaf_count=894 97 80 69 52 50 224 58 64 1172 104 63
internal_value=-0.357939 -0.356769 -0.369427 -0.362983 -0.34829 -0.351444 -0.358636 -0.358065 -0.357434 -0.34742 -0.376662
internal_weight=837.06 759.324 77.7353 59.7647 134.875 119.011 624.449 608.921 591.727 96.8703 31.1392
internal_count=2927 2646 281 212 458 408 2188 2130 2066 328 115
is_linear=0
shrinkage=1


Tree=1
num_leaves=16
num_cat=0
split_feature=2 12 10 2 13 12 9 10 9 4 19 1 20 20 9
split_gain=11.7106 12.194 10.0621 15.3718 10.7729 10.0816 8.35938 9.38082 8.03424 7.23531 14.652 13.7793 6.88611 5.67404 3.37154
threshold=0.084702417254447951 0.15959291905164721 -0.033415533602237694 -0.025285106152296063 -0.0055421264842152587 -0.16689538955688474 0.083235092461109175 0.018102967180311683 0.13120043277740481 0.02015015855431557 0.41753511130809789 0.06895043328404428 0.29298594594001776 0.2262258976697922 -0.081819791346788392
decision_type=2 2 2 2 2 2 2 2 2 2 2 2 2 2 2
left_child=1 2 3 5 13 -1 7 14 -6 10 -2 -11 -9 -4 -3
right_child=9 6 4 -5 8 -7 -8 12 -10 11 -12 -13 -14 -15 -16
leaf_value=0.00034441259003650527 0.02331040016202424 0.038262231585195115 0.0073758208142541085 -0.025949970206761919 0.011672775024908781 0.017341559257982597 0.040718195670041979 0.021207783518784107 -0.0073246467803577799 -0.029621458367694749 -0.0099442224883524513 0.0087269224867999578 0.0014499940778071822 0.028544088155097843 0.020390039145825687
leaf_weight=84.634003341197968 24.17058601975441 17.005426496267319 16.185811847448349 13.341071426868437 390.44821980595589 49.33000186085701 15.979262813925741 26.091970592737198 20.271163374185562 15.972170382738115 21.698107600212097 15.892487764358519 39.605097040534019 51.45526921749115 36.684198006987572
leaf_count=305 81 54 57 52 1360 169 50 88 75 63 81 56 142 170 124
internal_value=0.0111656 0.0122971 0.0104899 0.00357468 0.0126012 0.00670767 0.0204898 0.0174417 0.0107124 3.4298e-05 0.00763882 -0.0107204 0.00954222 0.0237037 0.0267018
internal_weight=838.765 761.031 625.666 147.305 478.36 133.964 135.366 119.387 410.719 77.7334 45.8687 31.8647 65.6971 67.6411 53.6896
internal_count=2927 2646 2188 526 1662 474 458 408 1435 281 162 119 230 227 178
is_linear=0
shrinkage=0.03


Tree=2
num_leaves=13
num_cat=0
split_feature=2 18 5 12 12 4 9 3 9 17 15 20
split_gain=10.9929 12.1923 14.7009 12.4382 11.4617 8.10874 8.22186 8.76053 7.80738 8.82583 7.0006 4.16634
threshold=0.084702417254447951 0.021418477408587936 0.022008474916219715 0.22796081751585009 0.15959291905164721 0.032986015081405647 0.14093791693449023 -0.02476093731820583 0.083235092461109175 -0.014979952946305273 -0.57554659247398365 0.44398225843906408
decision_type=2 2 2 2 2 2 2 2 2 2 2 2
left_child=4 2 3 -2 5 6 7 -1 9 -6 -11 -5
right_child=1 -3 -4 11 8 -7 -8 -9 -10 10 -12 -13
leaf_value=0.0074302129816245181 -0.0084319508480805386 -0.022249128558170864 -0.020095419374248292 0.012655248891327592 -5.9345293169031432e-05 -0.010652310020319694 -0.00926093469882781 0.014800714010489605 0.03933472671520126 0.00082175939775673611 0.0240012120889442 0.035196202845130621
leaf_weight=283.73000550270081 14.579160451889036 16.26428011059761 13.718069314956663 17.549342960119247 22.198237121105194 15.521178483963011 17.152608722448349 310.38913135230541 16.078638359904289 14.013258174061773 83.511266350746155 15.613091275095938
leaf_count=999 54 63 53 61 80 58 64 1067 50 50 278 50
internal_value=0.0108159 2.82075e-05 0.0062334 0.0141173 0.01191 0.0101583 0.0107081 0.0113043 0.0198398 0.0168927 0.0207432 0.0240751
internal_weight=840.318 77.7239 61.4597 47.7416 762.594 626.793 611.272 594.119 135.801 119.723 97.5245 33.1624
internal_count=2927 281 218 165 2646 2188 2130 2066 458 408 328 111
is_linear=0
shrinkage=0.03


Tree=3
num_leaves=18
num_cat=0
split_feature=2 18 5 12 10 5 5 19 13 2 12 1 10 2 11 6 14
split_gain=10.3133 11.5449 13.8908 11.696 10.8257 12.6838 11.0577 10.0398 9.56192 9.30808 10.9125 11.6245 9.04685 11.2661 7.71808 6.90337 6.06831
threshold=0.084702417254447951 0.021418477408587936 0.022008474916219715 0.22796081751585009 -0.033415533602237694 0.017227491363883022 0.021916065365076069 0.40144234895706182 -0.0058246336411684743 -0.025285106152296063 -0.16689538955688474 -0.079747162759304033 -0.0023425196995958682 0.049329398199915893 43.040191650390632 -0.029115946963429448 0.83483481407165538
decision_type=2 2 2 2 2 2 2 2 2 2 2 2 2 2 2 2 2
left_child=4 2 3 -2 9 12 15 -5 -8 10 11 -1 14 -14 -6 -7 -12
right_child=1 -3 -4 7 5 6 8 -9 -10 -11 16 -13 13 -15 -16 -17 -18
leaf_value=0.022790763350375172 -0.0082071192205647302 -0.021709676487918425 -0.019607469841346585 0.037544642187915714 0.0026301955795927602 0.032204389753220326 0.025295827124464865 0.0042178923323993129 0.0045104504921378661 -0.017427503452401908 0.032871712961210234 -0.0051746856480972912 -0.011154723868810203 0.018333363676579902 0.025384687019217499 0.016804846684771751 0.01011234344648846
leaf_weight=15.524093225598333 14.556932702660559 16.194285422563553 13.663392364978789 18.426087290048599 30.386613249778748 29.652742326259613 23.318959057331085 14.86462879180908 117.66543190181255 14.955895960330961 15.526765242218969 69.222796201705933 45.444171667098999 14.552548304200171 23.89368848502636 328.84374243021011 35.074873507022858
leaf_count=52 54 63 53 58 108 96 77 53 416 57 50 253 168 49 79 1119 122
internal_value=0.0104751 2.27277e-05 0.00604807 0.0136871 0.0115327 0.0133013 0.0153643 0.0233084 0.00812345 0.00425109 0.00677881 0.000119139 0.00420318 -0.00376973 0.0129788 0.018173 0.0176557
internal_weight=841.768 77.7053 61.511 47.8476 764.062 613.758 499.481 33.2907 140.984 150.304 135.349 84.7469 114.277 59.9967 54.2803 358.496 50.6016
internal_count=2927 281 218 165 2646 2112 1708 111 493 534 477 305 404 217 187 1215 172
is_linear=0
shrinkage=0.03


Tree=4
num_leaves=14
num_cat=0
split_feature=2 18 12 12 4 1 13 4 1 15 0 2 4
split_gain=9.68664 10.9319 10.7116 10.6649 7.52815 7.756 13.0258 7.2004 9.91083 6.32479 7.74932 4.45396 3.37716
threshold=0.084702417254447951 0.021418477408587936 0.15959291905164721 0.21159882098436358 0.032986015081405647 -0.071480758488178239 -0.011312623508274553 0.02015015855431557 0.056326670572161681 -0.61395347118377674 -0.013065976090729235 -0.095237534493207918 0.02183222305029631
decision_type=2 2 2 2 2 2 2 2 2 2 2 2 2
left_child=2 3 4 -2 5 11 -7 8 -5 -4 -11 -1 -12
right_child=1 -3 9 7 -6 6 -8 -9 -10 10 12 -13 -14
leaf_value=0.0086994291930579584 -0.015889872102162448 -0.021185955963364422 0.0010281118405850033 0.03792741051064067 -0.010566761620471571 -0.014481876191232895 0.0099374793133353324 -0.0024646944110181469 0.0034237954643596825 0.0055517779969267321 0.028573056617990825 0.030394269694152837 0.014665850959549453
leaf_weight=14.93425641953945 14.418502658605574 16.122585967183113 16.322927638888359 14.962188944220545 15.510348111391066 19.431864976882935 554.14136129617691 17.237245932221413 14.925026670098303 24.155797451734543 69.696241796016693 24.95901070535183 26.2663234770298
leaf_count=52 55 63 58 47 58 73 1924 63 53 85 226 81 89
internal_value=0.0101501 1.55456e-05 0.0111732 0.00586767 0.00948285 0.010011 0.0090812 0.0127789 0.0214629 0.0188179 0.0211822 0.0227574 0.0249879
internal_weight=843.084 77.6656 765.418 61.543 628.977 613.466 573.573 47.1245 29.8872 136.441 120.118 39.8933 95.9626
internal_count=2927 281 2646 218 2188 2130 1997 163 100 458 400 133 315
is_linear=0
shrinkage=0.03


Tree=5
num_leaves=19
num_cat=0
split_feature=5 14 5 19 5 16 12 9 12 7 6 0 3 1 1 13 13 1
split_gain=11.0185 15.7582 11.6726 12.4619 11.3442 11.9977 11.2923 9.74393 8.97676 20.5056 7.6393 21.662 7.14949 6.98622 6.60361 6.34566 5.6255 4.54754
threshold=0.016747176647186283 0.91982108354568493 0.021202208474278453 0.021755792200565342 0.019280284643173221 0.86364442110061657 0.29343034327030187 0.098901219666004195 0.38005822896957403 0.036873428151011474 -0.01990448962897062 -0.014069499913603066 0.030897962860763076 -0.044270714744925492 1.0000000180025095e-35 -0.0032264852197840805 0.0012451381771825256 -0.022116799838840958
decision_type=2 2 2 2 2 2 2 2 2 2 2 2 2 2 2 2 2 2
left_child=1 15 4 14 5 7 -7 -2 9 -5 13 -12 16 -6 -4 -1 17 -3
right_child=2 12 3 8 10 6 -8 -9 -10 -11 11 -13 -14 -15 -16 -17 -18 -19
leaf_value=0.029970946678472863 0.010608253628962238 -0.019444211194798073 0.0013099775186960767 0.0066967688996197299 0.017431146492113244 -0.017024590357444188 0.014681815710970922 0.034559056116040911 -0.011957134671356033 0.034178992584476507 -0.013476543656281486 0.020128040162973954 0.0059820294830734665 0.046079303017170947 -0.026668481968538736 0.0054039947883460565 -0.029941070410558428 0.0021036746566999937
leaf_weight=16.050227403640747 194.45559886097908 14.221162617206572 15.463959798216822 207.13187783956528 17.814060136675835 25.546423643827438 15.314109608530996 16.064523264765739 17.082515895366669 26.956609830260277 18.554137051105499 158.39382547140121 23.1137385815382 16.723929926753044 13.401141092181204 23.360853299498558 13.337192073464392 20.028401747345924
leaf_count=52 671 54 55 726 60 96 52 51 64 87 69 531 81 51 52 82 52 71
internal_value=0.00987656 0.000980177 0.011188 0.00630038 0.0141187 0.00972244 -0.00500283 0.0126048 0.00845904 0.0100062 0.0192597 0.0165316 -0.00744414 0.0322938 -0.0120371 0.0159772 -0.0140161 -0.00705616
internal_weight=853.014 110.112 742.903 280.036 462.867 251.381 40.8605 210.52 251.171 234.088 211.486 176.948 70.7005 34.538 28.8651 39.4111 47.5868 34.2496
internal_count=2957 392 2565 984 1581 870 148 722 877 813 711 600 258 111 107 134 177 125
is_linear=0
shrinkage=0.03


Tree=6
num_leaves=20
num_cat=0
split_feature=5 14 10 9 11 5 5 19 11 9 19 10 11 14 14 11 0 5 0
split_gain=10.3443 14.865 12.0252 22.0318 15.7792 14.6783 17.864 12.3452 11.6991 12.7952 9.7605 8.01563 6.95085 6.67664 13.9377 6.39778 6.31384 7.56852 6.33674
threshold=0.016747176647186283 0.91982108354568493 -0.032845258712768548 -0.094430908560752855 42.785800933837898 0.021109064109623436 0.01914053596556187 0.57991862297058117 32.35870552062989 -0.13228213787078855 -0.039682833477854722 -0.046119460836052888 43.942094802856452 1.0599500536918642 1.2248001694679262 40.519401550292976 -0.0017904118285514412 0.015830801799893383 0.0092830937355756777
decision_type=2 2 2 2 2 2 2 2 2 2 2 2 2 2 2 2 2 2 2
left_child=1 12 3 8 13 6 -6 11 9 -2 -7 -5 -1 15 -15 -4 17 -3 -18
right_child=2 16 4 7 5 10 -8 -9 -10 -11 -12 -13 -14 14 -16 -17 18 -19 -20
leaf_value=0.026160954176565551 0.0075433609411065701 -0.030619791070706257 0.021585147291068807 -0.014508702642426373 0.0072349061709125213 -0.018524482783035763 0.02181777282400434 -0.033424913261766109 -0.0079752209274503594 0.03626565235370606 0.0057731218579764087 0.0085311868275868025 0.00078175117327773441 -0.00071006316220301711 0.032981830866796048 0.042830138938660625 0.013760465702843972 -0.001062228257294726 -0.0097855154910951245
leaf_weight=22.324558705091476 32.698314398527145 16.297809660434726 44.273823291063309 25.133099526166912 157.12795329093933 15.254040718078612 148.99721731245518 14.142281994223593 16.10965333878994 24.759462803602219 172.95224484801292 27.242542386054996 17.178939297795296 26.137382760643959 17.882276937365532 21.399445384740829 17.578146204352379 14.7264387011528 22.01491279900074
leaf_count=73 114 64 147 94 546 58 494 56 59 79 607 95 61 93 57 66 60 53 81
internal_value=0.00957049 0.000949191 0.0108393 0.00286766 0.0126754 0.0103422 0.0143904 -0.00954331 0.0141071 0.0203802 0.00370046 -0.00253327 0.0154901 0.0229745 0.0133387 0.0290913 -0.00724586 -0.0171545 0.00067576
internal_weight=854.231 110.121 744.11 140.085 604.024 494.331 306.125 66.5179 73.5674 57.4578 188.206 52.3756 39.5035 109.693 44.0197 65.6733 70.6173 31.0242 39.5931
internal_count=2957 392 2565 497 2068 1705 1040 245 252 193 665 189 134 363 150 213 258 117 141
is_linear=0
shrinkage=0.03


Tree=7
num_leaves=19
num_cat=0
split_feature=10 9 19 11 11 15 14 10 19 9 17 9 12 14 4 4 16 9
split_gain=7.9395 20.5407 12.5787 12.4111 11.5474 11.2761 9.7875 8.91256 9.58722 8.43281 8.38496 9.31766 14.6816 8.03168 7.23849 7.86652 7.47536 6.80192
threshold=-0.032845258712768548 -0.095543663948774324 0.60144498944282543 32.35870552062989 42.785800933837898 -0.10544385388493537 0.82473167777061474 -0.046119460836052888 0.37005348503589636 -0.055929735302925103 0.042724858969450004 0.14775712788105014 0.19767730683088305 0.93992117047309887 0.018409360200166706 0.012013921048492195 0.28991830348968511 -0.030771475285291668
decision_type=2 2 2 2 2 2 2 2 2 2 2 2 2 2 2 2 2 2
left_child=1 3 7 5 6 -1 -2 8 -3 -9 11 17 -13 -7 15 -8 -16 -6
right_child=4 2 -4 -5 10 13 14 9 -10 -11 -12 12 -14 -15 16 -17 -18 -19
leaf_value=0.032700665457220009 0.035071903760801722 -0.027080319974369587 -0.031254218720579 -0.0089709772498481385 0.0020441956244934964 -0.0085746676603423357 0.021402972467985046 0.023860609995853453 0.0056176600511277583 -0.0054961625628816412 0.029960631948366158 -0.028455380807944419 0.011264293792252768 0.019521409923804293 0.029763044136930795 -0.0010165452684804948 0.0042283962607017177 0.010765298922097632
leaf_weight=30.253949120640755 25.703306451439857 17.464079067111019 15.139873281121252 16.575278967618942 102.01742535829544 15.10186594724655 20.824362948536873 16.301059022545815 13.595326185226439 17.063545718789101 15.466769114136694 14.79702338576317 16.858012735843658 20.307339832186699 36.379030808806419 38.827454745769501 15.166797772049902 407.48234978318214
leaf_count=97 81 68 60 61 360 55 69 54 48 62 50 58 58 68 117 138 53 1400
internal_value=0.00927494 0.00323897 -0.00755831 0.0136865 0.0106722 0.0194996 0.0184917 -0.00155123 -0.0129454 0.00903644 0.00871384 0.00804691 -0.00751346 0.00754977 0.0143541 0.00698445 0.0225303 0.00903237
internal_weight=855.325 161.802 79.5639 82.2384 693.523 65.6632 136.901 64.424 31.0594 33.3646 556.622 541.155 31.655 35.4092 111.198 59.6518 51.5458 509.5
internal_count=2957 573 292 281 2384 220 458 232 116 116 1926 1876 116 123 377 207 170 1760
is_linear=0
shrinkage=0.03


Tree=8
num_leaves=19
num_cat=0
split_feature=5 14 5 12 7 8 5 6 0 3 11 12 18 11 1 13 1 14
split_gain=9.71945 13.8631 10.1226 10.9544 12.7059 9.99846 9.95521 7.0524 20.1368 6.66244 6.61366 10.4822 9.77519 6.44046 6.38004 5.27991 4.19247 0.818774
threshold=0.016747176647186283 0.91982108354568493 0.021202208474278453 0.38005822896957403 0.036873428151011474 0.037540312856435783 0.019280284643173221 -0.01990448962897062 -0.014069499913603066 0.030897962860763076 65.274650573730483 0.33000688254833227 0.0041532458271831283 43.942094802856452 -0.044270714744925492 0.0012451381771825256 -0.022116799838840958 1.0365246534347536
decision_type=2 2 2 2 2 2 2 2 2 2 2 2 2 2 2 2 2 2
left_child=1 13 6 4 5 -4 10 14 -9 15 12 -12 -2 -1 -8 16 -3 -6
right_child=2 9 3 -5 17 -7 7 8 -10 -11 11 -13 -14 -15 -16 -17 -18 -19
leaf_value=0.0248848323817417 -0.0093658681794543432 -0.018828297921952088 0.0068345808217371686 -0.015730828506518836 0.031161811963418346 -0.014244425122606843 0.016060334063503986 -0.013768985640319895 0.018579038790125898 0.0056624444794428005 -0.01227152215828399 0.017831153238547545 0.013066037547428445 0.00050353590288561983 0.043256848397661099 -0.029124251977282058 0.0018800816484105195 0.017554681916341252
leaf_weight=22.445399224758148 18.375691473484039 14.157433673739432 210.04586152732372 19.015289425849915 15.218600288033487 21.386411234736443 17.922677546739578 18.580574452877045 159.43150828778744 23.147922053933144 28.688485458493233 15.014016836881636 190.30779041349888 17.20380862057209 16.902667492628098 13.259019479155539 20.050339415669441 15.196708574891089
leaf_count=73 67 54 732 72 49 80 60 69 531 81 106 50 647 61 51 52 71 51
internal_value=0.0089898 0.000640295 0.0102172 0.00567084 0.00729038 0.00482088 0.0129375 0.0177349 0.0151278 -0.00728006 0.00882602 -0.00169508 0.0110412 0.0146522 0.030183 -0.0136402 -0.00689655 0.0252338
internal_weight=856.35 110.264 746.086 280.863 261.848 231.432 465.223 212.837 178.012 70.6147 252.386 43.7025 208.683 39.6492 34.8253 47.4668 34.2078 30.4153
internal_count=2957 392 2565 984 912 812 1581 711 600 258 870 156 714 134 111 177 125 100
is_linear=0
shrinkage=0.03


end of trees

feature_importances:
volatility_20d=15
ma60_ratio=15
macd_histogram=14
ret_5d=9
ret_10d=9
rsi_14=9
volume_ratio_5_20=9
upper_shadow_ratio=9
volatility_5d=8
ma5_ma20_cross=8
macd_normalized=6
ret_1d=5
intraday_range=4
ret_20d=3
ma5_ratio=3
volume_change=3
price_position=3
gap=3
lower_shadow_ratio=3
ma10_ratio=2
ma20_ratio=1

parameters:
[boosting: gbdt]
[objective: binary]
[metric: auc]
[tree_learner: serial]
[device_type: cpu]
[data_sample_strategy: bagging]
[data: ]
[valid: ]
[num_iterations: 800]
[learning_rate: 0.03]
[num_leaves: 20]
[num_threads: 0]
[seed: 0]
[deterministic: 0]
[force_col_wise: 0]
[force_row_wise: 0]
[histogram_pool_size: -1]
[max_depth: 5]
[min_data_in_leaf: 50]
[min_sum_hessian_in_leaf: 0.001]
[bagging_fraction: 0.7]
[pos_bagging_fraction: 1]
[neg_bagging_fraction: 1]
[bagging_freq: 5]
[bagging_seed: 3]
[bagging_by_query: 0]
[feature_fraction: 0.7]
[feature_fraction_bynode: 1]
[feature_fraction_seed: 2]
[extra_trees: 0]
[extra_seed: 6]
[early_stopping_round: 0]
[early_stopping_min_delta: 0]
[first_metric_only: 0]
[max_delta_step: 0]
[lambda_l1: 0.1]
[lambda_l2: 1]
[linear_lambda: 0]
[min_gain_to_split: 0]
[drop_rate: 0.1]
[max_drop: 50]
[skip_drop: 0.5]
[xgboost_dart_mode: 0]
[uniform_drop: 0]
[drop_seed: 4]
[top_rate: 0.2]
[other_rate: 0.1]
[min_data_per_group: 100]
[max_cat_threshold: 32]
[cat_l2: 10]
[cat_smooth: 10]
[max_cat_to_onehot: 4]
[top_k: 20]
[monotone_constraints: ]
[monotone_constraints_method: basic]
[monotone_penalty: 0]
[feature_contri: ]
[forcedsplits_filename: ]
[refit_decay_rate: 0.9]
[cegb_tradeoff: 1]
[cegb_penalty_split: 0]
[cegb_penalty_feature_lazy: ]
[cegb_penalty_feature_coupled: ]
[path_smooth: 0]
[interaction_constraints: ]
[verbosity: -1]
[saved_feature_importance_type: 0]
[use_quantized_grad: 0]
[num_grad_quant_bins: 4]
[quant_train_renew_leaf: 0]
[stochastic_rounding: 1]
[linear_tree: 0]
[max_bin: 255]
[max_bin_by_feature: ]
[min_data_in_bin: 3]
[bin_construct_sample_cnt: 200000]
[data_random_seed: 1]
[is_enable_sparse: 1]
[enable_bundle: 1]
[use_missing: 1]
[zero_as_missing: 0]
[feature_pre_filter: 1]
[pre_partition: 0]
[two_round: 0]
[header: 0]
[label_column: ]
[weight_column: ]
[group_column: ]
[ignore_column: ]
[categorical_feature: ]
[forcedbins_filename: ]
[precise_float_parser: 0]
[parser_config_file: ]
[objective_seed: 5]
[num_class: 1]
[is_unbalance: 0]
[scale_pos_weight: 1.44697]
[sigmoid: 1]
[boost_from_average: 1]
[reg_sqrt: 0]
[alpha: 0.9]
[fair_c: 1]
[poisson_max_delta_step: 0.7]
[tweedie_variance_power: 1.5]
[lambdarank_truncation_level: 30]
[lambdarank_norm: 1]
[label_gain: ]
[lambdarank_position_bias_regularization: 0]
[eval_at: ]
[multi_error_top_k: 1]
[auc_mu_weights: ]
[num_machines: 1]
[local_listen_port: 12400]
[time_out: 120]
[machine_list_filename: ]
[machines: ]
[gpu_platform_id: -1]
[gpu_device_id: -1]
[gpu_use_dp: 0]
[num_gpu: 1]

end of parameters

pandas_categorical:null
