tree
version=v4
num_class=1
num_tree_per_iteration=1
label_index=0
max_feature_idx=1
objective=binary sigmoid:1
feature_names=atr_norm_60 atr_norm_20
feature_infos=[0.016802992671728134:0.034536074846982956] [0.012648033909499645:0.038178253918886185]
tree_sizes=1287 1826 1313 1846 1316 1744 1850 1750 1836 1746 1853 1831 1852 1838 1852 1741 1103 1842 1960 1745 1320 1755 1107 1644 1315 1959 1628 1957 1633 1964 793 1536 792 1534 792 2389 2385 2507 2389 2393 1111 1862 1113 1973 1217 1113 1958 1104 1956 1010 1621 2075 1620 2073 1622 1921 1756 1920 1731 1916 2496 1954 2606 1952 2487 1540 2073 1538 2061 1534 1614 1864 1617 1866 1214 2074 2039 2076 2155 2078 1005 1839 1005 1830 1000 2360 1748 2348 1755 2164 1299 1640 1301 1651 1280 2166 1318 2163 1217 2182 1013 1965 1011 2085 1015 1319 1639 1534 1644 1323 2180 1308 2181 1329 2294 789 2046 1515 1957 1519 1864 1639 1861 1624 1759 1428 1112 1435 1109 1432 1851 1818 1754 1822 1117 1324 2078 1328 2288 1327 1542 1230 1655 1224 1658 1646 1748 1548 1859 1541 1320 1324 1317 1320 1319 1540 1650 1539 1655 1545 1863 1319 1753 1321 1860 1833 1005 1941 1004 1941 1325 1982 1328 2063 1325 1768 1758 1871 1761 1766 1220 1532 1215 1438 1222 1005 1007 1110 1106 1112 1536 1091 1536 1091 1540 2072 1331 2052 1328 2296 1226 1221 1230 1229 1227 1752 2177 1756 2180 1856 1432 2074 1216 2186 1326 1010 1542 1106 1540 1099 1542 1441 1757 1539 1760

Tree=0
num_leaves=11
num_cat=0
split_feature=0 0 0 0 0 0 0 0 0 0
split_gain=5.19268 4.32929 2.62896 11.6057 3.55665 2.09279 4.4405 1.96263 4.13236 1.17219
threshold=0.020016173832118515 0.020477472804486755 0.022227877750992778 0.023209403268992904 0.025372071191668514 0.021991915069520477 0.021820867434144024 0.019759926013648513 0.019251123070716861 0.022462281398475174
decision_type=2 2 2 2 2 2 2 2 2 2
left_child=7 -2 5 9 -5 6 -3 8 -1 -4
right_child=1 2 3 4 -6 -7 -8 -9 -10 -11
leaf_value=-0.54882684810072613 -0.51373207065837623 -0.53553359180231475 -0.52467719262868362 -0.53710152025854874 -0.52833483284537652 -0.54525045233645442 -0.51330170320414548 -0.55501789893548559 -0.52248102460148893 -0.51292829577178389
leaf_weight=10.725735127925878 14.456425607204435 56.426693499088287 12.591080367565153 72.282128036022186 95.132607221603394 13.057416677474974 8.3940535783767682 7.461380958557128 8.8603898882865888 36.607400327920914
leaf_count=46 62 242 54 310 408 56 36 32 38 157
internal_value=-0.530348 -0.529223 -0.53005 -0.528344 -0.532115 -0.53473 -0.532383 -0.542697 -0.536923 -0.515688
internal_weight=335.995 308.948 294.491 216.613 167.415 77.8782 64.8207 27.0475 19.5861 49.1985
internal_count=1441 1325 1263 929 718 334 278 116 84 211
is_linear=0
shrinkage=1


Tree=1
num_leaves=16
num_cat=0
split_feature=1 1 1 1 1 1 1 1 1 1 1 1 1 1 1
split_gain=13.3903 5.37781 3.00293 7.23558 5.62867 2.66888 2.56289 1.72471 1.69684 2.22711 1.4942 1.31721 0.874781 0.627759 0.160936
threshold=0.024803493171930317 0.018319399096071724 0.023421310819685463 0.024147445335984234 0.022407828830182556 0.024431309662759308 0.031483506783843047 0.025360824540257457 0.028776853345334533 0.027804111130535606 0.019939567893743518 0.023735048249363903 0.016783350147306923 0.023176647722721103 0.025125089101493362
decision_type=2 2 2 2 2 2 2 2 2 2 2 2 2 2 2
left_child=1 12 4 11 10 -5 7 14 9 -9 -3 -4 -1 -6 -2
right_child=6 2 3 5 13 -7 -8 8 -10 -11 -12 -13 -14 -15 -16
leaf_value=0 -0.011690805580018972 0.0026295234925564881 0.01351501129524303 -0.01330556322129429 -0.0034242561577509435 0.0086983855546274719 0.0057800425644727428 -0.0075305770099885075 -0.014403600203502773 0.005836491796105554 0.0098746886625734089 0.030988565223752294 -0.011538625480568577 -0.013323337782602264 -0.023233329473606647
leaf_weight=8.1490140408277529 7.9247269332408887 39.871000424027443 10.028739407658579 7.4625082612037685 26.590699926018715 10.965972706675528 10.498384624719618 50.368325352668762 22.162635132670403 13.294190898537634 83.727435022592545 13.29720179736614 17.021068647503853 7.4639776051044455 7.2262036055326462
leaf_count=35 34 171 43 32 114 47 45 216 95 57 359 57 73 32 31
internal_value=0.000721102 0.00494321 0.0066039 0.01372 0.0046257 -0.0002838 -0.00772645 -0.00920304 -0.00733694 -0.00464574 0.00760145 0.0244637 -0.00784843 -0.00599766 -0.0184794
internal_weight=336.052 224.578 199.408 41.7544 157.653 18.4285 111.474 100.976 85.8252 63.6625 123.598 23.3259 25.1701 34.0547 15.1509
internal_count=1441 963 855 179 676 79 478 433 368 273 530 100 108 146 65
is_linear=0
shrinkage=0.03


Tree=2
num_leaves=11
num_cat=0
split_feature=0 0 0 0 0 0 0 0 0 0
split_gain=4.94843 4.04441 2.53102 10.7271 3.37567 1.98537 4.17516 1.88825 3.91098 1.1089
threshold=0.020016173832118515 0.020477472804486755 0.022227877750992778 0.023209403268992904 0.025372071191668514 0.021991915069520477 0.021820867434144024 0.019759926013648513 0.019251123070716861 0.022462281398475174
decision_type=2 2 2 2 2 2 2 2 2 2
left_child=7 -2 5 9 -5 6 -3 8 -1 -4
right_child=1 2 3 4 -6 -7 -8 -9 -10 -11
leaf_value=-0.017336542787726766 0.016729558835377845 -0.0043788175828875587 0.0060799982910655984 -0.0058324638938190045 0.0027116046823128883 -0.013867847116509945 0.017133574926712525 -0.023496294317843607 0.0082984113800993256 0.017470818686066612
leaf_weight=10.67714205384255 14.528624624013899 56.392434701323509 12.627630636095999 72.160199403762817 95.166227906942368 13.016191408038138 8.4395316392183286 7.4208030700683585 8.8848108649253827 36.798778802156448
leaf_count=46 62 242 54 310 408 56 36 32 38 157
internal_value=0.00069667 0.00179321 0.00099235 0.00266491 -0.000967997 -0.00360126 -0.00131514 -0.0113738 -0.00571021 0.0147984
internal_weight=336.112 309.13 294.601 216.753 167.326 77.8482 64.832 26.9828 19.562 49.4264
internal_count=1441 1325 1263 929 718 334 278 116 84 211
is_linear=0
shrinkage=0.03


Tree=3
num_leaves=16
num_cat=0
split_feature=1 1 1 1 1 1 1 1 1 1 1 1 1 1 1
split_gain=12.6396 5.012 2.81157 6.78694 5.32132 2.51784 2.41591 1.63752 1.62644 2.09882 1.48176 1.20868 0.852682 0.597013 0.156294
threshold=0.024803493171930317 0.018319399096071724 0.023421310819685463 0.024147445335984234 0.022407828830182556 0.024431309662759308 0.031483506783843047 0.025360824540257457 0.028776853345334533 0.027804111130535606 0.020948586985468868 0.023735048249363903 0.016783350147306923 0.023176647722721103 0.025125089101493362
decision_type=2 2 2 2 2 2 2 2 2 2 2 2 2 2 2
left_child=1 12 4 11 10 -5 7 14 9 -9 -3 -4 -1 -6 -2
right_child=6 2 3 5 13 -7 -8 8 -10 -11 -12 -13 -14 -15 -16
leaf_value=9.1809115087095766e-05 -0.011378956874003194 0.010165071641986736 0.013075339452012263 -0.013009044121378849 -0.0033677224005891483 0.0083689701881824244 0.005552956652986483 -0.0073332294280015666 -0.014092745414416163 0.005634917952725923 0.0033465613016453511 0.029838383083236469 -0.011247309314565275 -0.013043576629726682 -0.022725610496426213
leaf_weight=8.1365023851394671 7.8971963226795179 71.233888328075409 10.065513879060747 7.4373232871294048 26.57484969496727 10.996719777584074 10.519453078508375 50.272278904914856 22.090365067124367 13.31762485206127 52.613429486751556 13.406528100371359 16.967804953455925 7.4402365237474433 7.179604634642601
leaf_count=35 34 305 43 32 114 47 45 216 95 57 225 57 73 32 31
internal_value=0.000675633 0.00477113 0.00637012 0.0132427 0.00445497 -0.000327329 -0.0075428 -0.00898067 -0.00716102 -0.00452567 0.00734243 0.0236005 -0.00759456 -0.0058819 -0.0180463
internal_weight=336.149 224.873 199.768 41.9061 157.862 18.434 111.277 100.757 85.6803 63.5899 123.847 23.472 25.1043 34.0151 15.0768
internal_count=1441 963 855 179 676 79 478 433 368 273 530 100 108 146 65
is_linear=0
shrinkage=0.03


Tree=4
num_leaves=11
num_cat=0
split_feature=0 0 0 0 0 0 0 0 0 0
split_gain=4.74154 3.74808 2.43795 9.91832 3.23047 1.88644 3.93754 1.80159 3.71238 1.04933
threshold=0.020016173832118515 0.020477472804486755 0.022227877750992778 0.023209403268992904 0.02641265653073788 0.021991915069520477 0.021820867434144024 0.019759926013648513 0.019251123070716861 0.022462281398475174
decision_type=2 2 2 2 2 2 2 2 2 2
left_child=7 -2 5 9 -5 6 -3 8 -1 -4
right_child=1 2 3 4 -6 -7 -8 -9 -10 -11
leaf_value=-0.017005299320988876 0.01606851769742014 -0.0043124571743581985 0.0057701054862837105 -0.0043416645150941456 0.0040931677031764736 -0.013584691737411694 0.016540912228263243 -0.023061852265701236 0.0079721088999700224 0.016819400617534268
leaf_weight=10.635457009077077 14.602234929800032 56.354127436876297 12.660311713814734 99.569232374429703 67.651331454515457 12.974541947245596 8.4793277978897077 7.3781724870204917 8.9096859693527204 36.972759902477264
leaf_count=46 62 242 54 428 290 56 36 32 38 157
internal_value=0.00065278 0.00172495 0.000952047 0.00259286 -0.000907359 -0.00355776 -0.00132973 -0.0111763 -0.00563945 0.0142298
internal_weight=336.187 309.264 294.662 216.854 167.221 77.808 64.8335 26.9233 19.5451 49.6331
internal_count=1441 1325 1263 929 718 334 278 116 84 211
is_linear=0
shrinkage=0.03


Tree=5
num_leaves=15
num_cat=0
split_feature=1 1 1 1 1 1 1 1 1 1 1 1 1 1
split_gain=7.82656 7.97754 7.89221 1.86854 1.73127 2.99473 1.60312 2.57297 1.71767 0.927338 3.07407 1.37989 0.949419 0.426712
threshold=0.024539571255445484 0.031761508435010917 0.023705870844423774 0.024147445335984234 0.018319399096071724 0.017673227936029438 0.021826243959367279 0.021471343003213409 0.022062473930418495 0.028360741212964061 0.027907117269933227 0.029914963059127334 0.025869140401482586 0.016397057101130489
decision_type=2 2 2 2 2 2 2 2 2 2 2 2 2 2
left_child=2 9 4 -4 5 13 7 -6 -8 10 12 -11 -2 -1
right_child=1 -3 3 -5 6 -7 8 -9 -10 11 -12 -13 -14 -15
leaf_value=-0.0037376142292920474 -0.012871991335470663 0.018716716470916619 0.02521998724186297 0.0071458847704604532 0.0022560309691729333 -0.0199854580066379 -0.012795325269897758 0.01704148480435164 0.00016559979557181369 -0.020043996547496244 0.0092538571363156002 -0.0063175061052624807 -0.005634489333276098 0.0051187795212259595
leaf_weight=8.3746828138828331 34.360510349273682 9.1290925741195661 14.20703347027302 10.238447919487951 89.606291219592094 8.5626641958951932 9.834730386734007 11.234334528446196 58.141814291477203 15.098881989717485 8.1878599226474744 14.852335542440413 39.719710424542427 9.0242017060518247
leaf_count=36 148 39 60 44 383 37 42 48 249 65 35 64 171 39
internal_value=-0.00074295 -0.00683149 0.00262937 0.0183463 0.000557876 -0.00648485 0.00169042 0.00408385 -0.00182439 -0.0090833 -0.0072005 -0.0137582 -0.00915814 0.000721388
internal_weight=340.573 121.348 219.224 24.4455 194.779 25.9615 168.817 100.841 67.9765 112.219 82.2681 29.9512 74.0802 17.3989
internal_count=1460 522 938 104 834 112 722 431 291 483 354 129 319 75
is_linear=0
shrinkage=0.03


Tree=6
num_leaves=16
num_cat=0
split_feature=0 0 0 0 0 0 0 0 0 0 0 0 0 0 0
split_gain=5.71431 3.2113 4.89098 5.7073 7.53777 4.50689 5.41124 5.43079 3.48518 2.35136 1.16113 1.78926 0.370301 1.76509 0.860415
threshold=0.019065160304307941 0.023679232224822048 0.025952019728720192 0.028208337724208835 0.030431213788688186 0.022462281398475174 0.021418043412268165 0.021060446277260784 0.021820867434144024 0.02641265653073788 0.023929570801556114 0.02421696670353413 0.022798358462750915 0.02262829709798098 0.023072735406458381
decision_type=2 2 2 2 2 2 2 2 2 2 2 2 2 2 2
left_child=-1 5 10 9 -5 6 7 -2 -8 -4 -3 -12 13 -7 -14
right_child=1 2 3 4 -6 12 8 -9 -10 -11 11 -13 14 -15 -16
leaf_value=-0.022348510643943088 1.9510692957539404e-05 -0.017612288336340817 -0.0021486625590143621 -0.018785222424966722 0.010431077507350589 0.014575084634807479 -0.017168889924616959 0.019205991468268593 -0.0012848570760570621 0.011702537471515877 0.0045980613722268341 -0.0093251284036629384 0.01755764282964617 -0.0029620315090382442 0.0073091167447952377
leaf_weight=9.651663586497305 53.922559320926666 11.82137358188629 14.660269469022749 20.510118648409843 11.65318803489208 8.741197422146799 20.463305830955505 16.753448143601418 31.052053019404411 37.107898697257042 9.0699291825294477 47.606833666563034 13.719051226973532 9.9449120759963971 23.796248883008957
leaf_count=42 231 51 63 88 50 37 88 72 133 159 39 205 58 42 102
internal_value=-0.000720435 -1.49514e-05 -0.00321028 0.00161571 -0.00811397 0.00270128 -0.000524706 0.00481394 -0.00785834 0.00775677 -0.00910494 -0.00700391 0.00965413 0.00541293 0.0114934
internal_weight=340.474 330.822 152.43 83.9315 32.1633 178.393 122.191 70.676 51.5154 51.7682 68.4981 56.6768 56.2014 18.6861 37.5153
internal_count=1460 1418 655 360 138 763 524 303 221 222 295 244 239 79 160
is_linear=0
shrinkage=0.03


Tree=7
num_leaves=15
num_cat=0
split_feature=1 1 1 1 1 1 1 1 1 1 1 1 1 1
split_gain=7.37896 7.50111 7.34449 1.76566 1.59876 2.83491 1.52188 2.39329 1.62989 0.89534 2.92048 1.29813 0.879972 0.397013
threshold=0.024539571255445484 0.031761508435010917 0.023705870844423774 0.024147445335984234 0.018319399096071724 0.017673227936029438 0.021826243959367279 0.021471343003213409 0.022062473930418495 0.028360741212964061 0.027907117269933227 0.029914963059127334 0.025869140401482586 0.016397057101130489
decision_type=2 2 2 2 2 2 2 2 2 2 2 2 2 2
left_child=2 9 4 -4 5 13 7 -6 -8 10 12 -11 -2 -1
right_child=1 -3 3 -5 6 -7 8 -9 -10 11 -12 -13 -14 -15
leaf_value=-0.0035228993782442197 -0.012470978444077893 0.01808727393766912 0.024352759221433432 0.0068272959621884215 0.0022179904552180403 -0.019406150281621685 -0.012476786718954603 0.016456311839532421 0.00016410263856184677 -0.019540254539442452 0.0090503146558385886 -0.0061822050156718662 -0.0054799522694754174 0.0050162100499210249
leaf_weight=8.3549231886863762 34.21392148733139 9.1744174808263761 14.288958668708803 10.266784459352492 89.627385690808296 8.4979916512966138 9.8011020272970182 11.285317465662954 58.138466015458107 15.008707180619242 8.202022045850752 14.830436334013937 39.658150389790535 9.0323142260313016
leaf_count=36 148 39 60 44 383 37 42 48 249 65 35 64 171 39
internal_value=-0.000699827 -0.00662089 0.00257122 0.0176966 0.000567963 -0.00620979 0.00165511 0.00398558 -0.00177051 -0.00881524 -0.00696578 -0.0134142 -0.00888124 0.000781398
internal_weight=340.381 121.088 219.293 24.5557 194.738 25.8852 168.852 100.913 67.9396 111.913 82.0741 29.8391 73.8721 17.3872
internal_count=1460 522 938 104 834 112 722 431 291 483 354 129 319 75
is_linear=0
shrinkage=0.03


Tree=8
num_leaves=16
num_cat=0
split_feature=0 0 0 0 0 0 0 0 0 0 0 0 0 0 0
split_gain=5.42633 2.96482 4.65135 5.36664 7.13678 4.22735 5.07521 5.08242 3.30544 2.1952 1.10094 1.67298 0.366084 1.44117 1.22898
threshold=0.019065160304307941 0.023679232224822048 0.025952019728720192 0.028208337724208835 0.030431213788688186 0.022462281398475174 0.021418043412268165 0.021060446277260784 0.021820867434144024 0.02641265653073788 0.023929570801556114 0.02421696670353413 0.022926484234631065 0.023072735406458381 0.02262829709798098
decision_type=2 2 2 2 2 2 2 2 2 2 2 2 2 2 2
left_child=-1 5 10 9 -5 6 7 -2 -8 -4 -3 -12 14 -14 -7
right_child=1 2 3 4 -6 12 8 -9 -10 -11 11 -13 13 -15 -16
leaf_value=-0.021825511422318762 9.0550620681661379e-07 -0.017137217392511141 -0.0020017313161776597 -0.018262170886765676 0.010175467786232024 0.014150462092546855 -0.016725501431542993 0.01852841338882261 -0.0012306907733096073 0.011381206782954231 0.0044198682111670712 -0.009033313713530236 0.021791393172128266 0.0070699060336241798 0.00027643342277796013
leaf_weight=9.582215949892996 53.927196130156517 11.753567084670065 14.638197794556616 20.387231990695 11.67703031003475 8.7689812332391757 20.360477522015572 16.841732233762741 31.032733842730522 37.197597771883011 9.0840021073818189 47.461918234825134 8.5458304435014707 23.839795097708702 15.170932978391646
leaf_count=42 231 51 63 88 50 37 88 72 133 159 39 205 36 102 64
internal_value=-0.000678633 0 -0.00306733 0.00163544 -0.00782061 0.00261455 -0.000511995 0.00464865 -0.0076286 0.00757879 -0.00882781 -0.0067807 0.00933856 0.0115808 0.00584227
internal_weight=340.269 330.687 152.2 83.9001 32.0643 178.488 122.162 70.7689 51.3932 51.8358 68.2995 56.5459 56.3255 32.3856 23.9399
internal_count=1460 1418 655 360 138 763 524 303 221 222 295 244 239 138 101
is_linear=0
shrinkage=0.03


Tree=9
num_leaves=15
num_cat=0
split_feature=1 1 1 1 1 1 1 1 1 1 1 1 1 1
split_gain=6.955 7.0526 6.85755 1.67764 1.47338 2.68013 1.47712 5.76126 1.41163 0.864431 2.77367 1.22398 0.817263 0.369039
threshold=0.024539571255445484 0.031761508435010917 0.023705870844423774 0.024147445335984234 0.018319399096071724 0.017673227936029438 0.020914737135171894 0.020536287687718872 0.02127916552126408 0.028360741212964061 0.027907117269933227 0.029914963059127334 0.025869140401482586 0.016397057101130489
decision_type=2 2 2 2 2 2 2 2 2 2 2 2 2 2
left_child=2 9 4 -4 5 13 7 -6 -8 10 12 -11 -2 -1
right_child=1 -3 3 -5 6 -7 8 -9 -10 11 -12 -13 -14 -15
leaf_value=-0.003316978986974679 -0.012083887969910553 0.017483577582035448 0.023564619849393627 0.006524694692787914 0.00047277399994623438 -0.018834737075803559 -0.0096237298751062888 0.021544699895265661 0.00066877036551968869 -0.019054878560013314 0.0088507892180898946 -0.0060423088198068567 -0.0053246864250785396 0.0049121005380218519
leaf_weight=8.3352106064558082 34.067397236824036 9.2162812501192075 14.360369980335237 10.292857423424719 56.359099984169006 8.4313966780900937 12.866054460406302 13.850633382797239 85.803661614656448 14.917736500501634 8.2151666432619077 14.806781262159346 39.593702882528305 9.0400361567735654
leaf_count=36 148 39 60 44 241 37 55 59 367 65 35 64 171 39
internal_value=-0.000658064 -0.00641569 0.00251447 0.017099 0.000574359 -0.00594199 0.0016169 0.00491605 -0.000726313 -0.00855374 -0.006737 -0.0130782 -0.0086109 0.000835525
internal_weight=340.156 120.817 219.339 24.6532 194.686 25.8066 168.879 70.2097 98.6697 111.601 81.8763 29.7245 73.6611 17.3752
internal_count=1460 522 938 104 834 112 722 300 422 483 354 129 319 75
is_linear=0
shrinkage=0.03


Tree=10
num_leaves=16
num_cat=0
split_feature=0 0 0 0 0 0 0 0 0 0 0 0 0 0 0
split_gain=5.24601 3.81254 2.71557 7.38353 5.70399 5.48211 4.00826 3.61511 2.34708 2.06269 2.01797 2.38221 1.96155 1.82702 0.339402
threshold=0.021820867434144024 0.021223423071205619 0.028564246371388439 0.026489762589335445 0.030431213788688186 0.023679232224822048 0.024987604469060901 0.027368167415261272 0.021022067405283455 0.027724174782633785 0.02065963484346867 0.019065160304307941 0.02937643509358168 0.022552943788468841 0.021701107732951645
decision_type=2 2 2 2 2 2 2 2 2 2 2 2 2 2 2
left_child=1 8 3 5 12 13 -7 -5 10 -9 11 -1 -4 -2 -3
right_child=2 14 4 7 -6 6 -8 9 -10 -11 -12 -13 -14 -15 -16
leaf_value=-0.016350990124398185 -0.00031481967174656352 -0.019340859766200119 -0.0055897848632499693 0.021782024124437197 0.0087578734838157039 -0.012339335096581493 0.00082986585440553541 -0.0075750058184870083 0.011555497531485258 0.01096351325054282 -0.01555257827307953 0.0010152104024521605 -0.025881340606354612 0.0080578412012093457 -0.0086219351157011126
leaf_weight=7.7185356914997092 40.95766618847847 19.013126641511921 8.9581100940704399 21.106984093785286 11.449139058589934 43.639821156859398 37.97822017967701 7.7125313282012966 7.2838914692401877 13.050017759203909 12.790943279862402 36.705100476741791 9.9085933268070203 51.67108142375946 7.3653457611799231
leaf_count=34 175 82 39 90 49 189 164 33 31 56 55 157 43 219 32
internal_value=-0.00133575 -0.00745818 0.000930911 0.00212928 -0.00731147 -0.000595006 -0.0062393 0.0132862 -0.00335944 0.00390763 -0.00547565 -0.00222963 -0.017164 0.00435984 -0.0168818
internal_weight=337.309 90.8769 246.432 216.116 30.3158 174.247 81.618 41.8695 64.4985 20.7625 57.2146 44.4236 18.8667 92.6287 26.3785
internal_count=1448 391 1057 926 131 747 353 179 277 89 246 191 82 394 114
is_linear=0
shrinkage=0.03


Tree=11
num_leaves=16
num_cat=0
split_feature=1 1 1 1 1 1 1 1 1 1 1 1 1 1 1
split_gain=6.57959 3.2816 2.83269 4.16164 2.35165 1.7297 1.33876 1.25666 2.59814 1.12185 0.683397 0.697707 0.615738 0.506897 0.223114
threshold=0.024803493171930317 0.032137552276253707 0.023388916626572612 0.022567057050764564 0.018111905083060268 0.024147445335984234 0.018505447544157509 0.02284982614219189 0.023036074824631218 0.023735048249363903 0.025207695551216606 0.025649878196418289 0.027058642357587818 0.017182101495563987 0.024500116705894474
decision_type=2 2 2 2 2 2 2 2 2 2 2 2 2 2 2
left_child=2 10 3 4 13 9 -6 -5 -9 -4 -2 -12 -13 -1 -7
right_child=1 -3 5 7 6 14 -8 8 -10 -11 11 12 -14 -15 -16
leaf_value=-0.0020552971394165757 -0.016004129202762687 0.010510836062883918 0.0057605417432560072 -0.019018081720368198 0.015320482246316134 -0.0023285286310404563 0.0027564456217999784 0.0064876604979594498 -0.014258950512755149 0.019119081885178652 0 -0.011757710383453097 -0.0060771978872846688 -0.011597152846456894 0.0041838778910326157
leaf_weight=12.045576006174089 10.499263003468512 7.8333896845579138 12.652794554829599 9.1050241291522997 7.3872650712728491 8.6592551469802874 121.69371269643307 8.6516222208738345 11.378661900758742 13.485062092542647 9.626939192414282 32.76224160194397 53.588706940412521 9.8445964455604535 7.9399464130401602
leaf_count=52 46 33 54 39 32 37 520 37 49 56 42 142 232 43 34
internal_value=-0.00130137 -0.0071252 0.00169113 1.13086e-05 0.00204721 0.00853968 0.00361079 -0.0101565 -0.00527289 0.0132136 -0.0085363 -0.00753183 -0.0083767 -0.00679676 0.000676837
internal_weight=337.154 114.311 222.844 180.106 150.971 42.7371 129.081 29.1353 20.0303 26.1379 106.477 95.9779 86.3509 21.8902 16.5992
internal_count=1448 495 953 772 647 181 552 125 86 110 462 416 374 95 71
is_linear=0
shrinkage=0.03


Tree=12
num_leaves=16
num_cat=0
split_feature=0 0 0 0 0 0 0 0 0 0 0 0 0 0 0
split_gain=5.03901 3.61808 2.53695 6.99583 5.42389 5.12042 3.8102 3.36009 2.22804 1.92029 1.90417 2.27151 1.90141 1.70101 0.326229
threshold=0.021820867434144024 0.021223423071205619 0.028564246371388439 0.026489762589335445 0.030431213788688186 0.023679232224822048 0.024987604469060901 0.027368167415261272 0.021022067405283455 0.027724174782633785 0.02065963484346867 0.019065160304307941 0.02937643509358168 0.022552943788468841 0.021701107732951645
decision_type=2 2 2 2 2 2 2 2 2 2 2 2 2 2 2
left_child=1 8 3 5 12 13 -7 -5 10 -9 11 -1 -4 -2 -3
right_child=2 14 4 7 -6 6 -8 9 -10 -11 -12 -13 -14 -15 -16
leaf_value=-0.016018492967137657 -0.00027270768229787962 -0.018895440444007251 -0.0053027326161330596 0.021123890397363367 0.0086099987306492223 -0.01197456164384151 0.00087648092328895518 -0.0072168841524940415 0.011227581680236097 0.010678866898622913 -0.015163284131021748 0.0009656614529923507 -0.025299262195443078 0.007801994134103033 -0.0083763082805122391
leaf_weight=7.6829969137907019 40.937665611505508 18.913650929927829 8.9287973195314461 21.204977184534073 11.461746558547018 43.46254688501358 37.956052839756012 7.6833948045969036 7.3033128529787055 13.078184947371481 12.734520226716993 36.71710442006588 9.8271233141422254 51.759816467761993 7.3431515097618094
leaf_count=34 175 82 39 90 49 189 164 33 31 56 55 157 43 219 32
internal_value=-0.00126478 -0.00727264 0.000955821 0.00211278 -0.00702398 -0.000542955 -0.00600927 0.0129572 -0.00328098 0.00389089 -0.0053484 -0.00219529 -0.016682 0.00423912 -0.0164789
internal_weight=336.995 90.6947 246.3 216.083 30.2177 174.116 81.4186 41.9666 64.4379 20.7616 57.1346 44.4001 18.7559 92.6975 26.2568
internal_count=1448 391 1057 926 131 747 353 179 277 89 246 191 82 394 114
is_linear=0
shrinkage=0.03


Tree=13
num_leaves=16
num_cat=0
split_feature=1 1 1 1 1 1 1 1 1 1 1 1 1 1 1
split_gain=6.30559 3.07827 2.62973 3.98457 2.25768 1.79936 1.64222 1.63396 1.20711 2.44529 1.02438 0.645117 0.657958 0.575432 0.206864
threshold=0.024803493171930317 0.032137552276253707 0.023388916626572612 0.022567057050764564 0.018830244429409507 0.020837083458900455 0.024147445335984234 0.018505447544157509 0.02284982614219189 0.023036074824631218 0.023735048249363903 0.025207695551216606 0.025649878196418289 0.027058642357587818 0.024500116705894474
decision_type=2 2 2 2 2 2 2 2 2 2 2 2 2 2 2
left_child=2 11 3 4 7 -6 10 -1 -5 -10 -4 -2 -13 -14 -8
right_child=1 -3 6 8 5 -7 14 -9 9 -11 -12 12 13 -15 -16
leaf_value=-0.00066991689667683554 -0.015597164363158365 0.010110988722495138 0.005672229564664651 -0.018597016894593407 0.0083028360153818478 0.00068564365156036382 -0.0022648629061178 -0.015468288295349217 0.0062756026558934688 -0.013857665307193791 0.018478645335127088 0 -0.011439202139083855 -0.0059272744285261631 0.0040040842525121212
leaf_weight=29.233713239431381 10.442246809601782 7.855746701359748 12.658867835998537 9.0600923150777835 50.987067326903343 62.741840079426765 8.6517334580421466 7.9521436840295783 8.6663782447576541 11.325210601091383 13.533896148204802 9.6279999464750272 32.642914339900017 53.496156677603722 7.9518335610628119
leaf_count=127 46 33 54 39 218 268 37 34 37 49 56 42 142 232 34
internal_value=-0.00123239 -0.00694176 0.00169563 7.40019e-05 0.00206442 0.00416934 0.00828898 -0.0042353 -0.00989043 -0.00510377 0.0128359 -0.00831359 -0.00733543 -0.00815778 0.000623967
internal_weight=336.828 114.065 222.763 179.966 150.915 113.729 42.7963 37.1859 29.0517 19.9916 26.1928 106.209 95.7671 86.1391 16.6036
internal_count=1448 495 953 772 647 486 181 161 125 86 110 462 416 374 71
is_linear=0
shrinkage=0.03


Tree=14
num_leaves=16
num_cat=0
split_feature=0 0 0 0 0 0 0 0 0 0 0 0 0 0 0
split_gain=4.8533 3.43383 2.36844 6.63506 5.15519 4.78828 3.61775 3.12518 2.12109 1.84368 1.7943 2.1749 1.78772 1.5926 0.314612
threshold=0.021820867434144024 0.021223423071205619 0.028564246371388439 0.026489762589335445 0.030431213788688186 0.023679232224822048 0.024987604469060901 0.027368167415261272 0.021022067405283455 0.02937643509358168 0.02065963484346867 0.019065160304307941 0.027724174782633785 0.022552943788468841 0.021701107732951645
decision_type=2 2 2 2 2 2 2 2 2 2 2 2 2 2 2
left_child=1 8 3 5 9 13 -7 -5 10 -4 11 -1 -9 -2 -3
right_child=2 14 4 7 -6 6 -8 12 -10 -11 -12 -13 -14 -15 -16
leaf_value=-0.015730665683590311 -0.00024173391919625028 -0.018473816292682174 -0.0050211214175380457 0.020498907019228709 0.0084633627143239562 -0.011620735505453113 0.00091245863334591553 -0.0068688309366084005 0.010921154678631825 -0.02473058598970948 -0.014789942896584158 0.00091099010534276574 0.010406746936298649 0.00756774800309175 -0.0081397147743245968
leaf_weight=7.6515212357044211 40.919751048088074 18.815854117274288 8.8995330035686546 21.295126512646675 11.473836123943327 43.286071836948395 37.936520904302597 7.6543664187192944 7.3209128379821768 9.7438188344240171 12.678909584879873 36.730527594685555 13.104205250740049 51.838165789842606 7.3214532434940329
leaf_count=34 175 82 39 90 49 189 164 33 31 43 55 157 56 219 32
internal_value=-0.00119886 -0.00710198 0.000979747 0.00209637 -0.00674345 -0.000493634 -0.00579049 0.0126437 -0.00321432 -0.0162094 -0.00523643 -0.00217535 0.00387588 0.0041248 -0.0160962
internal_weight=336.671 90.5192 246.151 216.034 30.1172 173.981 81.2226 42.0537 64.3819 18.6434 57.061 44.382 20.7586 92.7579 26.1373
internal_count=1448 391 1057 926 131 747 353 179 277 82 246 191 89 394 114
is_linear=0
shrinkage=0.03


Tree=15
num_leaves=15
num_cat=0
split_feature=1 1 1 1 1 1 1 1 1 1 1 1 1 1
split_gain=6.72748 4.27984 3.39264 2.97616 2.61689 2.00808 2.08851 1.55784 1.47374 2.87101 1.33932 1.1329 1.44073 0.392799
threshold=0.024803493171930317 0.023542405106127266 0.023208066821098331 0.025605653412640098 0.024147445335984234 0.018222751095891002 0.020914737135171894 0.024463366717100147 0.028192925266921524 0.030876240693032745 0.01662014797329903 0.027470558881759647 0.026792945340275768 0.029366039671003822
decision_type=2 2 2 2 2 2 2 2 2 2 2 2 2 2
left_child=1 2 5 -2 -3 10 -7 -6 11 13 -1 12 -5 -10
right_child=3 4 -4 8 7 6 -8 -9 9 -11 -12 -13 -14 -15
leaf_value=0.0040478197226300481 -0.015876281085153449 0.019654402031543002 -0.014138924114328587 0.0017135008657419969 -0.0061183890458663586 0.0077621710101063402 0.00065507558475163077 0.010796363331899796 -0.018365552799153726 0.0032410248566347426 -0.010308421366783038 0.0081862031838817323 -0.010384677000020196 -0.0086323901721024211
leaf_weight=8.073216989636423 19.357196852564812 20.664120703935623 10.433152467012404 26.580707922577858 7.445904508233073 69.721680551767349 81.109693676233292 10.505000367760656 10.303181260824205 13.708245515823362 15.299992501735685 11.62788340449333 11.92901338636875 13.737476602196692
leaf_count=35 85 86 45 116 32 298 348 45 45 58 67 50 52 60
internal_value=0.000646028 0.00361699 0.00166878 -0.0054873 0.0125794 0.00270793 0.00398957 0.00366931 -0.00301248 -0.00741025 -0.00526399 0.000320124 -0.00212616 -0.0134904
internal_weight=330.496 223.253 184.638 107.244 38.615 174.205 150.831 17.9509 87.8865 37.7489 23.3732 50.1376 38.5097 24.0407
internal_count=1422 956 793 466 163 748 646 77 381 163 102 218 168 105
is_linear=0
shrinkage=0.03


Tree=16
num_leaves=9
num_cat=0
split_feature=0 0 0 0 0 0 0 0
split_gain=4.7061 3.76884 9.15168 2.03543 2.3249 0.589869 2.37331 0.0790642
threshold=0.030840350314974788 0.028564246371388439 0.02641265653073788 0.019251123070716861 0.023679232224822048 0.026963265612721447 0.027724174782633785 0.029623278416693214
decision_type=2 2 2 2 2 2 2 2
left_child=1 2 3 -1 -5 -4 -7 -3
right_child=-2 7 5 4 -6 6 -8 -9
leaf_value=-0.014264555997746413 0.022357522724350196 -0.0082031226353929641 0.020193396324897302 0.001338370063329798 -0.0047885434870405192 0.0014344321898929573 0.020078155046584056 -0.015688267805334225
leaf_weight=9.1965656727552396 7.730977699160575 9.7689021825790423 13.065235093235968 176.86501361429691 80.003930136561394 13.155537679791452 11.500374287366865 9.2051272839307767
leaf_count=41 33 43 55 757 348 56 49 40
internal_value=0.000623808 2.65133e-05 0.000862975 -0.00110569 -0.000569443 0.0144963 0.0106911 -0.0125883
internal_weight=330.492 322.761 303.787 266.066 256.869 37.7211 24.6559 18.974
internal_count=1422 1389 1306 1146 1105 160 105 83
is_linear=0
shrinkage=0.03


Tree=17
num_leaves=16
num_cat=0
split_feature=1 1 1 1 1 1 1 1 1 1 1 1 1 1 1
split_gain=6.44036 4.00611 3.65625 2.82457 1.48508 2.95584 8.5108 3.85579 1.46198 1.41804 2.72228 1.3898 1.06316 1.34689 0.35663
threshold=0.024803493171930317 0.023735048249363903 0.024147445335984234 0.025605653412640098 0.018111905083060268 0.020914737135171894 0.020536287687718872 0.021418143063783649 0.024463366717100147 0.028192925266921524 0.030876240693032745 0.01662014797329903 0.027470558881759647 0.026792945340275768 0.029366039671003822
decision_type=2 2 2 2 2 2 2 2 2 2 2 2 2 2 2
left_child=1 4 -3 -2 11 6 -6 -7 -4 12 14 -1 13 -5 -11
right_child=3 2 8 9 5 7 -8 -9 -10 10 -12 -13 -14 -15 -16
leaf_value=0.0040165190715506088 -0.015546514931534024 0.023948758811558082 -0.0059551023150355639 0.0016104901932667037 0.0022914356455764019 -0.012605592342702024 0.028636241502554172 0.0022858182215407378 0.010424936467364415 -0.017958390987594015 0.00305010525137426 -0.010852542021050701 0.0078896680421394055 -0.010096212248264333 -0.0085385882602288816
leaf_weight=8.0740759819746035 19.274379014968872 14.338020175695418 7.4327304363250759 26.602844506502151 58.412063598632812 18.401620969176292 12.766498565673826 79.520295113325119 10.535454869270323 10.246077656745912 13.725382983684538 13.904457062482832 11.655624836683272 11.886997461318968 13.718680456280707
leaf_count=35 85 59 32 116 250 79 54 341 45 45 58 61 50 52 60
internal_value=0.000606882 0.0035114 0.0131316 -0.00539938 0.00180936 0.0027798 0.00738945 -0.00058141 0.00353427 -0.00298902 -0.0073074 -0.00532258 0.000277501 -0.00209309 -0.0132442
internal_weight=330.495 223.385 32.3062 107.11 191.079 169.1 71.1786 97.9219 17.9682 87.8356 37.6901 21.9785 50.1455 38.4898 23.9648
internal_count=1422 956 136 466 820 724 304 420 77 381 163 96 218 168 105
is_linear=0
shrinkage=0.03


Tree=18
num_leaves=17
num_cat=0
split_feature=0 0 0 0 0 0 0 0 0 0 0 0 0 0 0 0
split_gain=4.58309 3.41426 7.85364 2.68139 2.44518 1.46777 1.37051 4.78188 1.27412 0.745957 1.50214 0.533729 2.21909 0.453111 0.0948359 0.0835511
threshold=0.025952019728720192 0.028564246371388439 0.030840350314974788 0.02377356588840485 0.019251123070716861 0.025184150785207752 0.019759926013648513 0.020075400359928611 0.02641265653073788 0.023950977250933651 0.024628974497318271 0.026963265612721447 0.027724174782633785 0.025636209174990657 0.026177758350968364 0.029623278416693214
decision_type=2 2 2 2 2 2 2 2 2 2 2 2 2 2 2 2
left_child=3 8 15 4 -1 9 -6 -8 14 -5 -11 -10 -13 -7 -2 -3
right_child=1 2 -4 5 6 13 7 -9 11 10 -12 12 -14 -15 -16 -17
leaf_value=-0.013946694504046108 0.0056365434721685637 -0.0079266744930258943 0.021793695711424695 -0.018503885264275464 0.011876846648810231 0.0040616846516369565 -0.019146290054042087 0.0017922015816533351 0.019531219284517537 -0.0014470125325551661 -0.013898834660263187 0.0014480705359764786 0.019476715546946879 -0.0050357914065485357 0.00049931667222644484 -0.015356995549959444
leaf_weight=9.1553550660610181 7.1880711466073981 9.7335350960493141 7.7637678384780875 7.2705445885658255 9.1900609284639341 10.905415013432505 9.4390348196029645 161.75001406669617 13.120981365442274 19.280694901943207 16.344352513551712 13.150442808866503 11.547942474484442 7.3577982187271109 8.0950740575790388 9.1669562309980375
leaf_count=41 31 43 33 32 39 47 41 692 55 84 72 56 49 32 35 40
internal_value=0.000588847 0.00681168 -0.00181535 -0.00139844 0.000357963 -0.00680808 0.00117344 0.000515782 0.0111525 -0.00978344 -0.00746518 0.0140828 0.0104241 0.000169645 0.0032975 -0.0122718
internal_weight=330.46 79.7668 26.6643 250.693 189.534 61.1588 180.379 171.189 53.1025 42.8956 35.625 37.8194 24.6984 18.2632 15.2831 18.9005
internal_count=1422 342 116 1080 813 267 772 733 226 188 156 160 105 79 66 83
is_linear=0
shrinkage=0.03


Tree=19
num_leaves=15
num_cat=0
split_feature=1 1 1 1 1 1 1 1 1 1 1 1 1 1
split_gain=6.17994 3.74954 3.23297 2.67638 2.29871 1.7549 1.86018 1.37153 1.36888 2.57478 1.21214 0.994481 1.26225 0.323545
threshold=0.024803493171930317 0.023542405106127266 0.023208066821098331 0.025605653412640098 0.024147445335984234 0.018222751095891002 0.020914737135171894 0.024463366717100147 0.028192925266921524 0.030876240693032745 0.01662014797329903 0.027470558881759647 0.026792945340275768 0.029366039671003822
decision_type=2 2 2 2 2 2 2 2 2 2 2 2 2 2
left_child=1 2 5 -2 -3 10 -7 -6 11 13 -1 12 -5 -10
right_child=3 4 -4 8 7 6 -8 -9 9 -11 -12 -13 -14 -15
leaf_value=0.0039570065490099754 -0.015222455301991265 0.018385549915508045 -0.013868980199200832 0.0015182794226147843 -0.0057810211608574739 0.007346730427959804 0.00064119949383812508 0.010080295660825215 -0.017569639268676326 0.0028395105174953998 -0.0097036633154536072 0.0075895809881037449 -0.0098235472984372612 -0.008448353914845547
leaf_weight=8.0763974487781542 19.190130189061165 20.802757412195206 10.399476841092108 26.619884058833122 7.4180008769035366 69.927462443709373 81.099488765001297 10.562309205532072 10.189826756715776 13.743682876229284 15.188095942139624 11.682603940367697 11.84596239030361 13.699232801795004
leaf_count=35 85 86 45 116 32 298 348 45 45 58 67 50 52 60
internal_value=0.000570035 0.00341332 0.00158575 -0.0053187 0.0117825 0.00259886 0.00379358 0.00341864 -0.00297274 -0.0072198 -0.00487002 0.000234561 -0.00205895 -0.0130092
internal_weight=330.445 223.474 184.691 106.971 38.7831 174.291 151.027 17.9803 87.7812 37.6327 23.2645 50.1485 38.4658 23.8891
internal_count=1422 956 793 466 163 748 646 77 381 163 102 218 168 105
is_linear=0
shrinkage=0.03


Tree=20
num_leaves=11
num_cat=0
split_feature=0 0 0 0 0 0 0 0 0 0
split_gain=4.2107 2.70778 1.76434 4.00452 3.75984 3.73731 3.54513 3.38307 0.949482 2.30988
threshold=0.020075400359928611 0.020497207529842857 0.02190676145255566 0.023209403268992904 0.021418043412268165 0.021060446277260784 0.02531618066132069 0.023017230443656448 0.019809902645647529 0.019065160304307941
decision_type=2 2 2 2 2 2 2 2 2 2
left_child=8 -2 4 7 5 -3 -5 -4 9 -1
right_child=1 2 3 6 -6 -7 -8 -9 -10 -11
leaf_value=-0.018910513091277673 0.01288244135511684 -0.0072559020788129881 0.0038448796970282639 -0.007166904518238054 -0.015307020138937279 0.011077332201175454 0.0016742918897667532 0.023693164143399292 -0.021445609618674165 0.00012171579294327046
leaf_weight=8.8825077414512688 12.812798574566839 23.417181357741356 58.523500859737396 69.025952577590942 20.619309648871422 15.946627900004385 96.272070333361626 8.1594408899545652 6.8864009827375403 12.924402967095373
leaf_count=40 54 101 248 301 90 68 414 34 30 55
internal_value=-0.00114772 -8.68625e-05 -0.000708289 0.000471581 -0.00525346 0.000187166 -0.00202051 0.00663205 -0.0119326 -0.0079883
internal_weight=333.47 304.777 291.964 231.981 59.9831 39.3638 165.298 66.6829 28.6933 21.8069
internal_count=1435 1310 1256 997 259 169 715 282 125 95
is_linear=0
shrinkage=0.03


Tree=21
num_leaves=15
num_cat=0
split_feature=1 1 1 1 1 1 1 1 1 1 1 1 1 1
split_gain=4.88962 3.56498 4.50393 5.67917 2.15296 5.00865 2.1038 1.59267 1.11015 1.12274 0.745808 0.672885 0.659099 0.570766
threshold=0.018222751095891002 0.021873558871448043 0.020513611845672134 0.020914737135171894 0.023388916626572612 0.024147445335984234 0.021669090725481514 0.019559727981686596 0.023036074824631218 0.022096715867519382 0.019066392444074157 0.031483506783843047 0.01750897336751223 0.019889364950358871
decision_type=2 2 2 2 2 2 2 2 2 2 2 2 2 2
left_child=12 2 7 -4 8 -6 -5 10 9 -3 -2 -7 -1 -9
right_child=1 4 3 6 5 11 -8 13 -10 -11 -12 -13 -14 -15
leaf_value=-0.0093040277647423279 -8.403250785185177e-05 -0.014093122129245666 0.024462854516307659 -0.00063271558051825137 0.010982811301387268 -0.0038188497923379245 0.015949980865326483 -0.011893218983510289 -0.015822449388920943 -0.0021119294460333416 0.01003374614481815 0.0037252790540838231 -0.021957328880615495 -0.0028128616672240762
leaf_weight=14.696550682187082 17.018352806568149 8.5901895016431791 16.673414349555969 27.329375624656677 26.447597488760948 115.6959258466959 8.040295869112013 10.313144147396089 11.252649158239363 31.672910496592522 9.0998485535383207 10.517409116029738 7.3931013941764823 18.563339576125145
leaf_count=64 73 37 70 117 110 506 34 44 49 136 39 44 33 79
internal_value=-0.00111511 -0.000116765 0.00428421 0.0105313 -0.00244819 -0.000620111 0.00338931 -0.00165647 -0.00769342 -0.00502043 0.00357049 -0.00314227 -0.0144364 -0.00644583
internal_weight=333.304 311.214 107.038 52.0431 204.177 152.661 35.3697 54.9947 51.5157 40.2631 26.1182 126.213 22.0897 28.8765
internal_count=1435 1338 456 221 882 660 151 235 222 173 112 550 97 123
is_linear=0
shrinkage=0.03


Tree=22
num_leaves=9
num_cat=0
split_feature=0 0 0 0 0 0 0 0
split_gain=3.9593 2.55665 1.69663 2.26531 3.2058 0.921752 2.19002 0.645523
threshold=0.020075400359928611 0.020497207529842857 0.031081221997737888 0.029222511686384681 0.02641265653073788 0.019809902645647529 0.019065160304307941 0.030260453931987289
decision_type=2 2 2 2 2 2 2 2
left_child=5 -2 3 4 -3 6 -1 -5
right_child=1 2 -4 7 -6 -7 -8 -9
leaf_value=-0.018382121938628811 0.012530444271436096 -0.0018370582162732325 0.012881851436814216 -0.016755079344797408 0.0069279624077744619 -0.02095631081848514 0.00018495145744761214 -0.0035130480188989301
leaf_weight=8.8066507279872948 12.84177392721176 224.72421549260616 7.066136121749877 8.980263411998747 44.011352673172951 6.8381276130676261 12.914480105042456 6.9525233954191199
leaf_count=40 54 969 30 40 187 30 55 30
internal_value=-0.00108516 -5.77235e-05 -0.000662998 -0.00105363 -0.000370109 -0.0115683 -0.00768859 -0.0117026
internal_weight=333.136 304.576 291.734 284.668 268.736 28.5593 21.7211 15.9328
internal_count=1435 1310 1256 1226 1156 125 95 70
is_linear=0
shrinkage=0.03


Tree=23
num_leaves=14
num_cat=0
split_feature=1 1 1 1 1 1 1 1 1 1 1 1 1
split_gain=4.60774 3.42179 4.22618 5.29809 2.01471 4.74343 1.97818 1.57329 1.06611 1.07377 0.66151 0.638161 0.585604
threshold=0.018222751095891002 0.021873558871448043 0.020513611845672134 0.020914737135171894 0.023388916626572612 0.024147445335984234 0.021669090725481514 0.018644536845386032 0.023036074824631218 0.022096715867519382 0.024803493171930317 0.01750897336751223 0.019559727981686596
decision_type=2 2 2 2 2 2 2 2 2 2 2 2 2
left_child=11 2 7 -4 8 -6 -5 -2 9 -3 -7 -1 -9
right_child=1 4 3 6 5 10 -8 12 -10 -11 -12 -13 -14
leaf_value=-0.0089847686068610672 0.01077770925617101 -0.013728319947166036 0.023681738908126984 -0.00055559324596345593 0.010672591337329462 0.0021823443690255702 0.01550552439029986 0.00035713594195588489 -0.015439703510300126 -0.0019954315968931688 -0.0039370305636525988 -0.021439223487970331 -0.0062077308271194813
leaf_weight=14.639417201280596 6.9564748406410208 8.5539876669645292 16.754517674446106 27.307638794183731 26.492900520563126 17.26225183904171 8.0668400526046735 19.16289159655571 11.198899298906325 31.635712742805481 108.8299497961998 7.3297586143016806 28.810193061828613
leaf_count=64 30 37 70 117 110 74 34 82 49 136 476 33 123
internal_value=-0.00105581 -8.82682e-05 0.00422194 0.010264 -0.00237474 -0.000606366 0.00335011 -0.00153944 -0.00745639 -0.00483816 -0.00306509 -0.0140231 -0.00357038
internal_weight=333.001 311.032 107.059 52.129 203.974 152.585 35.3745 54.9296 51.3886 40.1897 126.092 21.9692 47.9731
internal_count=1435 1338 456 221 882 660 151 235 222 173 550 97 205
is_linear=0
shrinkage=0.03


Tree=24
num_leaves=11
num_cat=0
split_feature=0 0 0 0 0 0 0 0 0 0
split_gain=3.72595 2.40588 1.66909 3.78332 3.56595 3.56576 3.25994 3.16134 0.899643 2.07945
threshold=0.020075400359928611 0.020497207529842857 0.02190676145255566 0.023209403268992904 0.021418043412268165 0.021060446277260784 0.02531618066132069 0.023017230443656448 0.019809902645647529 0.019065160304307941
decision_type=2 2 2 2 2 2 2 2 2 2
left_child=8 -2 4 7 5 -3 -5 -4 9 -1
right_child=1 2 3 6 -6 -7 -8 -9 -10 -11
leaf_value=-0.017872598037344777 0.012167370704946704 -0.0070447650863293947 0.0038102086361529505 -0.0068463388817693567 -0.014874687351992356 0.01086483833779993 0.0016408217786107932 0.022979432087900525 -0.020505624559949687 0.00025405167840820639
leaf_weight=8.7317773997783714 12.870343059301375 23.353117004036903 58.506160467863083 68.765689432621002 20.497433140873909 15.967714697122572 96.24917870759964 8.190741226077078 6.7915273606777182 12.903551295399664
leaf_count=40 54 101 248 301 90 68 414 34 30 55
internal_value=-0.00102605 -3.06306e-05 -0.000619151 0.00052794 -0.00504747 0.00024279 -0.00189785 0.00651328 -0.01122 -0.00739552
internal_weight=332.827 304.4 291.53 231.712 59.8183 39.3208 165.015 66.6969 28.4269 21.6353
internal_count=1435 1310 1256 997 259 169 715 282 125 95
is_linear=0
shrinkage=0.03


Tree=25
num_leaves=17
num_cat=0
split_feature=1 1 1 1 1 1 1 1 1 1 1 1 1 1 1 1
split_gain=5.15336 2.93254 1.70504 5.01293 2.28515 8.48225 2.12137 2.07048 1.39983 1.60527 1.2404 2.17596 1.23808 1.10426 0.961069 0.190864
threshold=0.024803493171930317 0.031154061667621139 0.023339941166341308 0.022567057050764564 0.020513611845672134 0.020914737135171894 0.023824537172913555 0.024396004155278209 0.025790661573410038 0.026249237358570102 0.022883548401296142 0.023036074824631218 0.018505447544157509 0.026488112285733226 0.025125089101493362 0.024112145416438583
decision_type=2 2 2 2 2 2 2 2 2 2 2 2 2 2 2 2
left_child=2 8 3 4 12 -6 -4 15 14 -10 -5 -12 -1 -11 -2 -8
right_child=1 -3 6 10 5 -7 7 -9 9 13 11 -13 -14 -15 -16 -17
leaf_value=0.0058176299546389811 -0.0028918069158132124 0.0096930849215360378 0.017890980300894331 -0.01702271681841256 0.027684538555780215 0.00330045711050012 -0.0056191383197308235 0.012256779607979228 0.0069861028988105782 -0.015515214107514714 0.0082734299967742835 -0.011731876695871273 -0.0018620473415601644 -0.0035292465395264281 -0.01618853878182111 0.00037181676153123214
leaf_weight=29.712455809116364 8.6649076938629168 11.916943222284315 15.676763817667959 9.6698880344629305 15.374771296977995 63.037467241287231 9.0599878430366569 14.090088337659834 10.483446881175039 7.3265364766120902 7.2538354098796871 10.888312458992003 47.479626104235649 58.670596912503242 14.996630936861036 7.2588975727558127
leaf_count=131 39 50 66 42 64 270 37 60 46 32 31 48 203 257 67 31
internal_value=0.00148548 -0.00375257 0.00406126 0.00271271 0.00482798 0.00840778 0.00919306 0.00418664 -0.00546228 -0.00334995 -0.00877464 -0.00356202 0.00109221 -0.00511634 -0.0117556 -0.00291345
internal_weight=341.561 112.059 229.502 183.416 155.604 78.4122 46.0857 30.409 100.142 76.4806 27.812 18.1421 77.1921 65.9971 23.6615 16.3189
internal_count=1474 491 983 789 668 334 194 128 441 335 121 79 334 289 106 68
is_linear=0
shrinkage=0.03


Tree=26
num_leaves=14
num_cat=0
split_feature=0 0 0 0 0 0 0 0 0 0 0 0 0
split_gain=5.74774 4.4407 9.28494 4.16061 4.30183 3.52589 3.09373 2.58432 1.7831 1.01313 1.82888 0.816821 1.35485
threshold=0.019251123070716861 0.026177758350968364 0.028060421347618106 0.02377356588840485 0.022388778626918796 0.022859223186969761 0.019759926013648513 0.030840350314974788 0.029222511686384681 0.023929570801556114 0.024628974497318271 0.02641265653073788 0.027320667169988159
decision_type=2 2 2 2 2 2 2 2 2 2 2 2 2
left_child=-1 3 11 4 6 -6 -2 8 -4 -5 -11 -3 -13
right_child=1 2 7 9 5 -7 -8 -9 -10 10 -12 12 -14
leaf_value=-0.021224969208814268 0.016067512028316723 0.0070925922912757561 0.0015621872998061402 -0.01638499798826271 0.017505700230228009 0.0031835670103028467 -0.0021562062667542094 0.012576489336495888 -0.01297878996254573 0.0023747166843171132 -0.0082181512407602832 0.025615222840984709 0.010746831208368692
leaf_weight=8.7657888233661634 8.0301502197980863 6.9583444297313681 12.871968179941179 6.9011651873588553 24.284453302621841 43.092578306794167 113.72404749691486 7.0799043774604788 15.8290958404541 21.39873468875885 41.016046181321144 19.856899127364162 11.801750332117079
leaf_count=40 34 30 56 31 102 183 491 30 70 94 180 83 50
internal_value=0.00144192 0.00210965 0.00851673 0.000227996 0.00254412 0.00857004 -0.000808744 -0.00242337 -0.00652336 -0.00599529 -0.00455893 0.0185344 0.0206632
internal_weight=341.611 332.845 74.398 258.447 189.131 67.377 121.754 35.781 28.7011 69.3159 62.4148 38.617 31.6586
internal_count=1474 1434 319 1115 810 285 525 156 126 305 274 163 133
is_linear=0
shrinkage=0.03


Tree=27
num_leaves=17
num_cat=0
split_feature=1 1 1 1 1 1 1 1 1 1 1 1 1 1 1 1
split_gain=4.90795 2.7446 1.57677 4.76141 2.10245 7.9814 1.99648 1.94283 1.31214 1.54211 1.19373 2.05315 1.17982 1.04376 0.906638 0.175555
threshold=0.024803493171930317 0.031154061667621139 0.023339941166341308 0.022567057050764564 0.020513611845672134 0.020837083458900455 0.023824537172913555 0.024396004155278209 0.025790661573410038 0.026249237358570102 0.022883548401296142 0.023036074824631218 0.018505447544157509 0.026488112285733226 0.025125089101493362 0.024112145416438583
decision_type=2 2 2 2 2 2 2 2 2 2 2 2 2 2 2 2
left_child=2 8 3 4 12 -6 -4 15 14 -10 -5 -12 -1 -11 -2 -8
right_child=1 -3 6 10 5 -7 7 -9 9 13 11 -13 -14 -15 -16 -17
leaf_value=0.0056956933656541996 -0.0028544675006341807 0.0092747969439579674 0.017262451316759072 -0.01670557028216858 0.029818470115327497 0.0038208695754915188 -0.0054834748926584657 0.011789245206718505 0.0067962112699166775 -0.015198832568542502 0.007988898105844907 -0.011442756058258962 -0.0017996273806376235 -0.0035124317477417768 -0.015807795381016503 0.00024885126877140462
leaf_weight=29.736865788698196 8.6584881991148013 11.947109311819075 15.73722033202648 9.6294550001621264 11.842256382107733 66.712789997458458 9.0508211404085213 14.136293038725851 10.499796360731123 7.2934100329875937 7.2706662416458157 10.847217306494711 47.441517680883408 58.633456468582153 14.913411125540732 7.2628207951784125
leaf_count=131 39 50 66 42 49 285 37 60 46 32 31 48 203 257 67 31
internal_value=0.00140217 -0.00371327 0.00391385 0.00261538 0.00467385 0.0081033 0.0088438 0.00398692 -0.00537116 -0.00332384 -0.00859427 -0.00347796 0.00108586 -0.00505789 -0.0114816 -0.0028912
internal_weight=341.614 111.946 229.668 183.481 155.733 78.555 46.1872 30.4499 99.9986 76.4267 27.7473 18.1179 77.1784 65.9269 23.5719 16.3136
internal_count=1474 491 983 789 668 334 194 128 441 335 121 79 334 289 106 68
is_linear=0
shrinkage=0.03


Tree=28
num_leaves=14
num_cat=0
split_feature=0 0 0 0 0 0 0 0 0 0 0 0 0
split_gain=5.48457 4.21682 8.68278 3.87793 4.04321 3.30662 2.9186 2.46185 1.70266 1.00612 2.21618 0.760805 1.25785
threshold=0.019251123070716861 0.026177758350968364 0.028060421347618106 0.02377356588840485 0.022388778626918796 0.022859223186969761 0.019759926013648513 0.030840350314974788 0.029222511686384681 0.024039779789745811 0.024628974497318271 0.02641265653073788 0.027320667169988159
decision_type=2 2 2 2 2 2 2 2 2 2 2 2 2
left_child=-1 3 11 4 6 -6 -2 8 -4 -5 -11 -3 -13
right_child=1 2 7 9 5 -7 -8 -9 -10 10 -12 12 -14
leaf_value=-0.020846791119125789 0.015518655613933188 0.0068497088317990701 0.0015298706351272728 -0.01432148896426149 0.016879152317508771 0.0030270895051962413 -0.0021519771602090949 0.01227082431555665 -0.012686372400348381 0.0043196064991564776 -0.0079667731686639456 0.024722012242668793 0.010389945178046299
leaf_weight=8.7088683694601041 8.0618088096380216 6.9720476716756812 12.872686594724657 10.092954039573668 24.376024946570396 43.135560423135757 113.68955685198307 7.0955190211534491 15.768008917570112 18.190606564283371 40.893882662057877 19.957945644855503 11.829140856862066
leaf_count=40 34 30 56 45 102 183 491 30 70 80 180 83 50
internal_value=0.0013614 0.00201199 0.00825031 0.000177363 0.00241112 0.00824573 -0.000840579 -0.00234545 -0.00635956 -0.0058385 -0.00412524 0.0179084 0.0199596
internal_weight=341.645 332.936 74.4953 258.44 189.263 67.5116 121.751 35.7362 28.6407 69.1774 59.0845 38.7591 31.7871
internal_count=1474 1434 319 1115 810 285 525 156 126 305 260 163 133
is_linear=0
shrinkage=0.03


Tree=29
num_leaves=17
num_cat=0
split_feature=1 1 1 1 1 1 1 1 1 1 1 1 1 1 1 1
split_gain=4.67869 2.57238 1.45907 4.52299 1.93643 7.53283 1.87575 1.81786 1.23068 1.48558 1.14947 1.94079 1.12552 0.987191 0.853687 0.162255
threshold=0.024803493171930317 0.031154061667621139 0.023339941166341308 0.022567057050764564 0.020513611845672134 0.020914737135171894 0.023824537172913555 0.024396004155278209 0.025790661573410038 0.026249237358570102 0.022883548401296142 0.023036074824631218 0.018505447544157509 0.026488112285733226 0.025125089101493362 0.024112145416438583
decision_type=2 2 2 2 2 2 2 2 2 2 2 2 2 2 2 2
left_child=2 8 3 4 12 -6 -4 15 14 -10 -5 -12 -1 -11 -2 -8
right_child=1 -3 6 10 5 -7 7 -9 9 13 11 -13 -14 -15 -16 -17
leaf_value=0.0055795353631707826 -0.0028258792557082609 0.0088831085051464549 0.016656384951169584 -0.016394262418787497 0.025886796754994959 0.0029932692571975972 -0.0053409733793965391 0.011337367574419815 0.0066263899641454665 -0.014894637958936465 0.0077293517155280177 -0.011163543810065015 -0.0017400277944048745 -0.0034964354036042598 -0.015435943299861001 0.0001575715408452642
leaf_weight=29.758386746048927 8.6528739631176013 11.973429054021834 15.792780593037604 9.5887370705604571 15.521705925464628 63.161381438374519 9.0408151745796257 14.179199531674383 10.513346850872038 7.2606347203254691 7.2853458970785168 10.806849524378775 47.403224587440491 58.593959525227547 14.830434486269949 7.2637387216091147
leaf_count=131 39 50 66 42 64 270 37 60 46 32 31 48 203 257 67 31
internal_value=0.00132432 -0.00367388 0.0037749 0.0025242 0.00452767 0.00781529 0.00851318 0.00380408 -0.00528252 -0.00329741 -0.00841536 -0.00339227 0.00107974 -0.00500198 -0.0112173 -0.00285044
internal_weight=341.627 111.825 229.802 183.526 155.845 78.6831 46.2765 30.4838 99.8512 76.3679 27.6809 18.0922 77.1616 65.8546 23.4833 16.3046
internal_count=1474 491 983 789 668 334 194 128 441 335 121 79 334 289 106 68
is_linear=0
shrinkage=0.03


Tree=30
num_leaves=6
num_cat=0
split_feature=0 0 0 0 0
split_gain=2.08284 2.26563 1.97334 4.84978 3.71935
threshold=0.019251123070716861 0.019608323462307457 0.030840350314974788 0.029222511686384681 0.026489762589335445
decision_type=2 2 2 2 2
left_child=-1 -2 3 4 -3
right_child=1 2 -4 -5 -6
leaf_value=-0.013113875677021294 0.016428375787397913 -0.00079329074644598357 0.013815970707123976 -0.016314039100711684 0.0082999807877481759
leaf_weight=9.2860999107360822 6.9385300129652014 253.33574382960796 8.3003620952367765 14.976599320769308 47.08679436147213
leaf_count=43 29 1094 35 67 199
internal_value=0.000169347 0.000589875 0.000191586 -0.000200018 0.0006448
internal_weight=339.924 330.638 323.699 315.399 300.423
internal_count=1467 1424 1395 1360 1293
is_linear=0
shrinkage=0.03


Tree=31
num_leaves=13
num_cat=0
split_feature=1 1 1 1 1 1 1 1 1 1 1 1
split_gain=1.45595 6.98214 4.24967 2.89868 2.53081 2.26765 4.21985 1.77758 1.53075 1.21982 0.925677 0.672864
threshold=0.024147445335984234 0.023735048249363903 0.023208066821098331 0.019939567893743518 0.021946758031845096 0.024566448293626312 0.024803493171930317 0.025605653412640098 0.019506936892867092 0.026726175099611286 0.023442307487130169 0.025125089101493362
decision_type=2 2 2 2 2 2 2 2 2 2 2 2
left_child=1 2 3 8 -5 -2 -7 11 -1 -9 -4 -8
right_child=5 -3 10 4 -6 6 7 9 -10 -11 -12 -13
leaf_value=-0.0008564682525191693 -0.014248400169672814 0.022397056261651244 -0.021820768123288946 0.008139943316320588 -0.00081064200326044983 0.019951137932091405 -0.0032908886808242555 0.0045793840877389703 -0.011924571532426615 -0.002896659199536954 -0.0060821208848271888 -0.015849484580179103
leaf_weight=51.243323862552643 11.925741538405417 12.746097326278685 7.0449486821889868 67.991746544837952 47.1142737865448 7.0799886584281913 8.0125135034322756 26.356962963938713 13.747139051556585 67.770168751478195 8.9081721454858762 9.9395715147256833
leaf_count=223 51 52 31 288 204 30 36 116 59 295 37 45
internal_value=0.00016461 0.00172573 0.00025972 0.00161785 0.00447509 -0.00229351 -0.000963442 -0.00247589 -0.00338834 -0.000745589 -0.0140865 -0.0108719
internal_weight=339.881 208.796 196.05 180.096 115.106 131.085 119.159 112.079 64.9905 94.1271 15.9531 17.9521
internal_count=1467 894 842 774 492 573 522 492 282 411 68 81
is_linear=0
shrinkage=0.03


Tree=32
num_leaves=6
num_cat=0
split_feature=0 0 0 0 0
split_gain=1.96867 2.12135 1.87425 4.59411 3.5402
threshold=0.019251123070716861 0.019608323462307457 0.030840350314974788 0.029222511686384681 0.026489762589335445
decision_type=2 2 2 2 2
left_child=-1 -2 3 4 -3
right_child=1 2 -4 -5 -6
leaf_value=-0.012789669832979546 0.01586509011056346 -0.00078814589246590312 0.013438879084798711 -0.015930697942179061 0.0080785346235632965
leaf_weight=9.2372501492500287 6.9636898487806311 253.25999468564987 8.3237033337354642 14.893640697002409 47.151975333690643
leaf_count=43 29 1094 35 67 199
internal_value=0.000155856 0.000564099 0.000177762 -0.000204212 0.00061578
internal_weight=339.83 330.593 323.629 315.306 300.412
internal_count=1467 1424 1395 1360 1293
is_linear=0
shrinkage=0.03


Tree=33
num_leaves=13
num_cat=0
split_feature=1 1 1 1 1 1 1 1 1 1 1 1
split_gain=1.40695 6.5747 4.04773 2.7113 2.37527 2.13969 4.01166 1.68463 1.45542 1.15417 0.881261 0.636876
threshold=0.024147445335984234 0.023735048249363903 0.023208066821098331 0.019939567893743518 0.021946758031845096 0.024566448293626312 0.024803493171930317 0.025605653412640098 0.019506936892867092 0.026726175099611286 0.023442307487130169 0.025125089101493362
decision_type=2 2 2 2 2 2 2 2 2 2 2 2
left_child=1 2 3 8 -5 -2 -7 11 -1 -9 -4 -8
right_child=5 -3 10 4 -6 6 7 9 -10 -11 -12 -13
leaf_value=-0.00079328245919789583 -0.013901665761212847 0.02171965622521772 -0.021349654086797728 0.0078907607646954165 -0.00077697788149760645 0.019376844342288268 -0.003246540387804568 0.004404734776470679 -0.011600108750364895 -0.0028630962083427956 -0.0059455713615791409 -0.015506935101219012
leaf_weight=51.20222495496273 11.881233826279638 12.779149651527403 6.9963389784097663 68.105602011084557 47.093929946422577 7.1094951182603827 8.0071109384298342 26.39720693230629 13.699086382985113 67.725587800145149 8.8979569524526578 9.8869754076004011
leaf_count=223 51 52 31 288 204 30 36 116 59 295 37 45
internal_value=0.000151492 0.00168617 0.000261111 0.00158478 0.00434535 -0.0022657 -0.000974138 -0.00245234 -0.00326127 -0.000768381 -0.0137661 -0.0106417
internal_weight=339.782 208.774 195.995 180.101 115.2 131.008 119.126 112.017 64.9013 94.1228 15.8943 17.8941
internal_count=1467 894 842 774 492 573 522 492 282 411 68 81
is_linear=0
shrinkage=0.03


Tree=34
num_leaves=6
num_cat=0
split_feature=0 0 0 0 0
split_gain=1.86108 1.98658 1.78063 4.35207 3.3706
threshold=0.019251123070716861 0.019608323462307457 0.030840350314974788 0.029222511686384681 0.026489762589335445
decision_type=2 2 2 2 2
left_child=-1 -2 3 4 -3
right_child=1 2 -4 -5 -6
leaf_value=-0.01247403656426666 0.015324636216887393 -0.00078264181795774899 0.013075092465889723 -0.015556484227312945 0.0078646540360828715
leaf_weight=9.1890995949506742 6.9866630285978308 253.17597556114197 8.3457051664590818 14.810783460736273 47.212769329547882
leaf_count=43 29 1094 35 67 199
internal_value=0.000143159 0.000539545 0.000164796 -0.000207819 0.000588104
internal_weight=339.721 330.532 323.545 315.2 300.389
internal_count=1467 1424 1395 1360 1293
is_linear=0
shrinkage=0.03


Tree=35
num_leaves=21
num_cat=0
split_feature=1 1 1 1 1 1 1 1 1 1 1 1 1 1 1 1 1 1 1 1
split_gain=3.79389 3.8285 1.41132 4.13879 3.30037 1.36546 2.13003 1.3036 1.82812 1.08108 1.8192 1.4651 0.885937 0.872493 1.88132 0.822113 0.596522 0.467599 0.384064 0.106685
threshold=0.022218063473701481 0.019939567893743518 0.02330156043171883 0.024147445335984234 0.023735048249363903 0.023036074824631218 0.02284982614219189 0.027804111130535606 0.026726175099611286 0.020914737135171894 0.020673383027315143 0.021186933852732185 0.028278065845370296 0.019402863457798961 0.018222751095891002 0.022006575018167499 0.022619396448135379 0.017182101495563987 0.018830244429409507 0.020409318618476394
decision_type=2 2 2 2 2 2 2 2 2 2 2 2 2 2 2 2 2 2 2 2
left_child=1 13 5 4 -4 6 16 8 -5 10 19 -11 -9 14 17 -13 -2 -1 -16 -3
right_child=2 9 3 7 -6 -7 -8 12 -10 11 -12 15 -14 -15 18 -17 -18 -19 -20 -21
leaf_value=-0.00056543614815403938 -0.00426306452348454 0.0086885277008409128 -0.00068343023354845516 -0.0029705614652434189 0.019581423744669594 -0.017142236975954201 0.0086683846712459003 0.0080564911740466198 -0.013487374411013341 -0.0047244704160674016 0.023065161190304072 0.0052323113546989854 -0.001598498702677088 -0.0073494653663407636 0.0021581880113720488 0.016181460528708502 -0.01534764643838336 -0.0088301258838441189 0.010118816644600077 0.0027360762311979506
leaf_weight=13.013731226325037 13.813211783766752 12.411189064383512 14.195598393678667 61.327265441417694 13.06252698600292 9.1666670441627485 7.7058920413255683 9.9939848780632001 19.574295610189438 9.2828327864408475 10.000500574707983 30.389786064624786 36.889596432447433 15.245791792869566 12.523271545767786 8.1353325098752958 7.4484317153692237 12.659228041768072 12.140338167548178 7.1974450498819342
leaf_count=57 59 53 60 270 53 41 33 43 86 40 41 129 161 66 54 35 33 57 52 30
internal_value=0.00030577 0.00400265 -0.00242191 -0.00110645 0.00927093 -0.00752862 -0.00391581 -0.00339817 -0.00568536 0.00848238 0.0130249 0.00539837 0.000522235 -0.00128839 0.000596336 0.00797124 -0.00879599 -0.00493146 0.0064352 0.006888
internal_weight=336.177 142.999 193.177 155.043 27.2581 38.1342 28.9675 127.785 80.9016 77.4171 29.6091 47.808 46.8836 65.5824 50.3366 38.5251 21.2616 25.673 24.6636 19.6086
internal_count=1453 614 839 673 113 166 125 560 356 328 124 204 204 286 220 164 92 114 106 83
is_linear=0
shrinkage=0.03


Tree=36
num_leaves=21
num_cat=0
split_feature=0 0 0 0 0 0 0 0 0 0 0 0 0 0 0 0 0 0 0 0
split_gain=2.75611 2.28482 5.78 3.68586 2.72937 1.93335 3.55725 1.87447 1.55906 1.35344 1.43442 1.26141 1.66813 1.26864 1.16418 0.913094 0.730844 0.613523 0.278735 1.01735
threshold=0.020595735870301727 0.023679232224822048 0.025952019728720192 0.028743912465870384 0.030840350314974788 0.022227877750992778 0.021418043412268165 0.019809902645647529 0.021719891577959064 0.02262829709798098 0.022926484234631065 0.024426761083304886 0.024853955954313282 0.023929570801556114 0.022462281398475174 0.026489762589335445 0.019065160304307941 0.020985051058232788 0.020075400359928611 0.020457257516682151
decision_type=2 2 2 2 2 2 2 2 2 2 2 2 2 2 2 2 2 2 2 2
left_child=7 5 11 15 -5 6 17 16 -8 14 -11 13 -13 -3 -7 -4 -1 -2 -9 -20
right_child=1 2 3 4 -6 9 8 18 -10 10 -12 12 -14 -15 -16 -17 -18 -19 19 -21
leaf_value=-0.0061562634178517674 0.0029162923792460291 -0.010299826199170293 0.0017690302274295704 -0.010496041204954409 0.0084670211488565208 0.0062696424923160046 -0.01327046081589478 -0.017617059303308643 -0.00079557689183475306 -0.0033564528523321161 0.0079961689839458724 -0.019434097454663329 -0.0061565852134731289 0.0027257514521055962 0.021079563576255431 0.010928393032020124 0.0048048797207043267 0.01133737118411943 -0.0016816127400041958 -0.016487998515616737
leaf_weight=8.4042199999094027 16.586303442716599 9.9079322963953036 14.549391403794287 20.060846090316776 9.0672763139009458 11.919180378317835 13.46181248128414 7.1672368794679668 25.835691556334496 13.433987826108931 31.177504986524582 13.444330528378485 27.170714318752289 16.22949743270874 10.103791698813437 39.908809751272202 12.059543713927267 18.311531126499176 10.033562809228899 7.2459643185138694
leaf_count=40 72 45 63 90 38 51 60 32 112 56 132 60 120 71 42 167 51 78 42 31
internal_value=0.000298324 0.00137968 -0.00117468 0.00404036 -0.00440836 0.00411673 0.000717651 -0.00652447 -0.0053667 0.00779058 0.00451311 -0.0077124 -0.0109852 -0.00229891 0.013815 0.00861144 8.64099e-05 0.00761129 -0.0119621 -0.00861694
internal_weight=336.079 291.169 150.339 83.5863 29.1281 140.83 74.1953 44.9105 39.2975 66.6345 44.6115 66.7525 40.615 26.1374 22.023 54.4582 20.4638 34.8978 24.4468 17.2795
internal_count=1453 1257 654 358 128 603 322 196 172 281 188 296 180 116 93 230 91 150 105 73
is_linear=0
shrinkage=0.03


Tree=37
num_leaves=22
num_cat=0
split_feature=1 1 1 1 1 1 1 1 1 1 1 1 1 1 1 1 1 1 1 1 1
split_gain=3.64206 3.56782 1.34145 3.90065 3.10289 1.2921 2.03554 1.22605 1.73363 1.01404 1.69659 1.36316 0.843709 0.820365 1.78044 0.779741 0.563223 0.434181 0.352642 0.0933979 0.000393112
threshold=0.022218063473701481 0.019939567893743518 0.02330156043171883 0.024147445335984234 0.023735048249363903 0.023036074824631218 0.02284982614219189 0.027804111130535606 0.026726175099611286 0.020914737135171894 0.020673383027315143 0.021186933852732185 0.028278065845370296 0.019402863457798961 0.018222751095891002 0.022006575018167499 0.022619396448135379 0.017182101495563987 0.018830244429409507 0.020409318618476394 0.019728579558432106
decision_type=2 2 2 2 2 2 2 2 2 2 2 2 2 2 2 2 2 2 2 2 2
left_child=1 13 5 4 -4 6 16 8 -5 10 19 -11 -9 14 17 -13 -2 -1 -16 -3 -15
right_child=2 9 3 7 -6 -7 -8 12 -10 11 -12 15 -14 20 18 -17 -18 -19 -20 -21 -22
leaf_value=-0.00055214218461579036 -0.00421825303203089 0.0083933807962552863 -0.00068792071836604651 -0.002910271197974186 0.018947681713800932 -0.016760834912147124 0.0084277828768209145 0.0078144644800368732 -0.013172176660471106 -0.0045359244431488512 0.022308024928889145 0.0050439516366402185 -0.0016034526585726634 -0.0041268677940961909 0.0021647834695847803 0.015693130867791928 -0.015034518245358869 -0.0085357536782931058 0.0098262614806013029 0.0027082053674006485 -0.0086397508494723569
leaf_weight=13.006781011819841 13.803060546517377 12.43727388978005 14.190598264336588 61.266099587082863 13.086155131459234 9.1135509908199293 7.7183767706155768 10.010375186800955 19.491238117218018 9.2629465460777265 10.033469185233114 30.422735258936882 36.87386754155159 7.1287904232740393 12.518011182546617 8.1655564755201322 7.4119422733783713 12.606355875730513 12.165834620594977 7.1973256170749655 8.0726904869079572
leaf_count=57 59 53 60 270 53 41 33 43 86 40 41 129 161 31 54 35 33 57 52 30 35
internal_value=0.000286111 0.00390734 -0.00238863 -0.00110548 0.0089632 -0.0073744 -0.00385643 -0.0033334 -0.00555455 0.00822598 0.0126229 0.00523588 0.000465941 -0.00120562 0.000619145 0.00771266 -0.00863887 -0.00476735 0.00629324 0.00668703 -0.00709393
internal_weight=335.983 143.018 192.965 154.918 27.2768 38.0469 28.9334 127.642 80.7573 77.5193 29.6681 47.8512 46.8842 65.4985 50.297 38.5883 21.215 25.6131 24.6838 19.6346 15.2015
internal_count=1453 614 839 673 113 166 125 560 356 328 124 204 204 286 220 164 92 114 106 83 66
is_linear=0
shrinkage=0.03


Tree=38
num_leaves=21
num_cat=0
split_feature=0 0 0 0 0 0 0 0 0 0 0 0 0 0 0 0 0 0 0 0
split_gain=2.62228 2.11369 5.48382 3.47009 2.60021 1.82722 3.3484 1.78081 1.48791 1.27647 1.34875 1.17903 1.59689 1.18698 1.08219 0.852159 0.689958 0.579151 0.264321 0.962097
threshold=0.020595735870301727 0.023679232224822048 0.025952019728720192 0.028743912465870384 0.030840350314974788 0.022227877750992778 0.021418043412268165 0.019809902645647529 0.021719891577959064 0.02262829709798098 0.022926484234631065 0.024426761083304886 0.024853955954313282 0.023929570801556114 0.022462281398475174 0.026489762589335445 0.019065160304307941 0.020985051058232788 0.020075400359928611 0.020457257516682151
decision_type=2 2 2 2 2 2 2 2 2 2 2 2 2 2 2 2 2 2 2 2
left_child=7 5 11 15 -5 6 17 16 -8 14 -11 13 -13 -3 -7 -4 -1 -2 -9 -20
right_child=1 2 3 4 -6 9 8 18 -10 10 -12 12 -14 -15 -16 -17 -18 -19 19 -21
leaf_value=-0.0060169102620375465 0.0027744397722803656 -0.01002682761711946 0.0017520871863583719 -0.010225205589471114 0.0082843972401361963 0.0060818661318490759 -0.01299462354615784 -0.017237436270671001 -0.00078822485185945127 -0.0032847878775952573 0.0077209538128902855 -0.018979622155902671 -0.0059573737638671433 0.0025819806645916818 0.020370776067325562 0.010613662617679391 0.004639331197424431 0.010950007933759116 -0.0016692058703900085 -0.016102376527783454
leaf_weight=8.3838216364383715 16.599202662706375 9.8669929653406161 14.548200026154516 19.985957473516468 9.0787811130285245 11.931702166795732 13.407993122935293 7.1233724206686047 25.824213802814484 13.420127227902411 31.221877992153168 13.351437300443648 27.101943731307983 16.2446498721838 10.141566172242163 39.973662912845612 12.069601297378538 18.360452890396118 10.029043778777124 7.2121888101100913
leaf_count=40 72 45 63 90 38 51 60 32 112 56 132 60 120 71 42 167 51 78 42 31
internal_value=0.000278388 0.00133289 -0.00112603 0.00394901 -0.00426044 0.00396374 0.000657719 -0.00638393 -0.00525375 0.00753195 0.00434724 -0.00750736 -0.0106818 -0.00226604 0.0133753 0.00837728 5.46578e-05 0.0073367 -0.0116963 -0.00842298
internal_weight=335.877 291.059 150.152 83.5866 29.0647 140.907 74.1919 44.818 39.2322 66.7153 44.642 66.565 40.4534 26.1116 22.0733 54.5219 20.4534 34.9597 24.3646 17.2412
internal_count=1453 1257 654 358 128 603 322 196 172 281 188 296 180 116 93 230 91 150 105 73
is_linear=0
shrinkage=0.03


Tree=39
num_leaves=21
num_cat=0
split_feature=1 1 1 1 1 1 1 1 1 1 1 1 1 1 1 1 1 1 1 1
split_gain=3.49492 3.32828 1.275 3.67719 2.91856 1.22276 1.94539 1.15302 1.64418 0.951643 1.58346 1.26908 1.96008 0.803611 0.774534 1.6946 2.09282 0.54318 0.531843 0.0813554
threshold=0.022218063473701481 0.019939567893743518 0.02330156043171883 0.024147445335984234 0.023735048249363903 0.023036074824631218 0.02284982614219189 0.027804111130535606 0.026726175099611286 0.020914737135171894 0.020673383027315143 0.022006575018167499 0.021826243959367279 0.028278065845370296 0.019402863457798961 0.018111905083060268 0.018505447544157509 0.017182101495563987 0.022619396448135379 0.020409318618476394
decision_type=2 2 2 2 2 2 2 2 2 2 2 2 2 2 2 2 2 2 2 2
left_child=1 14 5 4 -4 6 18 8 -5 10 19 12 -11 -9 15 17 -17 -1 -2 -3
right_child=2 9 3 7 -6 -7 -8 13 -10 11 -12 -13 -14 -15 -16 16 -18 -19 -20 -21
leaf_value=-0.00053843710930087001 -0.0041724015088586515 0.0081099903448878328 -0.00069127536846600953 -0.0028510795701776207 0.018340471761350247 -0.01638848808785005 0.0081953347057523111 0.0075804181540449628 -0.012864871109795496 0.005874995346531491 0.021585708212971781 0.015223697031984019 -0.010251055594121166 -0.0016074695926409114 -0.0068614627497405028 0.018154387037314149 0.00010944001349070109 -0.0097852980896339994 -0.014728148690133058 0.002680564651581356
leaf_weight=12.999380350112917 13.792402610182767 12.461449235677724 14.184999510645868 61.204007029533386 13.105707854032515 9.0604388713836652 7.7297838479280463 10.025474011898039 19.408429890871048 32.225235238671303 10.061946138739584 8.1935914158821088 7.4703677594661704 36.85685783624649 15.159782707691191 7.5114240050315884 19.16184701025486 10.582764700055121 7.3754107803106299 7.1969441771507254
leaf_count=57 59 53 60 270 53 41 33 43 86 137 41 35 32 161 66 33 82 48 33 30
internal_value=0.000266791 0.00381338 -0.00235556 -0.00110388 0.00866745 -0.00722331 -0.00379732 -0.00326999 -0.00542687 0.00797935 0.012237 0.00507941 0.00258917 0.000411926 -0.00112974 0.000640861 0.00577186 -0.00503937 -0.00848411 0.00649347
internal_weight=335.768 143.025 192.744 154.785 27.2907 37.958 28.8976 127.495 80.6124 77.6095 29.7203 47.8892 39.6956 46.8823 65.4152 50.2554 26.6733 23.5821 21.1678 19.6584
internal_count=1453 614 839 673 113 166 125 560 356 328 124 204 169 204 286 220 115 105 92 83
is_linear=0
shrinkage=0.03


Tree=40
num_leaves=9
num_cat=0
split_feature=0 0 0 0 0 0 0 0
split_gain=4.66156 3.83243 3.48205 4.52861 2.54037 4.23209 0.867119 0.47665
threshold=0.030840350314974788 0.029222511686384681 0.02641265653073788 0.026963265612721447 0.020016173832118515 0.020477472804486755 0.019453139975667003 0.027558925561606887
decision_type=2 2 2 2 2 2 2 2
left_child=1 2 4 -4 6 -6 -1 -5
right_child=-2 -3 3 7 5 -7 -8 -9
leaf_value=-0.0039482979743672509 0.020741325436898959 -0.016659289836712339 0.020333375371134613 0.0052365605837621891 0.015921527183192688 -0.0016023467674281253 -0.015034739246681039 -0.0015567443111445763
leaf_weight=13.969243392348291 8.1382722556591016 12.457205414772032 14.570471972227095 13.713425308465956 12.092899113893507 230.42912602424622 14.471885606646536 23.481740280985832
leaf_count=64 34 57 60 57 51 998 63 100
internal_value=-0.000386848 -0.00096893 -0.000304432 0.00673802 -0.0016807 -0.000654441 -0.0100104 0.00094085
internal_weight=343.324 335.186 322.729 51.7656 270.963 242.522 28.4411 37.1952
internal_count=1484 1450 1393 217 1176 1049 127 157
is_linear=0
shrinkage=0.03


Tree=41
num_leaves=16
num_cat=0
split_feature=1 1 1 1 1 1 1 1 1 1 1 1 1 1 1
split_gain=3.47372 2.48349 1.51505 6.08303 1.31461 1.69451 0.907635 1.0986 0.809892 1.00801 0.836853 0.517897 0.374481 0.501266 0.105166
threshold=0.024803493171930317 0.026353308930993084 0.020536287687718872 0.020914737135171894 0.024396004155278209 0.023957726545631889 0.026726175099611286 0.027470558881759647 0.02021096553653479 0.016783350147306923 0.018561704084277156 0.028095129877328876 0.02526374347507954 0.025686505250632766 0.020766538567841056
decision_type=2 2 2 2 2 2 2 2 2 2 2 2 2 2 2
left_child=2 12 8 14 5 -5 -3 -8 9 -1 -11 -9 -2 -14 -4
right_child=1 6 3 4 -6 -7 7 11 -10 10 -12 -13 13 -15 -16
leaf_value=-0.0083164014522004743 -0.017060736689913304 0.0065149854358731918 0.02559429912536975 0.0016350262463871684 0.01015736979128682 -0.0093977676421532364 -0.0099828299076289411 0.0045380375946303978 -0.0094202821592238081 0.0056374880208882863 -0.0014139269912348611 -0.0024250360850489937 -0.0027207195191794663 -0.012269394841086212 0.013423098199745595
leaf_weight=11.175724372267721 9.5521233528852445 9.3735386431217176 7.6070226132869703 109.01556465029716 12.823241248726843 13.11745874583721 14.585187315940855 11.302238211035727 9.2767121046781522 22.444324731826782 40.947611317038536 41.18814043700695 10.105224817991258 13.325736299157141 7.3606157153844833
leaf_count=49 44 41 31 467 54 55 65 49 39 100 177 179 46 58 30
internal_value=-0.000373538 -0.00476754 0.00168216 0.00348606 0.00137995 0.000359008 -0.00169764 -0.00296823 -0.00151114 -0.000375848 0.00108486 -0.000812852 -0.0115354 -0.00855399 0.0210123
internal_weight=343.2 109.432 233.768 149.924 134.956 122.133 76.4491 67.0756 83.8444 74.5677 63.3919 52.4904 32.9831 23.431 14.9676
internal_count=1484 482 1002 637 576 522 334 293 365 326 277 228 148 104 61
is_linear=0
shrinkage=0.03


Tree=42
num_leaves=9
num_cat=0
split_feature=0 0 0 0 0 0 0 0
split_gain=4.42024 3.64804 3.31504 4.26351 2.41557 3.96953 0.834026 0.44451
threshold=0.030840350314974788 0.029222511686384681 0.02641265653073788 0.026963265612721447 0.020016173832118515 0.020477472804486755 0.019453139975667003 0.027558925561606887
decision_type=2 2 2 2 2 2 2 2
left_child=1 2 4 -4 6 -6 -1 -5
right_child=-2 -3 3 7 5 -7 -8 -9
leaf_value=-0.0038154509420856349 0.020175991757886834 -0.016283105289372237 0.019753689416033209 0.0050943701494428322 0.015397232657626287 -0.0015489396534646975 -0.014700223475736515 -0.0014629402679093176
leaf_weight=13.945334911346437 8.1679681241512281 12.384172722697256 14.610882624983786 13.722149938344954 12.134559959173201 230.26543110609055 14.418795287609099 23.457201167941093
leaf_count=64 34 57 60 57 51 998 63 100
internal_value=-0.000363356 -0.000931736 -0.000284558 0.00658442 -0.00162885 -0.000628514 -0.00976303 0.000948698
internal_weight=343.106 334.939 322.554 51.7902 270.764 242.4 28.3641 37.1794
internal_count=1484 1450 1393 217 1176 1049 127 157
is_linear=0
shrinkage=0.03


Tree=43
num_leaves=17
num_cat=0
split_feature=1 1 1 1 1 1 1 1 1 1 1 1 1 1 1 1
split_gain=3.36831 2.35654 1.42899 5.76138 1.35557 1.39278 1.22613 1.61415 0.756819 0.964116 0.798112 0.488954 0.411226 0.56475 0.205806 0.0861405
threshold=0.024803493171930317 0.026451099663972858 0.020536287687718872 0.020914737135171894 0.026856048963963989 0.027470558881759647 0.024396004155278209 0.023957726545631889 0.02021096553653479 0.016783350147306923 0.018561704084277156 0.028095129877328876 0.02526374347507954 0.02608463075011969 0.025605653412640098 0.020766538567841056
decision_type=2 2 2 2 2 2 2 2 2 2 2 2 2 2 2 2
left_child=2 12 8 15 -3 -6 7 -5 9 -1 -11 -7 -2 14 -14 -4
right_child=1 4 3 6 5 11 -8 -9 -10 10 -12 -13 13 -15 -16 -17
leaf_value=-0.0081102978662305758 -0.016674376253682514 0.0087719671842138823 0.024868790440995017 0.0016278410203471375 -0.011884865878692502 0.0043643791266014973 0.009841184027172838 -0.0091483429045038003 -0.0090854506238117558 0.0055367224998970769 -0.0013473003079082363 -0.0023974540244979321 -0.0078617213937193543 -0.014244426486721466 -0.00099400036619606402 0.013117676395917257
leaf_weight=11.146638631820677 9.489815875887869 8.9337520301341993 7.6287078261375409 108.99911469221115 12.035358071327208 11.312115624547003 12.84762831032276 13.091097787022589 9.2500117719173414 22.463344946503639 40.916358157992363 41.153437808156013 7.6401756107807222 8.7156936973333341 9.985960513353346 7.3691464215517044
leaf_count=49 44 39 31 467 54 49 54 55 39 100 177 179 35 38 44 30
internal_value=-0.000350804 -0.00468197 0.00167266 0.00342396 -0.00150617 -0.00308774 0.00137142 0.00038306 -0.00142968 -0.000332027 0.00109407 -0.000829061 -0.0108915 -0.00816482 -0.00439419 0.0204633
internal_weight=342.978 109.266 233.712 149.936 73.4347 64.5009 134.938 122.09 83.7764 74.5263 63.3797 52.4656 35.8316 26.3418 17.6261 14.9979
internal_count=1484 482 1002 637 321 282 576 522 365 326 277 228 161 117 79 61
is_linear=0
shrinkage=0.03


Tree=44
num_leaves=10
num_cat=0
split_feature=0 0 0 0 0 0 0 0 0
split_gain=4.19535 3.47876 3.1895 4.78638 5.43 1.54906 1.94162 0.960134 0.229893
threshold=0.030840350314974788 0.029222511686384681 0.025372071191668514 0.02377356588840485 0.022462281398475174 0.027558925561606887 0.027084018103778366 0.023950977250933651 0.027942569926381115
decision_type=2 2 2 2 2 2 2 2 2
left_child=1 2 3 4 -1 6 -4 -5 -7
right_child=-2 -3 5 7 -6 8 -8 -9 -10
leaf_value=-0.0032762633976929057 0.019637148359375849 -0.015929025754354138 0.0046311039044687448 -0.020369935526299884 0.0073941771148700536 -0.0052010651554371097 0.018881584950411163 -0.0080892628758590292 0.00064987929093028899
leaf_weight=133.65569092333317 8.1949433237314206 12.314304158091543 44.985166072845459 7.1656727790832511 61.991648748517036 8.1336468160152453 10.357944071292875 40.778567090630531 15.302528038620947
leaf_count=582 34 57 192 33 261 34 43 182 66
internal_value=-0.000342275 -0.00089746 -0.000266505 -0.00197345 0.000109861 0.00493246 0.00763923 -0.0103647 -0.0013877
internal_weight=342.88 334.685 322.371 243.592 195.647 78.7793 55.3431 47.9442 23.4362
internal_count=1484 1450 1393 1058 843 335 235 215 100
is_linear=0
shrinkage=0.03


Tree=45
num_leaves=9
num_cat=0
split_feature=1 1 1 1 1 1 1 1
split_gain=2.13156 4.41666 1.42319 1.24384 3.68901 0.824756 0.221062 0.314612
threshold=0.031761508435010917 0.028678483329713348 0.027907117269933227 0.018381929956376556 0.019012562930583957 0.01662014797329903 0.030386934988200668 0.029366039671003822
decision_type=2 2 2 2 2 2 2 2
left_child=1 2 3 5 -5 -1 7 -3
right_child=-2 6 -4 4 -6 -7 -8 -9
leaf_value=0.00048090624871480669 0.013654797474483541 -0.013876731096012186 0.010037333764677891 0.01496400283333911 -0.00065682508434577471 -0.010009458647376554 -0.017548451743460737 -0.0038040174044510541
leaf_weight=9.4886670708656329 8.1192600429058057 6.4785832315683383 11.130289018154143 13.389611810445784 247.45408293604851 18.05365101993084 9.5145585238933545 7.9115744233131409
leaf_count=42 34 30 48 57 1069 81 41 35
internal_value=-0.000629855 -0.00103869 -1.92389e-05 -0.000451084 0.000187651 -0.00640006 -0.0131779 -0.00914078
internal_weight=331.54 323.421 299.516 288.386 260.844 27.5423 23.9047 14.3902
internal_count=1437 1403 1297 1249 1126 123 106 65
is_linear=0
shrinkage=0.03


Tree=46
num_leaves=17
num_cat=0
split_feature=0 0 0 0 0 0 0 0 0 0 0 0 0 0 0 0
split_gain=2.60471 3.28913 3.94525 2.10176 1.49458 3.14321 4.55539 1.84472 2.00367 1.31607 2.30975 1.24807 1.19012 0.982548 0.388357 0.380049
threshold=0.025184150785207752 0.028743912465870384 0.030431213788688186 0.024628974497318271 0.020075400359928611 0.020477472804486755 0.020735678263008598 0.019759926013648513 0.019251123070716861 0.027084018103778366 0.026025844737887386 0.026489762589335445 0.027558925561606887 0.029467045329511169 0.024853955954313282 0.025727257132530216
decision_type=2 2 2 2 2 2 2 2 2 2 2 2 2 2 2 2
left_child=3 9 13 4 7 -6 -7 8 -1 10 15 -12 -11 -3 -5 -2
right_child=1 2 -4 14 5 6 -8 -9 -10 12 11 -13 -14 -15 -16 -17
leaf_value=-0.011421961662191137 0.0067213688531302896 -0.0064585651762705462 0.0057897152434975667 -0.017628438939534155 0.01369041105026763 -0.01868261395403694 -0.00024540714511115405 -0.018675586974460385 0.0077117745909033517 0.021184484328817591 -0.0080454410808461201 0.0040500020433395355 0.0063534772959392364 -0.024741938813961563 -0.0064512142726813994 0.016417802472917711
leaf_weight=9.0173429250717216 13.858829841017725 6.5276455283164996 12.926745757460592 7.4303815960884121 11.948600739240645 12.041855797171591 165.87432315945625 8.6795516312122327 8.6060744076967222 8.3930336534976977 13.877549171447756 14.64471325278282 14.721171945333479 6.3292722702026367 8.8138705492019636 7.7632156014442435
leaf_count=43 61 30 55 34 50 52 716 39 36 35 60 60 62 30 40 34
internal_value=-0.000611868 0.00342809 -0.00557528 -0.00235366 -0.00152622 -0.000562369 -0.0016075 -0.00809835 -0.00200489 0.00666967 0.00372298 -0.00180661 0.0125184 -0.0168117 -0.0124636 0.0109073
internal_weight=331.454 99.0422 25.7837 232.412 216.168 189.865 177.916 26.303 17.6234 73.2585 50.1443 28.5223 23.1142 12.8569 16.2443 21.622
internal_count=1437 427 115 1010 936 818 768 118 79 312 215 120 97 60 74 95
is_linear=0
shrinkage=0.03


Tree=47
num_leaves=9
num_cat=0
split_feature=1 1 1 1 1 1 1 1
split_gain=2.00187 4.23925 1.32434 3.27103 1.94926 0.773064 0.215672 0.292098
threshold=0.031761508435010917 0.028678483329713348 0.018381929956376556 0.019012562930583957 0.019939567893743518 0.01662014797329903 0.030386934988200668 0.029366039671003822
decision_type=2 2 2 2 2 2 2 2
left_child=1 2 5 -4 -5 -1 7 -3
right_child=-2 6 3 4 -6 -7 -8 -9
leaf_value=0.00048413010453882057 0.013232195360904827 -0.013524443962320621 0.014539740572718108 -0.0084715302466470254 0.00066888200706172966 -0.0096724664576819056 -0.017222445112942908 -0.0037468281233055418
leaf_weight=9.4813589751720446 8.1366309076547605 6.4376779049634951 13.427541241049765 22.023864552378654 236.44646649062634 17.970751538872719 9.475645646452902 7.9041223078966141
leaf_count=42 34 30 57 96 1021 81 41 35
internal_value=-0.000596869 -0.000994053 0 0.000635949 -0.000128044 -0.00616543 -0.012909 -0.00892677
internal_weight=331.304 323.167 299.35 271.898 258.47 27.4521 23.8174 14.3418
internal_count=1437 1403 1297 1174 1117 123 106 65
is_linear=0
shrinkage=0.03


Tree=48
num_leaves=17
num_cat=0
split_feature=0 0 0 0 0 0 0 0 0 0 0 0 0 0 0 0
split_gain=2.47469 3.11211 3.75094 2.00156 1.41611 2.9554 4.33008 1.77749 1.87914 1.23845 2.17315 1.1841 1.11726 0.960508 0.373598 0.360858
threshold=0.025184150785207752 0.028743912465870384 0.030431213788688186 0.024628974497318271 0.020075400359928611 0.020477472804486755 0.020735678263008598 0.019759926013648513 0.019251123070716861 0.027084018103778366 0.026025844737887386 0.026489762589335445 0.027558925561606887 0.029467045329511169 0.024853955954313282 0.025727257132530216
decision_type=2 2 2 2 2 2 2 2 2 2 2 2 2 2 2 2
left_child=3 9 13 4 7 -6 -7 8 -1 10 15 -12 -11 -3 -5 -2
right_child=1 2 -4 14 5 6 -8 -9 -10 12 11 -13 -14 -15 -16 -17
leaf_value=-0.011068792261410901 0.0065139083110914448 -0.006217473929722838 0.0056343678521951135 -0.017250171201995568 0.013265149345712577 -0.01824147003808552 -0.00022629503961800658 -0.018297992810223089 0.0074784160270746185 0.020559766359462543 -0.0078196970397929975 0.0039668689819729432 0.0061864836966087121 -0.024303893937237277 -0.0062685228099191937 0.015954854734246401
leaf_weight=8.9613546133041435 13.884276062250139 6.503023564815523 12.939457327127455 7.3828499317169216 11.979965969920157 11.980548128485678 165.83362753689289 8.6280239522457105 8.6188082695007306 8.4229971319437045 13.843383967876436 14.647888362407683 14.736116394400595 6.2655169069766998 8.7917467802762967 7.7960596084594718
leaf_count=43 61 30 55 34 50 52 716 39 36 35 60 60 62 30 40 34
internal_value=-0.000581398 0.00335563 -0.00541748 -0.00228085 -0.00147398 -0.000536477 -0.0015521 -0.00788366 -0.00190131 0.00650314 0.00364063 -0.00172925 0.0121729 -0.016431 -0.0121683 0.0105948
internal_weight=331.216 99.0387 25.708 232.177 216.002 189.794 177.814 26.2082 17.5802 73.3307 50.1716 28.4913 23.1591 12.7685 16.1746 21.6803
internal_count=1437 427 115 1010 936 818 768 118 79 312 215 120 97 60 74 95
is_linear=0
shrinkage=0.03


Tree=49
num_leaves=8
num_cat=0
split_feature=1 1 1 1 1 1 1
split_gain=1.88092 4.06783 1.29172 1.31384 2.57048 2.14579 0.218567
threshold=0.031761508435010917 0.028678483329713348 0.027907117269933227 0.022619396448135379 0.023421310819685463 0.018381929956376556 0.029580151662230495
decision_type=2 2 2 2 2 2 2
left_child=1 2 3 5 -5 -1 -3
right_child=-2 6 -4 4 -6 -7 -8
leaf_value=-0.005939177399326567 0.012825126112790406 -0.0069821509290213428 0.0095902206463477548 -0.010341438513070168 -0.00033002110734236601 0.0031736571340479388 -0.015289924976785387
leaf_weight=27.363057851791382 8.1522163003683072 9.0699533075094241 11.162988990545271 28.763203695416451 106.22037208080292 125.66720531880856 14.660473197698591
leaf_count=123 34 42 48 128 463 535 64
internal_value=-0.000567271 -0.000953192 3.36958e-06 -0.000389719 -0.00254574 0.00149675 -0.0126467
internal_weight=331.059 322.907 299.177 288.014 134.984 153.03 23.7304
internal_count=1437 1403 1297 1249 591 658 106
is_linear=0
shrinkage=0.03


Tree=50
num_leaves=14
num_cat=0
split_feature=0 0 0 0 0 0 0 0 0 0 0 0 0
split_gain=2.58797 3.26523 1.10547 0.914177 2.13638 1.48583 1.38435 0.83434 1.23146 0.708165 1.48613 0.115507 0.144319
threshold=0.026489762589335445 0.02813304960727692 0.026025844737887386 0.024987604469060901 0.02421696670353413 0.02450593933463097 0.022227877750992778 0.027623857371509079 0.026963265612721447 0.030431213788688186 0.02937643509358168 0.025727257132530216 0.025260989554226402
decision_type=2 2 2 2 2 2 2 2 2 2 2 2 2
left_child=2 7 3 4 6 -6 -1 8 -2 10 -3 12 -5
right_child=1 9 -4 11 5 -7 -8 -9 -10 -11 -12 -13 -14
leaf_value=-0.0026181903392915196 0.01432523033760486 0.0010867480387976019 -0.0098510932467919306 0.0052477658912938509 -0.017865405812991317 -0.0028378982821929332 0.0023927393826213045 0.020263857806713491 0.0012212055722216309 0.0038131386650205172 -0.014994898866899951 0.0075478742578772035 0
leaf_weight=114.79117214679718 13.462447345256807 12.834573835134508 12.230042114853857 8.0423803627491051 10.344154313206674 14.572213232517241 85.510583162307739 7.6747564971446982 13.009167939424513 12.251480385661123 7.2080500125885001 7.5316868126392356 9.5819543451070768
leaf_count=502 55 56 53 36 46 67 365 32 54 52 35 33 42
internal_value=-2.2123e-05 0.00521283 -0.00137273 -0.00090911 -0.00152961 -0.00964102 -0.000462818 0.0115537 0.00827348 -0.00154725 -0.00499197 0.00437756 0.00252914
internal_weight=329.045 66.4405 262.604 250.374 225.218 24.9164 200.302 34.1464 26.4716 32.2941 20.0426 25.156 17.6243
internal_count=1428 284 1144 1091 980 113 867 141 109 143 91 111 78
is_linear=0
shrinkage=0.03


Tree=51
num_leaves=18
num_cat=0
split_feature=1 1 1 1 1 1 1 1 1 1 1 1 1 1 1 1 1
split_gain=3.83225 3.89698 2.89013 2.46368 1.90693 1.99224 1.21014 1.11917 1.89171 1.05954 0.868061 0.699165 1.19093 0.463686 0.362075 0.278919 0.188082
threshold=0.024803493171930317 0.023421310819685463 0.022183651104569439 0.023989462293684486 0.019939567893743518 0.019667494110763076 0.020863938145339492 0.022479343228042129 0.023176647722721103 0.025207695551216606 0.026167756877839569 0.028022717684507373 0.028776853345334533 0.026726175099611286 0.025605653412640098 0.024341316893696788 0.023735048249363903
decision_type=2 2 2 2 2 2 2 2 2 2 2 2 2 2 2 2 2
left_child=1 2 4 16 5 -1 -6 -4 -9 -2 14 13 -13 -12 -11 -5 -3
right_child=9 3 7 15 6 -7 -8 8 -10 10 11 12 -14 -15 -16 -17 -18
leaf_value=0.00088154496994062635 -0.013152162809374821 0.012136451717362754 -0.015563402949363999 -0.00036619327283925543 0.010957517316546086 -0.013304210605805543 0.0026989591384869935 0.0001426026019881664 -0.016415808549430283 -0.0027121320367237724 -0.0030731725177264024 0.0067145018796907884 -0.0049925402272039147 -0.010699360032524752 0.0050212030665035259 0.0059065666381693596 0.022883932597571769
leaf_weight=55.35260221362114 11.187053874135016 9.8009123802185076 8.8636149913072568 8.9889823198318499 24.899012327194214 9.5396016240119916 47.851173967123032 26.141584068536758 6.9989824146032324 7.9349137097597149 13.871291935443876 9.3312475681304914 30.197783544659615 22.102551370859146 12.148631513118742 15.053989231586455 8.693347826600073
leaf_count=242 52 41 38 38 104 42 203 115 32 36 61 41 132 98 54 64 35
internal_value=-1.98629e-05 0.00221438 0.000244354 0.0102687 0.00236647 -0.00132859 0.00567641 -0.0065331 -0.00364491 -0.00467433 -0.00352516 -0.00499683 -0.00205746 -0.00800254 0.00183979 0.00352059 0.018257
internal_weight=328.957 222.184 179.647 42.5372 137.642 64.8922 72.7502 42.0042 33.1406 106.773 95.5864 75.5029 39.529 35.9738 20.0835 24.043 18.4943
internal_count=1428 954 776 178 591 284 307 185 147 474 422 332 173 159 90 102 76
is_linear=0
shrinkage=0.03


Tree=52
num_leaves=14
num_cat=0
split_feature=0 0 0 0 0 0 0 0 0 0 0 0 0
split_gain=2.49574 3.07524 1.03196 0.876459 1.99678 1.42376 1.30793 0.77591 1.1677 0.679229 1.41607 0.10966 0.138156
threshold=0.026489762589335445 0.02813304960727692 0.026025844737887386 0.024987604469060901 0.02421696670353413 0.02450593933463097 0.022227877750992778 0.027623857371509079 0.026963265612721447 0.030431213788688186 0.02937643509358168 0.025727257132530216 0.025260989554226402
decision_type=2 2 2 2 2 2 2 2 2 2 2 2 2
left_child=2 7 3 4 6 -6 -1 8 -2 10 -3 12 -5
right_child=1 9 -4 11 5 -7 -8 -9 -10 -11 -12 -13 -14
leaf_value=-0.0025734788248839373 0.013974885544105937 0.0010840150966397516 -0.0095544459505784874 0.0051239226890090602 -0.017445193167931545 -0.0027077826368625923 0.0022971154580958661 0.019673984531876215 0.0012069210104082573 0.0037942812390300419 -0.014641782360082707 0.0073665051052414039 0
leaf_weight=114.70622238516808 13.478665173053743 12.82789294421673 12.187519237399099 8.0506029725074821 10.279143854975702 14.543550372123716 85.534708559513092 7.6991681754589072 13.004639253020285 12.252423614263533 7.1558436602354041 7.5428389310836783 9.5789905190467817
leaf_count=502 55 56 53 36 46 67 365 32 54 52 35 33 42
internal_value=-2.03985e-05 0.00512091 -0.00134754 -0.000899446 -0.00150773 -0.009366 -0.000476977 0.0112666 0.00808637 -0.00144851 -0.00483357 0.00427432 0.00246589
internal_weight=328.842 66.4186 262.424 250.236 225.064 24.8227 200.241 34.1825 26.4833 32.2362 19.9837 25.1724 17.6296
internal_count=1428 284 1144 1091 980 113 867 141 109 143 91 111 78
is_linear=0
shrinkage=0.03


Tree=53
num_leaves=18
num_cat=0
split_feature=1 1 1 1 1 1 1 1 1 1 1 1 1 1 1 1 1
split_gain=3.66729 3.65177 2.75748 2.33245 1.77664 1.90001 1.14632 1.06386 1.80429 1.00301 0.810782 0.659245 1.13367 0.437815 0.345018 0.263598 0.176136
threshold=0.024803493171930317 0.023421310819685463 0.022183651104569439 0.023989462293684486 0.019939567893743518 0.019667494110763076 0.020863938145339492 0.022479343228042129 0.023176647722721103 0.025207695551216606 0.026167756877839569 0.028022717684507373 0.028776853345334533 0.026726175099611286 0.025605653412640098 0.024341316893696788 0.023735048249363903
decision_type=2 2 2 2 2 2 2 2 2 2 2 2 2 2 2 2 2
left_child=1 2 4 16 5 -1 -6 -4 -9 -2 14 13 -13 -12 -11 -5 -3
right_child=9 3 7 15 6 -7 -8 8 -10 10 11 12 -14 -15 -16 -17 -18
leaf_value=0.00091362425464837512 -0.012849448273108176 0.011776261742906803 -0.015196275865487564 -0.00037935835510943925 0.010656533048688775 -0.012963335968525629 0.0026203234053221924 0.00013712566065908274 -0.016065190792829993 -0.0027169170433319965 -0.0030048269312254595 0.0065233616260720849 -0.0048931771523598334 -0.01043628044905533 0.0048289876740398091 0.0057098536246703345 0.022221054708299177
leaf_weight=55.330677285790443 11.130589351058005 9.820523530244829 8.8263542652130109 8.987547695636751 24.939722537994385 9.4982093870639783 47.867607370018959 26.138215884566307 6.9564659148454657 7.9334756135940578 13.858577206730841 9.3455381691455823 30.150584399700165 22.024848982691765 12.168945550918577 15.070442914962767 8.7027886956930143
leaf_count=242 52 41 38 38 104 42 203 115 32 36 61 41 132 98 54 64 35
internal_value=-1.82005e-05 0.00216649 0.00025712 0.00995846 0.00232875 -0.00123998 0.00552081 -0.00637041 -0.0035519 -0.00457594 -0.0034572 -0.00488192 -0.00202335 -0.00780679 0.00172118 0.00339097 0.017724
internal_weight=328.751 222.139 179.557 42.5813 137.636 64.8289 72.8073 41.921 33.0947 106.613 95.482 75.3795 39.4961 35.8834 20.1024 24.058 18.5233
internal_count=1428 954 776 178 591 284 307 185 147 474 422 332 173 159 90 102 76
is_linear=0
shrinkage=0.03


Tree=54
num_leaves=14
num_cat=0
split_feature=0 0 0 0 0 0 0 0 0 0 0 0 0
split_gain=2.40716 2.89682 0.963175 0.840438 1.86626 1.36435 1.23607 0.721832 1.10746 0.651421 1.34934 0.104101 0.13226
threshold=0.026489762589335445 0.02813304960727692 0.026025844737887386 0.024987604469060901 0.02421696670353413 0.02450593933463097 0.022227877750992778 0.027623857371509079 0.026963265612721447 0.030431213788688186 0.02937643509358168 0.025727257132530216 0.025260989554226402
decision_type=2 2 2 2 2 2 2 2 2 2 2 2 2
left_child=2 7 3 4 6 -6 -1 8 -2 10 -3 12 -5
right_child=1 9 -4 11 5 -7 -8 -9 -10 -11 -12 -13 -14
leaf_value=-0.0025297661701035312 0.013635378168140208 0.0010811421135283104 -0.0092664215423714068 0.0050034123403172809 -0.017036048044414862 -0.0025826490925825486 0.0022051322437873925 0.019107288108583316 0.0011929571205957549 0.0037742962537133809 -0.014296773981852025 0.0071901032455018487 0
leaf_weight=114.62018930912018 13.493187829852106 12.820925936102869 12.145335108041762 8.0582469850778633 10.214355051517488 14.515548840165136 85.554385915398598 7.721229374408721 12.999801740050314 12.253305092453955 7.1043075174093238 7.5534154623746863 9.5757424533367139
leaf_count=502 55 56 53 36 46 67 365 32 54 52 35 33 42
internal_value=-1.87909e-05 0.00503109 -0.00132296 -0.000889885 -0.00148624 -0.00909912 -0.000490262 0.0109888 0.00790461 -0.00135332 -0.00467966 0.00417394 0.00240447
internal_weight=328.63 66.3928 262.237 250.092 224.904 24.7299 200.175 34.2142 26.493 32.1785 19.9252 25.1874 17.634
internal_count=1428 284 1144 1091 980 113 867 141 109 143 91 111 78
is_linear=0
shrinkage=0.03


Tree=55
num_leaves=17
num_cat=0
split_feature=1 1 1 1 1 1 1 1 1 1 1 1 1 1 1 1
split_gain=4.05881 2.61858 5.24177 4.34552 3.0937 3.80717 1.29526 1.02402 0.692914 1.54528 0.913326 1.13164 0.968445 0.652721 0.378448 0.259676
threshold=0.024803493171930317 0.023542405106127266 0.022567057050764564 0.020536287687718872 0.02284982614219189 0.023036074824631218 0.019402863457798961 0.024147445335984234 0.02526374347507954 0.02608463075011969 0.027470558881759647 0.026792945340275768 0.030012661591172222 0.020914737135171894 0.024566448293626312 0.025649878196418289
decision_type=2 2 2 2 2 2 2 2 2 2 2 2 2 2 2 2
left_child=1 2 3 6 -4 -6 -1 -3 -2 15 11 -11 -12 -5 -9 -10
right_child=8 7 4 13 5 -7 -8 14 9 10 12 -13 -14 -15 -16 -17
leaf_value=0.0011513585564359716 -0.012262500411883445 0.014076459555450017 -0.026015912579815049 0.014285866236994316 0.011552499840077914 -0.013299930400862489 -0.0066537228789559835 0 0.0069553533511328416 -0.0038656871960360368 0.00040251379672303831 -0.015948705599683036 -0.007981642187121012 0.006554827211307665 0.0084344811943680431 0
leaf_weight=47.265143036842346 9.8941309154033643 19.338775530457497 7.589792504906657 13.583107680082319 7.7295796722173717 14.128933936357496 30.355392426252365 10.620480522513391 9.1326940804719943 16.304293885827068 28.820220366120338 13.918909654021261 19.852292641997337 59.505970969796181 7.4287873804569236 9.1664526760578138
leaf_count=208 46 79 34 55 33 63 132 46 42 72 129 63 85 254 31 41
internal_value=-9.80009e-05 0.00224477 0.000706799 0.00299835 -0.0106356 -0.00425948 -0.00190866 0.00936599 -0.00486171 -0.00396057 -0.00578583 -0.00985902 -0.00304862 0.00820551 0.0036875 0.00364551
internal_weight=324.635 217.546 180.158 150.71 29.4483 21.8585 77.6205 37.388 107.089 97.1949 78.8957 30.2232 48.6725 73.0891 18.0493 18.2991
internal_count=1413 935 779 649 130 96 340 156 478 432 349 135 214 309 77 83
is_linear=0
shrinkage=0.03


Tree=56
num_leaves=15
num_cat=0
split_feature=0 0 0 0 0 0 0 0 0 0 0 0 0 0
split_gain=4.88266 1.89486 2.28937 2.20748 2.04744 2.80063 1.90311 1.73259 2.48854 1.51319 1.19558 0.917101 2.74129 0.715414
threshold=0.020618439652025703 0.026489762589335445 0.027320667169988159 0.023679232224822048 0.022430648095905784 0.021418043412268165 0.023929570801556114 0.030840350314974788 0.029222511686384681 0.022766671143472198 0.026025844737887386 0.020228121429681781 0.019883557222783569 0.019498424604535106
decision_type=2 2 2 2 2 2 2 2 2 2 2 2 2 2
left_child=11 3 -3 4 5 -2 -5 8 -4 -6 -8 12 13 -1
right_child=1 2 7 6 9 -7 10 -9 -10 -11 -12 -13 -14 -15
leaf_value=-0.0060166721533172415 0.0061329429593519075 0.014426043905192285 0.0045367022701704373 -0.015529241852762499 0.014295350721759187 -0.0052176902362897791 -1.2509298351773122e-05 0.014245240375928527 -0.011563821625207454 0.0033140188883274994 -0.0097706670010050001 -0.015712696713493658 0.0073996426293016825 -0.017801819414010902
leaf_weight=13.912566378712659 31.478522717952728 18.794722408056259 25.218204632401466 9.9654891192913038 16.145181700587273 48.023831933736801 58.112026676535606 7.493548482656478 11.853372067213057 38.969093680381775 13.218852683901785 13.337519600987433 8.9652076512575132 9.0089315026998502
leaf_count=64 136 77 107 46 67 210 260 31 57 164 58 57 39 40
internal_value=-9.70253e-05 0.00138387 0.00590216 2.3049e-05 0.00238874 -0.000665847 -0.00383921 0.00200379 -0.000701046 0.00678178 -0.00197242 -0.009139 -0.00590397 -0.0113246
internal_weight=324.497 279.273 63.3598 215.913 134.617 79.5024 81.2964 44.5651 37.0716 55.1143 71.3309 45.2242 31.8867 22.9215
internal_count=1413 1213 272 941 577 346 364 195 164 231 318 200 143 104
is_linear=0
shrinkage=0.03


Tree=57
num_leaves=17
num_cat=0
split_feature=1 1 1 1 1 1 1 1 1 1 1 1 1 1 1 1
split_gain=3.91083 2.45269 4.99547 4.03818 2.97808 3.61694 1.2266 0.958584 0.65726 1.48542 0.866914 1.08796 0.9406 0.610785 0.360083 0.242167
threshold=0.024803493171930317 0.023542405106127266 0.022567057050764564 0.020536287687718872 0.02284982614219189 0.023036074824631218 0.019402863457798961 0.024147445335984234 0.02526374347507954 0.02608463075011969 0.027470558881759647 0.026792945340275768 0.030012661591172222 0.020914737135171894 0.024566448293626312 0.025649878196418289
decision_type=2 2 2 2 2 2 2 2 2 2 2 2 2 2 2 2
left_child=1 2 3 6 -4 -6 -1 -3 -2 15 11 -11 -12 -5 -9 -10
right_child=8 7 4 13 5 -7 -8 14 9 10 12 -13 -14 -15 -16 -17
leaf_value=0.0011859479846183403 -0.012006724889153846 0.01364976260384938 -0.025540266338748834 0.013847037441015017 0.011242992146795083 -0.012981514753827602 -0.0064156122775239416 0 0.0067453186385416251 -0.0037869801274785799 0.0003802851926541317 -0.015657985680900471 -0.0078854762448405738 0.0063609975806466672 0.0082150745854035617 0
leaf_weight=47.237003833055496 9.8502095341682416 19.358981966972351 7.5258909910917309 13.598838195204733 7.7466034889221218 14.066504910588263 30.276465952396393 10.614800572395326 9.1517606526613253 16.281144261360172 28.807782024145126 13.853816300630568 19.821517825126648 59.572676405310631 7.4381012320518485 9.1601602584123594
leaf_count=208 46 79 34 55 33 63 132 46 42 72 129 63 85 254 31 41
internal_value=-9.60202e-05 0.00220327 0.000712616 0.00294691 -0.0103827 -0.00413131 -0.00178888 0.00909282 -0.00477654 -0.00389737 -0.00569022 -0.00966837 -0.00301943 0.00796065 0.0035888 0.00355415
internal_weight=324.362 217.436 180.024 150.685 29.339 21.8131 77.5135 37.4119 106.926 97.0762 78.7643 30.135 48.6293 73.1715 18.0529 18.3119
internal_count=1413 935 779 649 130 96 340 156 478 432 349 135 214 309 77 83
is_linear=0
shrinkage=0.03


Tree=58
num_leaves=15
num_cat=0
split_feature=0 0 0 0 0 0 0 0 0 0 0 0 0 0
split_gain=4.65338 1.84927 2.13915 2.05357 1.92765 2.63305 1.82338 1.65673 2.38039 1.43732 1.14286 0.867541 2.59457 0.684183
threshold=0.020618439652025703 0.026489762589335445 0.027320667169988159 0.023679232224822048 0.022430648095905784 0.021418043412268165 0.023929570801556114 0.030840350314974788 0.029222511686384681 0.022766671143472198 0.026025844737887386 0.020228121429681781 0.019883557222783569 0.019498424604535106
decision_type=2 2 2 2 2 2 2 2 2 2 2 2 2 2
left_child=11 3 -3 4 5 -2 -5 8 -4 -6 -8 12 13 -1
right_child=1 2 7 6 9 -7 10 -9 -10 -11 -12 -13 -14 -15
leaf_value=-0.0058720985847292633 0.0059036118357843909 0.014048987444831735 0.0044966206124289121 -0.015199646341855777 0.013860202120294591 -0.0051001646064327381 0 0.013991949319096779 -0.011276802755398944 0.003165570618933597 -0.0095351711525223821 -0.015347638427035595 0.0071399042179852573 -0.01742764804634114
leaf_weight=13.88266377151013 31.527176529169083 18.817317426204681 25.209580555558205 9.908519580960272 16.175043627619743 47.944355055689812 58.066846266388893 7.5048079043626776 11.792856752872465 38.982499644160271 13.177447110414503 13.285487681627272 8.9815766513347608 8.9611654132604581
leaf_count=64 136 77 107 46 67 210 260 31 57 164 58 57 39 40
internal_value=-9.50795e-05 0.00134967 0.00581433 4.83221e-06 0.0022858 -0.000678457 -0.00372444 0.00203464 -0.00061596 0.00654617 -0.00189866 -0.0089344 -0.00577981 -0.0110717
internal_weight=324.217 279.106 63.3246 215.782 134.629 79.4715 81.1528 44.5072 37.0024 55.1575 71.2443 45.1109 31.8254 22.8438
